SVM-light Version V6.02
0 # kernel type
3 # kernel parameter -d 
1 # kernel parameter -g 
1 # kernel parameter -s 
1 # kernel parameter -r 
empty# kernel parameter -u 
213960 # highest feature index 
160195 # number of training documents 
21484 # number of support vectors plus 1 
8.7590576 # threshold b, each following line is a SV (starting with alpha*y)
-0.0056369680607144257 2:2 103:2 104:2 105:1 106:1 107:1 108:1 109:1 110:1 111:1 112:1 113:1 114:1 115:1 12871:1 18327:1 30485:1 #
-0.042710077875567819 2:2 103:2 104:1 105:1 106:1 107:2 108:2 109:2 110:1 111:1 112:1 113:1 114:1 115:1 4018:1 5507:1 7245:1 27017:1 #
-0.042710077875567819 2:2 103:1 104:1 105:1 106:1 107:1 108:1 109:1 110:1 111:1 112:1 113:2 114:1 115:1 3613:1 14909:1 24689:1 #
-0.042710077875567819 2:2 103:1 104:1 105:1 106:1 107:1 108:1 109:1 110:1 111:1 112:1 113:2 114:1 115:1 202:1 3127:1 14214:1 #
0.042710077875567819 2:2 103:1 104:2 105:2 106:1 107:1 108:1 109:1 110:1 111:1 112:2 113:2 114:1 115:1 6642:1 27278:1 #
0.042710077875567819 2:2 103:2 104:2 105:1 106:1 107:1 108:1 109:1 110:1 111:1 112:1 113:2 114:1 115:1 8428:1 15445:1 #
-0.042710077875567819 2:1 103:1 104:1 105:1 106:1 107:1 108:1 109:2 110:1 111:1 112:1 113:2 114:1 115:1 9065:1 10887:1 17734:1 18161:1 21948:1 30556:1 #
0.042710077875567819 2:2 103:1 104:1 105:1 106:1 107:1 108:1 109:2 110:1 111:2 112:1 113:2 114:1 115:1 202:1 3127:1 10887:1 20535:1 #
0.042710077875567819 2:2 103:2 104:1 105:1 106:1 107:1 108:1 109:1 110:1 111:1 112:1 113:1 114:1 115:1 280:1 7193:1 8399:1 15087:1 20332:1 #
0.042710077875567819 2:1 103:1 104:1 105:1 106:1 107:2 108:2 109:2 110:1 111:1 112:2 113:2 114:1 115:1 15087:1 15651:1 26340:1 30195:1 #
-0.042710077875567819 2:2 103:2 104:1 105:1 106:2 107:2 108:2 109:2 110:2 111:1 112:2 113:2 114:2 115:2 24116:1 30101:1 #
-0.042710077875567819 2:2 103:2 104:2 105:2 106:2 107:2 108:2 109:2 110:2 111:1 112:2 113:2 114:1 115:1 18629:1 #
-0.042710077875567819 2:2 103:2 104:2 105:2 106:2 107:2 108:2 109:2 110:2 111:1 112:2 113:2 114:1 115:1 8428:1 #
-0.042710077875567819 2:2 103:2 104:2 105:2 106:2 107:2 108:2 109:2 110:2 111:1 112:2 113:2 114:1 115:1 19598:1 #
0.042710077875567819 2:1 103:1 104:1 105:1 106:1 107:1 108:1 109:1 110:1 111:1 112:1 113:1 114:1 115:1 8001:1 8399:1 14647:1 19725:1 28912:1 29375:1 #
0.042710077875567819 2:1 103:1 104:1 105:1 106:1 107:1 108:1 109:1 110:1 111:1 112:1 113:1 114:1 115:1 4728:1 8399:1 15245:1 16430:1 #
0.042710077875567819 2:1 103:1 104:1 105:1 106:1 107:1 108:1 109:1 110:1 111:1 112:1 113:1 114:1 115:1 5798:1 8399:1 8687:1 10468:1 16511:1 19926:1 #
0.042710077875567819 2:1 103:1 104:1 105:1 106:1 107:1 108:1 109:1 110:1 111:1 112:1 113:1 114:1 115:1 8399:1 8687:1 10468:1 13288:1 28570:1 #
0.042710077875567819 2:1 103:1 104:1 105:1 106:1 107:1 108:1 109:1 110:1 111:1 112:1 113:1 114:1 115:1 1909:1 8399:1 12499:1 13371:1 15516:1 20711:1 26346:1 30101:1 #
-0.042710077875567819 2:2 103:2 104:1 105:2 106:1 107:1 108:1 109:1 110:1 111:1 112:2 113:2 114:1 115:1 13991:1 30485:1 #
0.042710077875567819 2:1 103:1 104:1 105:1 106:1 107:1 108:1 109:1 110:1 111:1 112:1 113:2 114:1 115:1 13979:1 22263:1 25407:1 27359:1 #
-0.042710077875567819 2:2 103:2 104:2 105:1 106:1 107:1 108:1 109:1 110:1 111:1 112:1 113:1 114:1 115:1 10502:1 11174:1 15278:1 30485:1 #
0.042710077875567819 2:2 103:2 104:1 105:1 106:1 107:1 108:1 109:2 110:1 111:1 112:1 113:2 114:1 115:1 1426:1 3006:1 8399:1 9953:1 16326:1 18085:1 24634:1 #
-0.042710077875567819 2:2 103:2 104:1 105:2 106:1 107:1 108:1 109:1 110:1 111:1 112:2 113:2 114:1 115:1 2584:1 18132:1 18629:1 21581:1 #
0.042710077875567819 2:2 103:1 104:2 105:2 106:1 107:1 108:1 109:1 110:1 111:1 112:2 113:2 114:1 115:1 8428:1 27278:1 #
-0.042710077875567819 2:1 103:1 104:1 105:1 106:1 107:2 108:2 109:2 110:1 111:2 112:1 113:2 114:1 115:1 1996:1 10887:1 16102:1 17276:1 24000:1 #
-0.042710077875567819 2:1 103:1 104:1 105:1 106:2 107:2 108:2 109:2 110:2 111:1 112:2 113:2 114:1 115:1 5798:1 #
-0.042710077875567819 2:1 103:1 104:1 105:1 106:2 107:2 108:2 109:2 110:2 111:1 112:2 113:1 114:1 115:1 10417:1 15245:1 20836:1 #
-0.042710077875567819 2:1 103:1 104:1 105:1 106:2 107:2 108:2 109:2 110:2 111:1 112:2 113:2 114:1 115:1 14533:1 #
-0.042710077875567819 2:1 103:1 104:2 105:2 106:2 107:2 108:2 109:2 110:2 111:1 112:2 113:2 114:1 115:1 19598:1 #
-0.042710077875567819 2:1 103:1 104:2 105:2 106:2 107:2 108:2 109:2 110:2 111:1 112:2 113:2 114:1 115:1 8428:1 #
0.042710077875567819 2:2 103:1 104:2 105:1 106:1 107:1 108:1 109:1 110:1 111:1 112:1 113:2 114:1 115:1 2317:1 3148:1 3162:1 6199:1 27737:1 #
0.042710077875567819 2:2 103:2 104:1 105:1 106:1 107:1 108:1 109:2 110:1 111:2 112:1 113:2 114:1 115:1 202:1 3127:1 3808:1 3873:1 15087:1 15577:1 26340:1 30195:1 #
-0.0020876012202822869 2:1 103:1 104:1 105:1 106:1 107:1 108:1 109:1 110:1 111:1 112:1 113:2 114:1 115:1 683:1 1514:1 8001:1 16577:1 24541:1 27795:1 #
0.042710077875567819 2:2 103:1 104:1 105:1 106:1 107:1 108:1 109:1 110:1 111:1 112:1 113:2 114:2 115:2 3162:1 27737:1 #
0.042710077875567819 2:2 103:2 104:1 105:1 106:1 107:1 108:1 109:1 110:1 111:1 112:1 113:1 114:1 115:1 202:1 3127:1 26295:1 #
-0.042710077875567819 2:2 103:2 104:1 105:2 106:1 107:1 108:1 109:1 110:1 111:1 112:1 113:2 114:1 115:1 1134:1 8150:1 22822:1 #
0.042710077875567819 2:1 103:1 104:2 105:2 106:2 107:2 108:2 109:2 110:2 111:1 112:2 113:1 114:1 115:1 19598:1 #
-0.042710077875567819 2:2 103:2 104:2 105:1 106:1 107:1 108:1 109:1 110:1 111:1 112:1 113:2 114:1 115:1 1909:1 2808:1 8399:1 8687:1 10468:1 19598:1 #
0.042710077875567819 2:2 103:1 104:2 105:1 106:1 107:1 108:1 109:1 110:1 111:1 112:1 113:2 114:1 115:1 4855:1 4992:1 6199:1 6560:1 26318:1 #
0.042710077875567819 2:2 103:2 104:2 105:1 106:1 107:1 108:1 109:1 110:1 111:1 112:1 113:2 114:1 115:1 8150:1 8428:1 #
-0.031210075282886426 2:2 103:2 104:2 105:1 106:1 107:1 108:1 109:1 110:1 111:1 112:1 113:1 114:1 115:1 1909:1 8399:1 12499:1 20711:1 26346:1 27278:1 #
-0.042710077875567819 2:2 103:2 104:1 105:1 106:1 107:1 108:1 109:1 110:1 111:2 112:1 113:2 114:1 115:1 10887:1 12311:1 12877:1 #
0.042710077875567819 2:1 103:1 104:1 105:1 106:2 107:2 108:2 109:2 110:2 111:1 112:2 113:1 114:1 115:1 14533:1 28295:1 #
0.042710077875567819 2:1 103:1 104:1 105:1 106:2 107:2 108:2 109:2 110:2 111:1 112:2 113:1 114:1 115:1 13314:1 20836:1 23809:1 #
0.042710077875567819 2:2 103:2 104:2 105:1 106:1 107:1 108:1 109:1 110:1 111:1 112:1 113:2 114:1 115:1 14405:1 15859:1 #
-0.042710077875567819 2:2 103:2 104:2 105:1 106:1 107:1 108:1 109:1 110:1 111:1 112:1 113:1 114:1 115:1 2625:1 6642:1 10502:1 #
-0.042710077875567819 2:2 103:2 104:1 105:2 106:1 107:1 108:1 109:1 110:1 111:1 112:2 113:2 114:1 115:1 3030:1 20101:1 30485:1 #
-0.042710077875567819 2:1 103:1 104:1 105:1 106:2 107:2 108:2 109:2 110:2 111:1 112:2 113:2 114:2 115:2 24116:1 30101:1 #
-0.042710077875567819 2:1 103:1 104:1 105:1 106:2 107:2 108:2 109:2 110:2 111:1 112:1 113:2 114:2 115:2 9699:1 #
0.042710077875567819 2:2 103:1 104:1 105:1 106:1 107:1 108:1 109:1 110:1 111:1 112:1 113:2 114:1 115:1 202:1 1425:1 1505:1 2317:1 3127:1 3148:1 18589:1 20535:1 #
0.042710077875567819 2:2 103:2 104:2 105:1 106:1 107:1 108:1 109:1 110:1 111:1 112:1 113:2 114:1 115:1 1909:1 8399:1 11998:1 19598:1 #
0.042710077875567819 2:2 103:2 104:1 105:1 106:1 107:1 108:1 109:1 110:1 111:1 112:1 113:1 114:1 115:1 1909:1 2138:1 8399:1 8902:1 10502:1 25003:1 #
0.042710077875567819 2:2 103:2 104:2 105:1 106:1 107:1 108:1 109:1 110:1 111:1 112:1 113:2 114:1 115:1 1909:1 8399:1 12499:1 20711:1 26346:1 27278:1 #
0.042710077875567819 2:2 103:2 104:2 105:1 106:1 107:1 108:1 109:1 110:1 111:1 112:1 113:1 114:1 115:1 4021:1 10468:1 17586:1 28909:1 #
-0.042710077875567819 2:2 103:1 104:1 105:1 106:1 107:2 108:2 109:2 110:1 111:1 112:2 113:2 114:2 115:2 1877:1 19946:1 28295:1 #
-0.042710077875567819 2:2 103:1 104:1 105:1 106:1 107:2 108:2 109:2 110:1 111:1 112:2 113:2 114:2 115:2 5900:1 13624:1 14455:1 16565:1 #
-0.042710077875567819 2:2 103:1 104:1 105:1 106:1 107:2 108:2 109:2 110:1 111:1 112:2 113:2 114:2 115:2 1323:1 4400:1 13201:1 17949:1 22183:1 #
0.042710077875567819 2:2 103:1 104:1 105:1 106:1 107:1 108:1 109:1 110:1 111:1 112:1 113:1 114:1 115:1 280:1 7193:1 8399:1 15087:1 21102:1 21948:1 #
0.042710077875567819 2:2 103:2 104:1 105:1 106:1 107:1 108:1 109:1 110:1 111:1 112:1 113:1 114:1 115:1 6430:1 8375:1 10468:1 10887:1 13337:1 17734:1 #
0.042710077875567819 2:1 103:1 104:2 105:1 106:1 107:1 108:1 109:1 110:1 111:1 112:1 113:2 114:1 115:1 1909:1 2808:1 8399:1 8687:1 10468:1 18629:1 #
0.042710077875567819 2:2 103:2 104:1 105:1 106:1 107:1 108:1 109:1 110:1 111:1 112:1 113:1 114:1 115:1 10109:1 10468:1 18959:1 19818:1 24407:1 #
-0.042710077875567819 2:2 103:2 104:1 105:1 106:1 107:1 108:1 109:1 110:1 111:1 112:2 113:2 114:1 115:1 2187:1 24598:1 28304:1 #
-0.042710077875567819 2:2 103:1 104:1 105:1 106:1 107:1 108:1 109:1 110:1 111:1 112:1 113:2 114:1 115:1 2068:1 15651:1 16511:1 25047:1 26075:1 #
0.042710077875567819 2:2 103:2 104:2 105:1 106:1 107:1 108:1 109:1 110:1 111:1 112:2 113:2 114:1 115:1 3009:1 8428:1 #
-0.042710077875567819 2:2 103:1 104:1 105:1 106:1 107:1 108:1 109:1 110:1 111:2 112:1 113:2 114:1 115:1 3738:1 6642:1 9013:1 10887:1 #
-0.042710077875567819 2:2 103:1 104:1 105:1 106:1 107:1 108:1 109:1 110:1 111:1 112:1 113:2 114:1 115:1 254:1 3275:1 10502:1 14214:1 15087:1 21102:1 21611:1 24235:1 25338:1 #
-0.042710077875567819 2:2 103:2 104:2 105:1 106:1 107:1 108:1 109:1 110:1 111:1 112:2 113:1 114:1 115:1 2484:1 13371:1 30485:1 #
0.042710077875567819 2:2 103:2 104:2 105:1 106:1 107:1 108:1 109:1 110:1 111:1 112:1 113:2 114:1 115:1 8150:1 27278:1 #
-0.042710077875567819 2:2 103:2 104:2 105:1 106:1 107:1 108:1 109:1 110:1 111:1 112:1 113:2 114:1 115:1 5798:1 19585:1 #
0.042710077875567819 2:1 103:1 104:1 105:1 106:1 107:2 108:2 109:2 110:1 111:1 112:2 113:2 114:2 115:2 9699:1 13201:1 30101:1 #
-0.042710077875567819 2:2 103:2 104:2 105:2 106:2 107:2 108:2 109:2 110:2 111:1 112:2 113:2 114:1 115:1 30485:1 #
-0.042710077875567819 2:2 103:2 104:1 105:1 106:2 107:2 108:2 109:2 110:2 111:1 112:2 113:2 114:1 115:1 24000:1 #
-0.042710077875567819 2:2 103:2 104:2 105:2 106:2 107:2 108:2 109:2 110:2 111:1 112:2 113:2 114:1 115:1 8428:1 #
-0.042710077875567819 2:2 103:2 104:2 105:2 106:2 107:2 108:2 109:2 110:2 111:1 112:2 113:2 114:1 115:1 19585:1 #
-0.042710077875567819 2:1 103:1 104:1 105:1 106:1 107:1 108:1 109:1 110:1 111:1 112:1 113:2 114:1 115:1 6642:1 12704:1 21102:1 #
0.042710077875567819 2:2 103:1 104:1 105:2 106:1 107:1 108:1 109:1 110:1 111:1 112:1 113:2 114:1 115:1 6199:1 6430:1 11105:1 14752:1 15087:1 15577:1 21102:1 21948:1 22334:1 25338:1 26340:1 #
0.042710077875567819 2:1 103:1 104:1 105:1 106:1 107:2 108:2 109:2 110:1 111:2 112:1 113:2 114:1 115:1 202:1 1425:1 1505:1 3127:1 3808:1 3873:1 15087:1 15577:1 20535:1 26340:1 30195:1 #
0.042710077875567819 2:2 103:2 104:1 105:1 106:1 107:1 108:1 109:1 110:1 111:1 112:1 113:2 114:1 115:1 3162:1 6430:1 11105:1 14752:1 15087:1 15577:1 21102:1 21948:1 22334:1 25338:1 26340:1 27737:1 #
-0.042710077875567819 2:2 103:1 104:1 105:1 106:1 107:1 108:1 109:1 110:1 111:1 112:1 113:2 114:1 115:1 6430:1 11105:1 14752:1 15087:1 15577:1 15651:1 21102:1 21948:1 22334:1 25338:1 26340:1 30195:1 #
-0.042710077875567819 2:2 103:2 104:2 105:1 106:1 107:1 108:1 109:1 110:1 111:1 112:1 113:1 114:1 115:1 13288:1 15660:1 30485:1 #
0.042710077875567819 2:2 103:2 104:2 105:1 106:1 107:1 108:1 109:1 110:1 111:2 112:1 113:2 114:1 115:1 6642:1 10887:1 13637:1 #
-0.019360745832630963 2:2 103:2 104:2 105:1 106:1 107:1 108:1 109:1 110:1 111:1 112:1 113:1 114:1 115:1 2846:1 10753:1 18587:1 26017:1 30485:1 #
-0.042710077875567819 2:2 103:1 104:1 105:2 106:1 107:1 108:1 109:1 110:1 111:1 112:2 113:2 114:1 115:1 13591:1 30485:1 #
0.042710077875567819 2:2 103:2 104:2 105:1 106:1 107:1 108:1 109:1 110:1 111:1 112:1 113:2 114:1 115:1 23596:1 30485:1 #
-0.042710077875567819 2:1 103:1 104:1 105:1 106:1 107:2 108:2 109:2 110:1 111:2 112:1 113:2 114:1 115:1 10887:1 16102:1 17276:1 22521:1 24000:1 #
-0.042710077875567819 2:2 103:2 104:1 105:1 106:1 107:2 108:2 109:2 110:1 111:1 112:2 113:2 114:2 115:2 9699:1 13201:1 15516:1 30101:1 #
0.042710077875567819 2:1 103:1 104:1 105:1 106:1 107:1 108:1 109:1 110:1 111:1 112:1 113:1 114:1 115:1 8935:1 14214:1 15087:1 15577:1 #
-0.042710077875567819 2:1 103:1 104:2 105:2 106:2 107:2 108:2 109:2 110:2 111:1 112:1 113:2 114:1 115:1 6199:1 #
-0.034490192331133374 2:1 103:1 104:1 105:1 106:1 107:1 108:1 109:1 110:1 111:1 112:1 113:2 114:1 115:1 6430:1 10109:1 10468:1 18959:1 19818:1 20391:1 21149:1 22590:1 24407:1 28613:1 #
-0.042710077875567819 2:2 103:2 104:1 105:1 106:1 107:1 108:1 109:1 110:1 111:1 112:1 113:2 114:1 115:1 6278:1 9492:1 23791:1 26349:1 29092:1 #
0.042710077875567819 2:2 103:2 104:2 105:1 106:1 107:1 108:1 109:1 110:1 111:1 112:1 113:2 114:1 115:1 3941:1 5177:1 6642:1 #
0.042710077875567819 2:1 103:1 104:1 105:1 106:1 107:1 108:1 109:1 110:1 111:1 112:2 113:1 114:1 115:1 1877:1 9699:1 10502:1 19946:1 21948:1 #
0.042710077875567819 2:2 103:2 104:2 105:1 106:1 107:1 108:1 109:1 110:1 111:1 112:2 113:1 114:1 115:1 2317:1 9854:1 30485:1 #
0.042710077875567819 2:2 103:2 104:1 105:1 106:1 107:1 108:1 109:1 110:1 111:1 112:1 113:1 114:1 115:1 254:1 15087:1 21102:1 24235:1 25338:1 26295:1 #
0.042710077875567819 2:2 103:1 104:1 105:1 106:1 107:2 108:2 109:2 110:1 111:1 112:2 113:1 114:1 115:1 349:1 1124:1 2702:1 6160:1 14214:1 21102:1 23509:1 #
0.042710077875567819 2:2 103:1 104:1 105:1 106:1 107:2 108:2 109:2 110:1 111:1 112:2 113:2 114:1 115:1 3808:1 3873:1 15087:1 15577:1 15651:1 26340:1 30195:1 #
-0.018902937870949196 2:2 103:2 104:1 105:1 106:1 107:1 108:1 109:2 110:1 111:1 112:2 113:1 114:1 115:1 962:1 4325:1 10502:1 15087:1 15577:1 #
-0.042710077875567819 2:2 103:2 104:1 105:1 106:1 107:2 108:2 109:2 110:1 111:1 112:1 113:1 114:1 115:1 6430:1 11105:1 14752:1 15087:1 15577:1 21102:1 21948:1 22334:1 25338:1 26340:1 #
-0.042710077875567819 2:2 103:1 104:1 105:1 106:1 107:1 108:1 109:1 110:1 111:1 112:1 113:2 114:1 115:1 5002:1 6215:1 7794:1 13886:1 21149:1 22590:1 23057:1 #
-0.042710077875567819 2:1 103:1 104:2 105:2 106:1 107:1 108:1 109:1 110:1 111:1 112:1 113:2 114:1 115:1 4766:1 18629:1 #
-0.018845874034694975 2:1 103:1 104:1 105:1 106:1 107:1 108:1 109:1 110:1 111:1 112:1 113:2 114:1 115:1 288:1 2374:1 6215:1 10887:1 17477:1 #
0.042710077875567819 2:2 103:2 104:2 105:1 106:1 107:1 108:1 109:1 110:1 111:1 112:1 113:2 114:1 115:1 6430:1 10109:1 10468:1 18959:1 19818:1 21149:1 22590:1 24407:1 28909:1 #
0.042710077875567819 2:1 103:1 104:1 105:1 106:1 107:1 108:1 109:1 110:1 111:2 112:1 113:2 114:1 115:1 1023:1 4837:1 6430:1 10854:1 10887:1 11836:1 13514:1 18264:1 20800:1 21149:1 22590:1 25457:1 #
0.042710077875567819 2:1 103:1 104:1 105:1 106:1 107:1 108:1 109:1 110:1 111:1 112:1 113:2 114:1 115:1 1480:1 5900:1 6430:1 9917:1 10887:1 11373:1 11612:1 14741:1 17863:1 18110:1 19363:1 20260:1 21149:1 21314:1 22590:1 22846:1 23923:1 23937:1 24687:1 25368:1 30202:1 #
0.042710077875567819 2:1 103:1 104:1 105:1 106:1 107:1 108:1 109:1 110:1 111:1 112:1 113:2 114:1 115:1 11836:1 20800:1 21149:1 22590:1 24605:1 #
0.042710077875567819 2:1 103:1 104:1 105:1 106:1 107:1 108:1 109:1 110:1 111:2 112:1 113:2 114:1 115:1 14329:1 17054:1 19752:1 21149:1 22590:1 25587:1 #
0.042710077875567819 2:2 103:2 104:2 105:1 106:1 107:1 108:1 109:1 110:1 111:1 112:1 113:2 114:1 115:1 17152:1 30485:1 #
-0.042710077875567819 2:1 103:1 104:1 105:1 106:1 107:1 108:1 109:1 110:1 111:2 112:1 113:2 114:1 115:1 1023:1 4837:1 6430:1 10854:1 10887:1 11836:1 13514:1 16355:1 18264:1 25457:1 #
-0.019146262608584371 2:1 103:1 104:1 105:1 106:1 107:1 108:1 109:1 110:1 111:2 112:1 113:2 114:1 115:1 1023:1 4837:1 6430:1 10854:1 10887:1 11836:1 13514:1 18264:1 19936:1 25457:1 #
-0.042710077875567819 2:2 103:1 104:1 105:2 106:1 107:1 108:1 109:1 110:1 111:1 112:2 113:2 114:1 115:1 21102:1 30485:1 #
-0.02735167127010063 2:2 103:1 104:1 105:1 106:1 107:1 108:1 109:1 110:1 111:2 112:1 113:2 114:1 115:1 2849:1 10887:1 11836:1 18528:1 23544:1 26250:1 #
0.042710077875567819 2:2 103:2 104:1 105:1 106:1 107:2 108:2 109:2 110:1 111:1 112:2 113:1 114:1 115:1 7403:1 14329:1 15651:1 16477:1 20332:1 21102:1 21569:1 28295:1 #
0.042710077875567819 2:2 103:2 104:1 105:1 106:2 107:2 108:2 109:2 110:2 111:1 112:2 113:1 114:1 115:1 6542:1 13524:1 #
0.042710077875567819 2:2 103:2 104:1 105:1 106:1 107:2 108:2 109:2 110:1 111:1 112:2 113:1 114:1 115:1 3890:1 10969:1 25961:1 #
0.042710077875567819 2:2 103:2 104:1 105:1 106:1 107:2 108:2 109:2 110:1 111:1 112:2 113:1 114:1 115:1 461:1 2694:1 4789:1 5539:1 14658:1 #
0.042710077875567819 2:2 103:2 104:1 105:1 106:1 107:2 108:2 109:2 110:1 111:1 112:2 113:1 114:1 115:1 1590:1 9537:1 20999:1 26030:1 #
-0.042710077875567819 2:2 103:2 104:1 105:1 106:2 107:2 108:2 109:2 110:2 111:1 112:2 113:1 114:1 115:1 7932:1 28278:1 #
-0.042710077875567819 2:2 103:2 104:1 105:1 106:2 107:2 108:2 109:2 110:2 111:1 112:2 113:1 114:1 115:1 6278:1 23791:1 #
-0.042710077875567819 2:2 103:2 104:2 105:2 106:2 107:2 108:2 109:2 110:2 111:1 112:2 113:1 114:1 115:1 18629:1 #
-0.0075595026915914743 2:2 103:2 104:2 105:1 106:1 107:1 108:1 109:1 110:1 111:1 112:1 113:1 114:1 115:1 13257:1 23458:1 23911:1 30485:1 #
-0.042710077875567819 2:2 103:2 104:1 105:1 106:1 107:2 108:2 109:2 110:1 111:1 112:2 113:2 114:2 115:2 972:1 10043:1 12343:1 14217:1 25129:1 28295:1 #
0.042710077875567819 2:2 103:2 104:1 105:1 106:1 107:1 108:1 109:1 110:1 111:1 112:1 113:2 114:1 115:1 1023:1 4837:1 6430:1 10854:1 10887:1 11836:1 13514:1 18264:1 20800:1 21149:1 22590:1 24605:1 25457:1 #
0.042710077875567819 2:1 103:1 104:1 105:1 106:1 107:1 108:1 109:1 110:1 111:1 112:1 113:2 114:1 115:1 3162:1 6430:1 11105:1 14752:1 15087:1 15577:1 21102:1 21948:1 22334:1 25338:1 26340:1 27737:1 #
0.042710077875567819 2:1 103:1 104:1 105:2 106:1 107:1 108:1 109:1 110:1 111:1 112:1 113:2 114:1 115:1 1031:1 6316:1 6430:1 11836:1 13201:1 15733:1 19585:1 28912:1 #
0.042710077875567819 2:1 103:1 104:1 105:2 106:1 107:1 108:1 109:1 110:1 111:2 112:1 113:2 114:1 115:1 6642:1 9013:1 10887:1 #
0.042710077875567819 2:1 103:1 104:1 105:1 106:1 107:1 108:1 109:1 110:1 111:2 112:1 113:2 114:1 115:1 10887:1 19936:1 21102:1 #
-0.042710077875567819 2:2 103:1 104:1 105:2 106:1 107:1 108:1 109:1 110:1 111:1 112:1 113:2 114:1 115:1 25705:1 28570:1 #
-0.042710077875567819 2:2 103:2 104:1 105:1 106:1 107:1 108:1 109:1 110:1 111:1 112:1 113:2 114:1 115:1 13603:1 15083:1 18914:1 #
-0.042710077875567819 2:1 103:1 104:1 105:1 106:1 107:1 108:1 109:1 110:1 111:1 112:1 113:2 114:1 115:1 246:1 285:1 14329:1 17054:1 18311:1 19752:1 21149:1 22590:1 #
-0.042710077875567819 2:1 103:1 104:1 105:1 106:1 107:1 108:1 109:1 110:1 111:1 112:1 113:2 114:1 115:1 14329:1 17054:1 18311:1 19752:1 21149:1 22590:1 #
-0.042710077875567819 2:1 103:1 104:1 105:2 106:1 107:1 108:1 109:1 110:1 111:1 112:1 113:2 114:1 115:1 14329:1 17054:1 19752:1 21149:1 22590:1 30485:1 #
0.042710077875567819 2:2 103:2 104:2 105:1 106:1 107:1 108:1 109:1 110:1 111:1 112:1 113:2 114:1 115:1 6560:1 27278:1 #
0.042710077875567819 2:2 103:2 104:2 105:1 106:1 107:1 108:1 109:1 110:1 111:1 112:1 113:2 114:1 115:1 3219:1 8428:1 #
0.042710077875567819 2:2 103:2 104:1 105:1 106:2 107:2 108:2 109:2 110:2 111:1 112:1 113:1 114:2 115:1 3030:1 #
0.042710077875567819 2:2 103:1 104:2 105:1 106:1 107:1 108:1 109:1 110:1 111:1 112:1 113:2 114:1 115:1 2621:1 5698:1 23824:1 28046:1 #
-0.042710077875567819 2:2 103:2 104:1 105:1 106:1 107:2 108:2 109:2 110:1 111:1 112:2 113:2 114:2 115:2 7039:1 9699:1 13201:1 25972:1 #
0.042710077875567819 2:1 103:1 104:1 105:1 106:1 107:1 108:1 109:1 110:1 111:1 112:1 113:1 114:1 115:1 3079:1 5900:1 7403:1 11709:1 14329:1 15651:1 16477:1 20332:1 21569:1 28295:1 #
0.042710077875567819 2:1 103:1 104:1 105:1 106:1 107:1 108:1 109:1 110:1 111:2 112:1 113:2 114:1 115:1 10887:1 14329:1 17054:1 19752:1 21149:1 21404:1 22590:1 #
0.042710077875567819 2:1 103:1 104:1 105:1 106:1 107:1 108:1 109:1 110:1 111:1 112:1 113:1 114:1 115:1 2973:1 14533:1 16998:1 19086:1 20341:1 23923:1 24648:1 25161:1 28295:1 #
0.042710077875567819 2:1 103:1 104:1 105:1 106:1 107:1 108:1 109:1 110:1 111:1 112:1 113:1 114:1 115:1 4170:1 6271:1 10502:1 16937:1 21919:1 28104:1 28295:1 #
-0.042710077875567819 2:2 103:2 104:2 105:2 106:2 107:2 108:2 109:2 110:2 111:2 112:2 113:2 114:1 115:1 6642:1 #
-0.042710077875567819 2:2 103:2 104:2 105:2 106:2 107:2 108:2 109:2 110:2 111:1 112:2 113:2 114:1 115:1 8428:1 #
0.042710077875567819 2:1 103:1 104:1 105:1 106:1 107:1 108:1 109:1 110:1 111:1 112:1 113:1 114:1 115:1 4455:1 5456:1 9699:1 11836:1 15331:1 19669:1 23917:1 #
0.042710077875567819 2:1 103:1 104:1 105:1 106:1 107:1 108:1 109:1 110:1 111:1 112:1 113:1 114:1 115:1 5363:1 5534:1 8957:1 10417:1 12878:1 15245:1 20836:1 #
0.042710077875567819 2:1 103:1 104:1 105:1 106:1 107:1 108:1 109:1 110:1 111:1 112:1 113:1 114:1 115:1 7932:1 25756:1 28278:1 29968:1 #
0.042710077875567819 2:1 103:1 104:1 105:1 106:1 107:1 108:1 109:1 110:1 111:1 112:1 113:1 114:1 115:1 6278:1 7150:1 23791:1 25180:1 #
0.042710077875567819 2:1 103:1 104:1 105:1 106:1 107:1 108:1 109:1 110:1 111:1 112:1 113:1 114:1 115:1 14689:1 16370:1 21948:1 22583:1 23980:1 #
-0.042710077875567819 2:2 103:2 104:2 105:1 106:1 107:1 108:1 109:1 110:1 111:1 112:1 113:2 114:1 115:1 15355:1 19585:1 23673:1 #
0.042710077875567819 2:2 103:1 104:2 105:2 106:1 107:1 108:1 109:1 110:1 111:1 112:2 113:2 114:1 115:1 8428:1 27278:1 #
-0.027903154482608994 2:1 103:1 104:1 105:1 106:1 107:1 108:1 109:1 110:1 111:1 112:1 113:2 114:2 115:2 3030:1 10212:1 10887:1 16679:1 18645:1 20101:1 28551:1 #
-0.042710077875567819 2:1 103:1 104:1 105:1 106:1 107:1 108:1 109:1 110:1 111:1 112:1 113:2 114:2 115:2 3030:1 10887:1 16094:1 24547:1 27923:1 #
-0.042710077875567819 2:2 103:2 104:2 105:1 106:1 107:1 108:1 109:1 110:1 111:1 112:1 113:1 114:1 115:1 2216:1 6642:1 #
0.042710077875567819 2:2 103:2 104:2 105:1 106:1 107:1 108:1 109:1 110:1 111:1 112:2 113:2 114:1 115:1 1134:1 8150:1 30485:1 #
-0.042710077875567819 2:2 103:1 104:1 105:1 106:1 107:1 108:1 109:1 110:1 111:1 112:1 113:2 114:1 115:1 3890:1 4789:1 6430:1 8727:1 10887:1 10969:1 #
-0.042710077875567819 2:2 103:1 104:1 105:1 106:1 107:2 108:2 109:2 110:1 111:2 112:1 113:2 114:1 115:1 3890:1 4789:1 6430:1 8727:1 10887:1 #
-0.042710077875567819 2:2 103:1 104:1 105:1 106:2 107:2 108:2 109:2 110:2 111:1 112:1 113:2 114:2 115:2 22056:1 #
-0.042710077875567819 2:2 103:1 104:1 105:2 106:1 107:1 108:1 109:1 110:1 111:1 112:1 113:2 114:1 115:1 20775:1 30485:1 #
-0.042710077875567819 2:2 103:1 104:2 105:1 106:1 107:1 108:1 109:1 110:1 111:1 112:1 113:1 114:1 115:1 3407:1 6199:1 6307:1 15577:1 23911:1 26162:1 29335:1 #
0.042710077875567819 2:2 103:2 104:1 105:2 106:1 107:1 108:1 109:1 110:1 111:1 112:1 113:2 114:1 115:1 2317:1 17054:1 19585:1 21149:1 22590:1 23569:1 30485:1 #
0.042710077875567819 2:2 103:1 104:1 105:2 106:1 107:1 108:1 109:1 110:1 111:1 112:1 113:2 114:1 115:1 2886:1 6560:1 10502:1 15469:1 16192:1 21149:1 22590:1 28785:1 #
0.042710077875567819 2:1 103:1 104:1 105:2 106:1 107:1 108:1 109:1 110:1 111:1 112:2 113:2 114:1 115:1 972:1 4705:1 6430:1 8957:1 19286:1 21948:1 25129:1 29651:1 30485:1 #
0.042710077875567819 2:1 103:1 104:1 105:2 106:1 107:1 108:1 109:1 110:1 111:1 112:2 113:2 114:1 115:1 19598:1 20391:1 28613:1 #
-0.042710077875567819 2:1 103:1 104:1 105:2 106:1 107:1 108:1 109:1 110:1 111:1 112:2 113:2 114:1 115:1 1023:1 10898:1 21149:1 22590:1 30485:1 #
-0.042710077875567819 2:2 103:1 104:1 105:2 106:1 107:1 108:1 109:1 110:1 111:2 112:2 113:2 114:1 115:1 6642:1 13979:1 25407:1 #
-0.042710077875567819 2:1 103:1 104:1 105:2 106:1 107:1 108:1 109:1 110:1 111:1 112:2 113:2 114:1 115:1 6430:1 6790:1 11931:1 11960:1 20341:1 21149:1 22590:1 23200:1 29231:1 30485:1 #
-0.042710077875567819 2:1 103:1 104:1 105:1 106:1 107:1 108:1 109:1 110:1 111:1 112:2 113:2 114:1 115:1 2886:1 4589:1 4855:1 10502:1 14433:1 16192:1 21149:1 22590:1 27695:1 28785:1 #
-0.015109034458124421 2:2 103:2 104:1 105:1 106:1 107:1 108:1 109:1 110:1 111:1 112:1 113:2 114:1 115:1 1086:1 7013:1 8777:1 11201:1 #
0.042710077875567819 2:2 103:1 104:1 105:1 106:1 107:2 108:2 109:2 110:1 111:2 112:1 113:1 114:1 115:1 223:1 8115:1 10887:1 12064:1 #
0.042710077875567819 2:2 103:1 104:1 105:1 106:2 107:2 108:2 109:2 110:2 111:1 112:1 113:1 114:2 115:2 8150:1 #
0.042710077875567819 2:2 103:2 104:1 105:1 106:1 107:2 108:2 109:2 110:1 111:2 112:1 113:2 114:1 115:1 7039:1 9699:1 10887:1 13201:1 25972:1 #
0.042710077875567819 2:2 103:1 104:1 105:1 106:1 107:2 108:2 109:2 110:1 111:1 112:1 113:1 114:1 115:1 361:1 17183:1 23725:1 23923:1 #
0.042710077875567819 2:2 103:2 104:1 105:1 106:1 107:1 108:1 109:1 110:1 111:1 112:1 113:2 114:1 115:1 2108:1 2350:1 5177:1 6035:1 6430:1 8957:1 10969:1 14457:1 14683:1 19782:1 20307:1 24570:1 28225:1 #
-0.042710077875567819 2:2 103:2 104:1 105:1 106:1 107:2 108:2 109:2 110:1 111:2 112:1 113:1 114:1 115:1 6642:1 10887:1 26295:1 #
-0.011941154280622535 2:2 103:2 104:2 105:1 106:1 107:1 108:1 109:1 110:1 111:1 112:1 113:1 114:1 115:1 212:1 16886:1 30485:1 #
-0.042710077875567819 2:2 103:2 104:1 105:1 106:1 107:2 108:2 109:2 110:1 111:2 112:1 113:2 114:1 115:1 3373:1 10887:1 12738:1 15651:1 16745:1 18692:1 #
-0.042710077875567819 2:2 103:2 104:1 105:1 106:1 107:2 108:2 109:2 110:1 111:2 112:1 113:2 114:1 115:1 8253:1 10887:1 12738:1 15651:1 16745:1 17743:1 18692:1 #
0.042710077875567819 2:1 103:1 104:1 105:1 106:1 107:1 108:1 109:1 110:1 111:1 112:2 113:2 114:1 115:1 2886:1 4589:1 4855:1 10502:1 16192:1 21149:1 22590:1 28785:1 #
0.042710077875567819 2:2 103:2 104:1 105:1 106:1 107:1 108:1 109:1 110:1 111:1 112:1 113:2 114:1 115:1 4855:1 6430:1 6790:1 7686:1 10887:1 11931:1 11960:1 20341:1 21149:1 22590:1 23200:1 24112:1 29231:1 #
0.042710077875567819 2:1 103:1 104:1 105:1 106:1 107:1 108:1 109:1 110:1 111:1 112:2 113:2 114:1 115:1 2886:1 2977:1 4855:1 6430:1 9483:1 21149:1 22590:1 22591:1 #
0.042710077875567819 2:1 103:1 104:1 105:1 106:1 107:1 108:1 109:2 110:1 111:2 112:1 113:2 114:1 115:1 6430:1 6790:1 10887:1 11931:1 11960:1 20341:1 21149:1 22590:1 23200:1 29231:1 #
0.042710077875567819 2:2 103:2 104:1 105:1 106:1 107:1 108:1 109:1 110:1 111:1 112:2 113:2 114:1 115:1 11485:1 15823:1 18301:1 20234:1 21149:1 22590:1 22657:1 #
-0.042710077875567819 2:2 103:2 104:1 105:1 106:1 107:1 108:1 109:1 110:1 111:1 112:1 113:2 114:1 115:1 9699:1 26074:1 30571:1 #
0.042710077875567819 2:2 103:2 104:1 105:1 106:1 107:2 108:2 109:2 110:1 111:2 112:1 113:2 114:1 115:1 1422:1 7193:1 8399:1 10887:1 21872:1 23911:1 27367:1 29006:1 #
0.042710077875567819 2:2 103:2 104:1 105:1 106:1 107:2 108:2 109:2 110:1 111:2 112:1 113:2 114:1 115:1 6642:1 10887:1 26295:1 #
0.042710077875567819 2:2 103:2 104:1 105:1 106:1 107:2 108:2 109:2 110:1 111:2 112:1 113:2 114:1 115:1 6296:1 10410:1 10887:1 #
0.042710077875567819 2:2 103:2 104:1 105:1 106:1 107:2 108:2 109:2 110:1 111:2 112:1 113:2 114:1 115:1 1918:1 3738:1 10887:1 18357:1 23553:1 23911:1 26058:1 27347:1 #
0.042710077875567819 2:2 103:2 104:1 105:1 106:1 107:2 108:2 109:2 110:1 111:2 112:1 113:2 114:1 115:1 10887:1 12729:1 23911:1 #
-0.028946168998197262 2:1 103:1 104:1 105:1 106:1 107:1 108:1 109:1 110:1 111:1 112:1 113:2 114:1 115:1 2886:1 2977:1 4855:1 6430:1 9483:1 9699:1 21149:1 22590:1 22591:1 #
-0.042710077875567819 2:2 103:2 104:1 105:1 106:1 107:1 108:1 109:1 110:1 111:1 112:1 113:2 114:2 115:2 21865:1 26494:1 #
-0.042710077875567819 2:1 103:1 104:1 105:1 106:1 107:1 108:1 109:1 110:1 111:1 112:2 113:2 114:1 115:1 2886:1 2977:1 4855:1 6430:1 9483:1 14533:1 21149:1 22590:1 22591:1 29074:1 #
0.042710077875567819 2:2 103:2 104:2 105:2 106:1 107:1 108:1 109:1 110:1 111:1 112:2 113:1 114:1 115:1 8428:1 30485:1 #
0.042710077875567819 2:2 103:1 104:1 105:1 106:1 107:1 108:1 109:1 110:1 111:1 112:1 113:2 114:1 115:1 10887:1 12738:1 15651:1 16745:1 18692:1 #
0.042710077875567819 2:2 103:1 104:1 105:1 106:1 107:2 108:2 109:2 110:1 111:1 112:2 113:1 114:1 115:1 7403:1 15651:1 21102:1 #
0.042710077875567819 2:2 103:2 104:1 105:1 106:1 107:2 108:2 109:2 110:1 111:1 112:2 113:1 114:1 115:1 2250:1 4565:1 10357:1 12408:1 #
0.042710077875567819 2:1 103:1 104:1 105:1 106:1 107:2 108:2 109:2 110:1 111:1 112:1 113:1 114:1 115:1 203:1 8399:1 18362:1 19003:1 20836:1 #
-0.042710077875567819 2:2 103:2 104:2 105:1 106:1 107:1 108:1 109:1 110:1 111:1 112:1 113:2 114:1 115:1 13314:1 19286:1 19585:1 20341:1 20836:1 #
0.042710077875567819 2:2 103:2 104:1 105:1 106:1 107:1 108:1 109:1 110:1 111:1 112:2 113:2 114:1 115:1 2886:1 2977:1 4855:1 6430:1 9483:1 21149:1 22590:1 22591:1 #
-0.042710077875567819 2:2 103:2 104:1 105:1 106:1 107:1 108:1 109:1 110:1 111:1 112:2 113:2 114:2 115:2 16606:1 18362:1 18781:1 21948:1 28846:1 #
-0.042710077875567819 2:2 103:2 104:1 105:2 106:1 107:1 108:1 109:1 110:1 111:1 112:1 113:2 114:1 115:1 6199:1 13624:1 #
-0.042710077875567819 2:2 103:2 104:1 105:1 106:1 107:1 108:1 109:1 110:1 111:1 112:1 113:2 114:2 115:2 674:1 5969:1 7592:1 7903:1 10356:1 16511:1 21948:1 25789:1 28617:1 #
-0.033491220003300404 2:2 103:2 104:2 105:1 106:1 107:1 108:1 109:1 110:1 111:1 112:1 113:1 114:1 115:1 401:1 6642:1 28113:1 #
-0.042710077875567819 2:2 103:1 104:1 105:1 106:1 107:1 108:1 109:2 110:1 111:1 112:2 113:2 114:1 115:1 2317:1 7592:1 10356:1 25789:1 28938:1 #
0.042710077875567819 2:1 103:1 104:1 105:2 106:1 107:1 108:1 109:1 110:1 111:2 112:1 113:2 114:1 115:1 6430:1 6642:1 10502:1 12877:1 14178:1 17613:1 17995:1 22804:1 25978:1 26530:1 28295:1 28691:1 #
0.042710077875567819 2:1 103:1 104:1 105:2 106:1 107:1 108:1 109:1 110:1 111:2 112:1 113:2 114:1 115:1 5658:1 6430:1 6642:1 12597:1 13108:1 21865:1 23911:1 25136:1 #
0.042710077875567819 2:1 103:1 104:1 105:1 106:1 107:1 108:1 109:1 110:1 111:1 112:1 113:1 114:1 115:1 14533:1 16998:1 24648:1 25161:1 #
-0.042710077875567819 2:2 103:2 104:1 105:1 106:1 107:1 108:1 109:1 110:1 111:1 112:1 113:2 114:2 115:2 1592:1 3613:1 19404:1 #
-0.0091090503373797652 2:2 103:2 104:1 105:1 106:1 107:1 108:1 109:1 110:1 111:1 112:2 113:2 114:1 115:1 4443:1 8097:1 14329:1 19936:1 22591:1 23911:1 #
-0.042710077875567819 2:2 103:2 104:1 105:2 106:1 107:1 108:1 109:1 110:1 111:1 112:1 113:2 114:1 115:1 7793:1 8150:1 #
-0.042710077875567819 2:1 103:1 104:1 105:1 106:1 107:1 108:1 109:1 110:1 111:1 112:1 113:2 114:1 115:1 7101:1 16565:1 21284:1 30485:1 #
-0.042710077875567819 2:2 103:2 104:1 105:2 106:1 107:1 108:1 109:1 110:1 111:1 112:1 113:2 114:1 115:1 9699:1 18629:1 #
-0.042710077875567819 2:2 103:2 104:1 105:1 106:1 107:1 108:2 109:1 110:1 111:1 112:1 113:2 114:2 115:1 4437:1 6649:1 8398:1 28036:1 #
0.042710077875567819 2:2 103:2 104:1 105:1 106:1 107:2 108:2 109:2 110:1 111:1 112:2 113:2 114:2 115:2 3220:1 15651:1 26075:1 28846:1 29584:1 #
0.042710077875567819 2:2 103:2 104:1 105:1 106:1 107:2 108:2 109:2 110:1 111:1 112:2 113:2 114:2 115:2 7270:1 26075:1 28846:1 #
-0.008719883388418434 2:2 103:2 104:1 105:1 106:1 107:1 108:1 109:1 110:1 111:1 112:1 113:2 114:1 115:1 4211:1 6430:1 13333:1 26844:1 #
0.042710077875567819 2:2 103:2 104:1 105:1 106:1 107:2 108:2 109:2 110:1 111:1 112:2 113:2 114:2 115:2 9699:1 13201:1 25972:1 #
0.042710077875567819 2:2 103:2 104:1 105:1 106:1 107:2 108:2 109:2 110:1 111:1 112:2 113:2 114:2 115:2 5798:1 8150:1 9699:1 #
-0.042710077875567819 2:2 103:2 104:2 105:2 106:2 107:2 108:2 109:2 110:2 111:1 112:2 113:2 114:1 115:1 19598:1 #
0.042710077875567819 2:2 103:2 104:2 105:1 106:1 107:1 108:1 109:1 110:1 111:1 112:1 113:2 114:1 115:1 6430:1 6642:1 10502:1 12877:1 14178:1 17613:1 17995:1 22804:1 25978:1 26530:1 28295:1 28691:1 #
-0.042710077875567819 2:2 103:2 104:1 105:2 106:1 107:1 108:1 109:1 110:1 111:1 112:1 113:2 114:1 115:1 8428:1 15025:1 #
-0.042710077875567819 2:2 103:2 104:1 105:1 106:1 107:2 108:2 109:2 110:1 111:1 112:2 113:2 114:2 115:2 7039:1 9699:1 13201:1 25972:1 #
0.042710077875567819 2:2 103:2 104:2 105:1 106:1 107:1 108:1 109:1 110:1 111:1 112:1 113:2 114:1 115:1 6430:1 6642:1 10502:1 12877:1 14178:1 17613:1 17995:1 22804:1 25978:1 26530:1 28295:1 28691:1 #
0.042710077875567819 2:1 103:1 104:1 105:1 106:1 107:1 108:1 109:1 110:1 111:1 112:1 113:1 114:1 115:1 1197:1 7238:1 10502:1 12877:1 25978:1 26530:1 28295:1 28691:1 #
0.042710077875567819 2:1 103:1 104:1 105:1 106:1 107:1 108:1 109:1 110:1 111:1 112:1 113:1 114:1 115:1 679:1 1149:1 9927:1 10502:1 12877:1 13224:1 16299:1 19474:1 21538:1 #
0.042710077875567819 2:1 103:1 104:1 105:1 106:1 107:1 108:1 109:1 110:1 111:1 112:1 113:1 114:1 115:1 679:1 1149:1 2557:1 5177:1 10502:1 12877:1 19474:1 #
0.042710077875567819 2:1 103:1 104:1 105:1 106:1 107:1 108:1 109:1 110:1 111:2 112:1 113:2 114:1 115:1 10887:1 12877:1 28295:1 #
-0.035728841562907759 2:1 103:1 104:1 105:1 106:1 107:1 108:1 109:1 110:1 111:1 112:1 113:2 114:1 115:1 378:1 3246:1 21787:1 26019:1 #
0.042710077875567819 2:1 103:1 104:1 105:1 106:1 107:1 108:1 109:1 110:1 111:1 112:2 113:1 114:1 115:1 11296:1 18362:1 18781:1 20836:1 28846:1 #
-0.042710077875567819 2:1 103:1 104:2 105:1 106:1 107:1 108:1 109:1 110:1 111:2 112:1 113:2 114:1 115:1 4705:1 6430:1 6642:1 15083:1 17734:1 19585:1 #
-0.042710077875567819 2:2 103:1 104:1 105:1 106:1 107:1 108:1 109:1 110:1 111:1 112:1 113:2 114:2 115:2 2584:1 5374:1 6430:1 7693:1 8821:1 11105:1 16565:1 22846:1 26075:1 28846:1 29584:1 #
-0.042710077875567819 2:1 103:1 104:1 105:1 106:1 107:1 108:1 109:1 110:1 111:1 112:1 113:2 114:2 115:2 1282:1 2584:1 5374:1 6430:1 8821:1 11105:1 14683:1 16511:1 16565:1 22846:1 26075:1 26805:1 29584:1 #
-0.02710604854718518 2:2 103:2 104:2 105:1 106:1 107:1 108:1 109:1 110:1 111:1 112:1 113:1 114:1 115:1 246:1 6642:1 20124:1 #
-0.042710077875567819 2:2 103:1 104:1 105:2 106:1 107:1 108:1 109:1 110:1 111:1 112:1 113:2 114:1 115:1 8150:1 8428:1 #
0.042710077875567819 2:2 103:1 104:1 105:1 106:1 107:1 108:1 109:1 110:1 111:1 112:1 113:2 114:1 115:1 2886:1 2977:1 4855:1 6430:1 9483:1 10887:1 21149:1 22590:1 22591:1 #
0.042710077875567819 2:2 103:1 104:1 105:1 106:1 107:1 108:1 109:1 110:1 111:1 112:2 113:2 114:2 115:2 674:1 2639:1 6430:1 7903:1 8957:1 15627:1 16232:1 16511:1 21191:1 28617:1 #
0.042710077875567819 2:2 103:1 104:1 105:1 106:1 107:1 108:1 109:1 110:1 111:1 112:2 113:1 114:1 115:1 14214:1 15087:1 17651:1 21102:1 21948:1 #
0.042710077875567819 2:2 103:1 104:1 105:1 106:1 107:1 108:1 109:1 110:1 111:1 112:2 113:1 114:1 115:1 4981:1 6278:1 18903:1 23791:1 23911:1 29092:1 #
0.042710077875567819 2:2 103:1 104:1 105:1 106:1 107:1 108:1 109:1 110:1 111:1 112:1 113:2 114:1 115:1 2606:1 10887:1 12858:1 15384:1 20084:1 21149:1 22590:1 23923:1 27629:1 #
-0.042710077875567819 2:2 103:2 104:1 105:1 106:1 107:1 108:1 109:1 110:1 111:1 112:1 113:2 114:1 115:1 5572:1 10410:1 10887:1 #
-0.0071430680582901078 2:2 103:1 104:1 105:1 106:1 107:1 108:1 109:1 110:1 111:1 112:1 113:2 114:1 115:1 2647:1 28093:1 29231:1 30485:1 #
0.042710077875567819 2:2 103:2 104:2 105:2 106:1 107:1 108:1 109:1 110:1 111:1 112:1 113:2 114:1 115:1 6199:1 27278:1 #
-0.042710077875567819 2:2 103:2 104:1 105:1 106:1 107:1 108:1 109:1 110:1 111:1 112:2 113:2 114:1 115:1 2886:1 4589:1 4855:1 6230:1 10502:1 11599:1 16192:1 21149:1 22590:1 28785:1 #
0.042710077875567819 2:2 103:2 104:2 105:1 106:1 107:1 108:1 109:1 110:1 111:1 112:1 113:2 114:1 115:1 2108:1 2685:1 4705:1 6430:1 6579:1 7535:1 7793:1 8399:1 9391:1 14658:1 18104:1 18349:1 19003:1 #
0.042710077875567819 2:1 103:1 104:1 105:1 106:1 107:1 108:1 109:2 110:1 111:1 112:1 113:2 114:2 115:2 2584:1 5374:1 6430:1 8821:1 10502:1 11105:1 16565:1 22846:1 29584:1 #
0.042710077875567819 2:2 103:2 104:1 105:1 106:1 107:1 108:1 109:1 110:1 111:1 112:1 113:2 114:2 115:2 2584:1 5374:1 6430:1 8821:1 10502:1 11105:1 16565:1 19140:1 22846:1 25922:1 29584:1 #
0.016063059433085922 2:1 103:1 104:2 105:1 106:1 107:1 108:1 109:1 110:1 111:1 112:1 113:2 114:1 115:1 1282:1 1423:1 5374:1 5900:1 6160:1 6199:1 6430:1 8821:1 11105:1 24980:1 #
0.042710077875567819 2:1 103:1 104:2 105:1 106:1 107:1 108:1 109:1 110:1 111:1 112:1 113:2 114:1 115:1 6430:1 9699:1 16528:1 16565:1 19585:1 19626:1 22893:1 #
-0.042710077875567819 2:2 103:1 104:2 105:1 106:1 107:1 108:1 109:1 110:1 111:1 112:1 113:2 114:1 115:1 6199:1 6430:1 7403:1 14329:1 15651:1 18872:1 20332:1 21948:1 23980:1 28295:1 #
-0.042710077875567819 2:2 103:1 104:1 105:1 106:1 107:1 108:1 109:1 110:1 111:1 112:1 113:2 114:2 115:2 3033:1 6430:1 9492:1 9699:1 16528:1 16565:1 19626:1 22893:1 #
-0.042710077875567819 2:2 103:2 104:1 105:1 106:1 107:2 108:2 109:2 110:1 111:1 112:1 113:2 114:2 115:2 5900:1 13624:1 14152:1 14986:1 16565:1 24995:1 #
0.042710077875567819 2:2 103:2 104:1 105:1 106:1 107:1 108:1 109:1 110:1 111:1 112:1 113:2 114:1 115:1 455:1 2886:1 3147:1 4589:1 6560:1 10502:1 16192:1 21149:1 22590:1 28785:1 #
0.042710077875567819 2:1 103:1 104:1 105:1 106:1 107:1 108:2 109:1 110:1 111:1 112:2 113:2 114:1 115:1 2886:1 4855:1 10502:1 16192:1 21149:1 28785:1 #
0.042710077875567819 2:2 103:1 104:1 105:1 106:1 107:1 108:1 109:1 110:1 111:1 112:1 113:2 114:1 115:1 2886:1 4855:1 10502:1 10887:1 16192:1 21149:1 22590:1 28785:1 #
0.042710077875567819 2:2 103:2 104:1 105:1 106:1 107:1 108:1 109:1 110:1 111:1 112:1 113:1 114:1 115:1 2886:1 4589:1 10502:1 16192:1 28785:1 #
0.033574151591456977 2:2 103:1 104:1 105:1 106:1 107:1 108:1 109:2 110:1 111:1 112:1 113:2 114:2 115:2 5374:1 11105:1 16565:1 22364:1 23501:1 29584:1 #
-0.042710077875567819 2:2 103:2 104:1 105:1 106:1 107:1 108:1 109:1 110:1 111:1 112:1 113:2 114:1 115:1 4455:1 5456:1 10887:1 11231:1 14647:1 15331:1 15654:1 19669:1 23911:1 23917:1 24605:1 #
-0.042710077875567819 2:2 103:2 104:1 105:1 106:1 107:1 108:1 109:1 110:1 111:1 112:1 113:2 114:1 115:1 2849:1 5900:1 11388:1 24199:1 24980:1 #
-0.042710077875567819 2:2 103:2 104:2 105:1 106:1 107:1 108:1 109:1 110:1 111:1 112:1 113:1 114:1 115:1 10502:1 24643:1 27695:1 27970:1 30485:1 #
-0.042710077875567819 2:2 103:1 104:1 105:2 106:1 107:1 108:1 109:1 110:1 111:1 112:2 113:2 114:1 115:1 8428:1 28341:1 #
-0.042710077875567819 2:2 103:2 104:1 105:2 106:1 107:1 108:1 109:1 110:1 111:1 112:1 113:2 114:1 115:1 6199:1 13624:1 #
0.042710077875567819 2:1 103:1 104:1 105:1 106:1 107:2 108:2 109:2 110:1 111:1 112:1 113:2 114:2 115:2 5900:1 13624:1 14152:1 16565:1 24995:1 #
0.042710077875567819 2:2 103:2 104:1 105:1 106:1 107:1 108:1 109:1 110:1 111:1 112:1 113:2 114:1 115:1 2330:1 6430:1 7403:1 14329:1 15651:1 18872:1 20332:1 21948:1 23980:1 28295:1 #
0.042710077875567819 2:2 103:2 104:1 105:1 106:1 107:1 108:1 109:1 110:1 111:1 112:1 113:2 114:2 115:2 1282:1 6430:1 14683:1 15563:1 16511:1 26075:1 26491:1 26805:1 29584:1 #
0.042710077875567819 2:2 103:2 104:1 105:1 106:1 107:1 108:1 109:1 110:1 111:1 112:1 113:2 114:2 115:2 6430:1 9699:1 16528:1 16565:1 19626:1 22479:1 22893:1 #
-0.042710077875567819 2:2 103:2 104:1 105:1 106:1 107:1 108:1 109:1 110:1 111:1 112:2 113:2 114:1 115:1 6316:1 9699:1 11836:1 15733:1 21102:1 28912:1 #
-0.042710077875567819 2:1 103:1 104:1 105:1 106:1 107:1 108:1 109:2 110:1 111:1 112:1 113:2 114:2 115:2 2584:1 5374:1 6430:1 8821:1 11105:1 16511:1 16565:1 22846:1 29584:1 #
-0.042710077875567819 2:1 103:1 104:1 105:1 106:2 107:2 108:2 109:2 110:2 111:1 112:1 113:2 114:2 115:2 9699:1 #
0.042710077875567819 2:2 103:1 104:1 105:2 106:1 107:1 108:1 109:1 110:1 111:1 112:1 113:2 114:1 115:1 6199:1 10887:1 15245:1 24995:1 29447:1 #
0.042710077875567819 2:2 103:1 104:1 105:1 106:1 107:1 108:1 109:1 110:1 111:2 112:1 113:2 114:1 115:1 2108:1 10887:1 15245:1 27964:1 29447:1 #
0.042710077875567819 2:2 103:1 104:1 105:1 106:1 107:1 108:1 109:1 110:1 111:2 112:1 113:1 114:1 115:1 4843:1 10624:1 10887:1 18758:1 #
0.042710077875567819 2:1 103:1 104:1 105:1 106:1 107:1 108:1 109:1 110:1 111:2 112:1 113:2 114:1 115:1 3936:1 10887:1 15245:1 24995:1 29447:1 #
0.042710077875567819 2:2 103:1 104:1 105:2 106:1 107:1 108:1 109:1 110:1 111:1 112:1 113:2 114:1 115:1 2108:1 6199:1 10887:1 15245:1 29447:1 #
-0.042710077875567819 2:2 103:2 104:2 105:2 106:2 107:2 108:2 109:2 110:2 111:2 112:2 113:2 114:1 115:1 6642:1 #
-0.042710077875567819 2:2 103:2 104:2 105:2 106:1 107:1 108:1 109:1 110:1 111:1 112:2 113:2 114:1 115:1 6642:1 28909:1 #
-0.042710077875567819 2:2 103:2 104:2 105:1 106:1 107:1 108:1 109:1 110:1 111:2 112:2 113:2 114:1 115:1 6642:1 15469:1 23980:1 28072:1 #
0.042710077875567819 2:2 103:1 104:1 105:1 106:1 107:1 108:1 109:1 110:1 111:1 112:1 113:1 114:1 115:1 4457:1 8399:1 8649:1 10502:1 12634:1 14397:1 21255:1 23113:1 28295:1 29651:1 #
0.042710077875567819 2:2 103:1 104:1 105:1 106:1 107:1 108:1 109:1 110:1 111:1 112:1 113:1 114:1 115:1 2685:1 3336:1 4521:1 4735:1 7088:1 8399:1 9981:1 10502:1 13567:1 21824:1 #
0.042710077875567819 2:2 103:1 104:1 105:1 106:1 107:1 108:1 109:1 110:1 111:1 112:1 113:1 114:1 115:1 3033:1 7840:1 8399:1 10502:1 12530:1 21967:1 #
0.042710077875567819 2:2 103:2 104:1 105:1 106:1 107:1 108:1 109:1 110:1 111:1 112:1 113:1 114:1 115:1 4455:1 5456:1 8001:1 8399:1 14647:1 15331:1 19669:1 23917:1 29375:1 #
-0.042710077875567819 2:2 103:1 104:1 105:1 106:1 107:1 108:1 109:2 110:1 111:2 112:1 113:2 114:1 115:1 7207:1 9699:1 10887:1 14574:1 15174:1 15867:1 18161:1 20083:1 23256:1 24063:1 #
-0.042710077875567819 2:1 103:1 104:1 105:1 106:1 107:1 108:1 109:1 110:1 111:1 112:1 113:2 114:1 115:1 3336:1 3536:1 3941:1 6430:1 8399:1 8957:1 9545:1 10502:1 19432:1 20332:1 22884:1 24554:1 24585:1 25961:1 26366:1 27160:1 27980:1 29662:1 #
-0.042710077875567819 2:2 103:2 104:1 105:1 106:1 107:2 108:2 109:2 110:1 111:2 112:1 113:1 114:1 115:1 10887:1 15245:1 24995:1 29447:1 #
-0.042710077875567819 2:2 103:2 104:1 105:1 106:1 107:1 108:1 109:1 110:1 111:1 112:1 113:2 114:1 115:1 1609:1 13540:1 #
-0.042710077875567819 2:2 103:2 104:1 105:2 106:1 107:1 108:1 109:1 110:1 111:1 112:1 113:2 114:1 115:1 12523:1 28909:1 #
0.042710077875567819 2:2 103:2 104:1 105:1 106:1 107:2 108:2 109:2 110:1 111:2 112:1 113:2 114:1 115:1 10887:1 18262:1 19950:1 23911:1 #
-0.04268431649833998 2:2 103:2 104:1 105:1 106:1 107:2 108:2 109:2 110:1 111:1 112:1 113:1 114:1 115:1 6278:1 11296:1 23791:1 27369:1 29092:1 #
-0.042710077875567819 2:2 103:2 104:1 105:1 106:1 107:2 108:2 109:2 110:1 111:1 112:1 113:1 114:1 115:1 4521:1 4735:1 8399:1 9981:1 10502:1 13567:1 21824:1 22564:1 #
-0.042710077875567819 2:2 103:2 104:1 105:1 106:1 107:1 108:2 109:1 110:1 111:1 112:1 113:2 114:1 115:1 6278:1 15595:1 23791:1 29092:1 #
-0.022966228884859163 2:2 103:1 104:1 105:1 106:1 107:1 108:1 109:1 110:1 111:1 112:1 113:2 114:1 115:1 6430:1 6959:1 8838:1 8843:1 9071:1 12799:1 14970:1 17885:1 21102:1 21948:1 23458:1 24586:1 24687:1 25640:1 25798:1 28020:1 #
-0.042710077875567819 2:2 103:1 104:1 105:1 106:1 107:1 108:1 109:1 110:1 111:1 112:1 113:2 114:1 115:1 5900:1 11288:1 24199:1 24605:1 24980:1 26494:1 28878:1 #
0.042710077875567819 2:1 103:1 104:1 105:1 106:1 107:1 108:1 109:1 110:1 111:1 112:2 113:1 114:1 115:1 2376:1 4855:1 13362:1 20836:1 24063:1 27695:1 #
0.042710077875567819 2:2 103:1 104:1 105:2 106:1 107:1 108:1 109:1 110:1 111:2 112:2 113:2 114:1 115:1 6642:1 8185:1 21149:1 22590:1 24605:1 #
0.042710077875567819 2:2 103:2 104:2 105:1 106:1 107:1 108:1 109:1 110:1 111:1 112:2 113:2 114:1 115:1 1323:1 4400:1 6642:1 22183:1 #
0.042710077875567819 2:2 103:1 104:1 105:1 106:1 107:1 108:1 109:1 110:1 111:1 112:2 113:1 114:1 115:1 4855:1 13362:1 20836:1 24063:1 27695:1 #
-0.040364468015859661 2:2 103:1 104:1 105:1 106:1 107:1 108:1 109:1 110:1 111:1 112:2 113:2 114:1 115:1 4855:1 14433:1 27695:1 #
-0.0041871553099729689 2:2 103:2 104:2 105:1 106:1 107:1 108:1 109:1 110:1 111:1 112:1 113:1 114:1 115:1 1773:1 4404:1 8957:1 27278:1 #
-0.042710077875567819 2:2 103:2 104:1 105:1 106:1 107:1 108:1 109:2 110:1 111:1 112:1 113:1 114:1 115:1 2350:1 5177:1 19782:1 20307:1 24570:1 28225:1 #
-0.042710077875567819 2:2 103:2 104:2 105:1 106:1 107:1 108:1 109:1 110:1 111:1 112:1 113:1 114:1 115:1 6642:1 10502:1 10928:1 #
0.015145429575131399 2:2 103:1 104:1 105:1 106:1 107:2 108:2 109:2 110:1 111:1 112:1 113:2 114:1 115:1 6278:1 10887:1 21149:1 23791:1 29092:1 #
0.042710077875567819 2:2 103:2 104:2 105:1 106:1 107:1 108:1 109:1 110:1 111:1 112:1 113:2 114:1 115:1 6278:1 23791:1 27369:1 29092:1 30485:1 #
0.042710077875567819 2:1 103:1 104:1 105:1 106:2 107:2 108:2 109:2 110:2 111:1 112:2 113:2 114:1 115:1 17717:1 23830:1 27782:1 #
0.042710077875567819 2:2 103:1 104:1 105:1 106:1 107:2 108:2 109:2 110:1 111:1 112:1 113:2 114:1 115:1 4105:1 7634:1 20409:1 #
-0.042710077875567819 2:2 103:1 104:1 105:1 106:2 107:2 108:2 109:2 110:2 111:1 112:1 113:2 114:1 115:1 20097:1 #
-0.042710077875567819 2:2 103:2 104:1 105:1 106:2 107:2 108:2 109:2 110:2 111:1 112:1 113:2 114:2 115:1 9699:1 #
-0.042710077875567819 2:2 103:1 104:2 105:2 106:2 107:2 108:2 109:2 110:2 111:1 112:1 113:2 114:1 115:1 6199:1 #
0.042710077875567819 2:1 103:1 104:1 105:1 106:1 107:1 108:1 109:1 110:1 111:1 112:1 113:1 114:1 115:1 2376:1 2886:1 10502:1 13362:1 16192:1 20836:1 24063:1 28785:1 #
0.042710077875567819 2:1 103:1 104:1 105:1 106:1 107:1 108:1 109:1 110:1 111:1 112:1 113:1 114:1 115:1 4521:1 4735:1 8399:1 9981:1 10502:1 13567:1 13677:1 16879:1 21824:1 23219:1 #
0.042710077875567819 2:1 103:1 104:1 105:1 106:1 107:1 108:1 109:1 110:1 111:1 112:1 113:1 114:1 115:1 13362:1 16192:1 20836:1 24063:1 28785:1 #
0.042710077875567819 2:1 103:1 104:1 105:1 106:1 107:1 108:1 109:1 110:1 111:1 112:1 113:1 114:1 115:1 1641:1 10502:1 11524:1 12634:1 15105:1 20341:1 20836:1 #
0.042710077875567819 2:1 103:1 104:1 105:1 106:1 107:1 108:1 109:1 110:1 111:1 112:1 113:1 114:1 115:1 7188:1 10146:1 10502:1 20836:1 21147:1 #
-0.042710077875567819 2:2 103:1 104:1 105:1 106:1 107:1 108:1 109:1 110:1 111:1 112:1 113:2 114:1 115:1 2886:1 6560:1 10502:1 16192:1 19863:1 21149:1 22590:1 28785:1 #
-0.015588963681427911 2:2 103:1 104:1 105:1 106:1 107:1 108:1 109:1 110:1 111:1 112:1 113:2 114:1 115:1 6278:1 23791:1 26633:1 29092:1 #
-0.042710077875567819 2:1 103:1 104:1 105:2 106:1 107:1 108:1 109:1 110:1 111:1 112:1 113:2 114:1 115:1 6642:1 12259:1 13204:1 13624:1 #
-0.042710077875567819 2:1 103:1 104:1 105:1 106:1 107:2 108:2 109:2 110:1 111:2 112:1 113:2 114:1 115:1 1996:1 10887:1 16102:1 17276:1 24000:1 #
-0.042710077875567819 2:2 103:2 104:2 105:1 106:1 107:1 108:1 109:1 110:1 111:1 112:2 113:2 114:1 115:1 6278:1 6642:1 23791:1 #
-0.042710077875567819 2:2 103:2 104:2 105:1 106:1 107:1 108:1 109:1 110:1 111:1 112:2 113:2 114:1 115:1 361:1 6642:1 #
-0.042710077875567819 2:2 103:2 104:2 105:1 106:1 107:1 108:1 109:1 110:1 111:1 112:2 113:2 114:1 115:1 2639:1 6642:1 23675:1 #
-0.042710077875567819 2:1 103:1 104:1 105:2 106:1 107:1 108:1 109:1 110:1 111:1 112:1 113:2 114:1 115:1 12397:1 26256:1 #
-0.042710077875567819 2:2 103:1 104:2 105:1 106:1 107:1 108:1 109:1 110:1 111:1 112:2 113:2 114:1 115:1 5900:1 24199:1 24980:1 28909:1 #
-0.015307767685196538 2:1 103:1 104:1 105:1 106:1 107:1 108:1 109:1 110:1 111:1 112:1 113:2 114:1 115:1 1293:1 10887:1 13995:1 #
0.042710077875567819 2:1 103:1 104:1 105:1 106:1 107:2 108:2 109:2 110:1 111:1 112:1 113:2 114:2 115:2 2250:1 2584:1 6430:1 11599:1 12408:1 12857:1 12961:1 17743:1 18132:1 20332:1 24687:1 #
0.042710077875567819 2:1 103:1 104:1 105:1 106:2 107:2 108:2 109:2 110:2 111:1 112:1 113:1 114:1 115:1 16670:1 16969:1 17477:1 #
-0.042710077875567819 2:1 103:1 104:1 105:1 106:2 107:2 108:2 109:2 110:2 111:1 112:1 113:2 114:2 115:2 9699:1 #
0.042710077875567819 2:2 103:2 104:2 105:2 106:1 107:1 108:1 109:1 110:1 111:2 112:2 113:2 114:1 115:1 6642:1 27278:1 #
0.031126645183896004 2:2 103:2 104:1 105:1 106:1 107:1 108:1 109:2 110:1 111:1 112:1 113:2 114:1 115:1 6642:1 7250:1 16879:1 23980:1 28072:1 #
-0.042710077875567819 2:2 103:1 104:1 105:1 106:1 107:1 108:1 109:1 110:1 111:1 112:1 113:2 114:2 115:2 4768:1 6430:1 6986:1 13768:1 15119:1 #
-0.042710077875567819 2:1 103:1 104:1 105:1 106:2 107:2 108:2 109:2 110:2 111:2 112:1 113:2 114:1 115:1 10887:1 21102:1 #
-0.042710077875567819 2:2 103:2 104:2 105:1 106:1 107:1 108:1 109:1 110:1 111:1 112:1 113:1 114:1 115:1 1909:1 6642:1 10959:1 28902:1 #
-0.042710077875567819 2:1 103:1 104:1 105:1 106:2 107:2 108:2 109:2 110:2 111:2 112:1 113:2 114:1 115:1 4533:1 10887:1 #
0.042710077875567819 2:2 103:2 104:1 105:1 106:1 107:1 108:1 109:1 110:1 111:1 112:1 113:1 114:1 115:1 2685:1 6579:1 7535:1 9391:1 18349:1 19003:1 #
0.042710077875567819 2:2 103:2 104:2 105:1 106:1 107:1 108:1 109:1 110:1 111:1 112:2 113:2 114:1 115:1 4837:1 5900:1 12877:1 16565:1 19598:1 28295:1 #
0.042710077875567819 2:2 103:2 104:1 105:2 106:1 107:1 108:1 109:1 110:1 111:1 112:2 113:2 114:1 115:1 5900:1 8428:1 24199:1 24980:1 #
0.042710077875567819 2:2 103:2 104:2 105:2 106:1 107:1 108:1 109:1 110:1 111:1 112:1 113:1 114:1 115:1 6199:1 30485:1 #
-0.023071304795531877 2:2 103:1 104:1 105:1 106:1 107:1 108:1 109:1 110:1 111:1 112:1 113:2 114:1 115:1 4021:1 6293:1 8399:1 10468:1 12315:1 17586:1 18110:1 #
-0.042710077875567819 2:2 103:2 104:2 105:2 106:1 107:1 108:1 109:1 110:1 111:1 112:2 113:2 114:1 115:1 8428:1 30485:1 #
0.042710077875567819 2:2 103:1 104:1 105:1 106:1 107:1 108:1 109:2 110:1 111:1 112:1 113:2 114:2 115:2 2584:1 6430:1 11599:1 12857:1 12961:1 17743:1 18132:1 20332:1 24687:1 #
-0.0025024566728562014 2:2 103:2 104:1 105:1 106:1 107:1 108:1 109:1 110:1 111:1 112:1 113:2 114:1 115:1 4325:1 4560:1 8150:1 23911:1 27367:1 #
0.042710077875567819 2:1 103:1 104:1 105:1 106:1 107:1 108:1 109:1 110:1 111:1 112:2 113:1 114:1 115:1 2250:1 2584:1 11599:1 12141:1 12408:1 12857:1 12871:1 18132:1 20332:1 21581:1 23923:1 26451:1 #
-0.042710077875567819 2:1 103:1 104:1 105:1 106:1 107:1 108:1 109:2 110:1 111:2 112:1 113:2 114:1 115:1 10887:1 12842:1 18161:1 #
0.0068538621711240061 2:1 103:1 104:1 105:1 106:2 107:2 108:2 109:2 110:2 111:2 112:1 113:2 114:1 115:1 10887:1 17711:1 28486:1 #
-0.042710077875567819 2:2 103:1 104:2 105:1 106:1 107:1 108:1 109:1 110:1 111:1 112:1 113:1 114:1 115:1 4170:1 6199:1 6886:1 10502:1 20332:1 #
-0.042710077875567819 2:2 103:2 104:1 105:1 106:1 107:1 108:1 109:1 110:1 111:1 112:1 113:2 114:2 115:2 1197:1 2104:1 3030:1 6560:1 8720:1 21149:1 21536:1 23985:1 #
-0.04241314458855916 2:2 103:1 104:1 105:2 106:1 107:1 108:1 109:1 110:1 111:2 112:1 113:2 114:1 115:1 672:1 6642:1 10180:1 10887:1 #
-0.023013368070117141 2:2 103:2 104:2 105:1 106:1 107:1 108:1 109:1 110:1 111:1 112:1 113:1 114:1 115:1 4144:1 4699:1 6459:1 6642:1 16232:1 23911:1 #
0.042710077875567819 2:1 103:1 104:1 105:1 106:1 107:1 108:1 109:1 110:1 111:2 112:1 113:2 114:1 115:1 2652:1 6430:1 9699:1 10887:1 11282:1 17949:1 21919:1 28938:1 30226:1 #
0.042710077875567819 2:2 103:1 104:1 105:2 106:1 107:1 108:1 109:1 110:1 111:1 112:1 113:2 114:1 115:1 5798:1 6430:1 11105:1 14455:1 14986:1 30485:1 #
0.042710077875567819 2:1 103:1 104:1 105:1 106:1 107:1 108:1 109:1 110:1 111:1 112:1 113:2 114:1 115:1 2652:1 6430:1 9699:1 10887:1 11282:1 17949:1 21919:1 28938:1 30226:1 #
0.042710077875567819 2:1 103:1 104:1 105:2 106:1 107:1 108:1 109:1 110:1 111:1 112:1 113:2 114:1 115:1 3480:1 17711:1 25117:1 30485:1 #
0.042710077875567819 2:1 103:1 104:1 105:2 106:1 107:1 108:1 109:1 110:1 111:1 112:1 113:2 114:1 115:1 972:1 5002:1 6199:1 6430:1 9699:1 10065:1 11105:1 12961:1 #
-0.042710077875567819 2:2 103:2 104:1 105:1 106:1 107:1 108:1 109:1 110:1 111:1 112:1 113:2 114:2 115:2 1592:1 12970:1 #
0.042710077875567819 2:2 103:1 104:1 105:1 106:1 107:1 108:1 109:1 110:1 111:1 112:1 113:2 114:1 115:1 6986:1 16511:1 18781:1 #
-0.0038921561408052918 2:2 103:2 104:2 105:1 106:1 107:1 108:1 109:1 110:1 111:1 112:1 113:1 114:1 115:1 11674:1 19316:1 23923:1 30485:1 #
-0.042710077875567819 2:1 103:1 104:1 105:1 106:1 107:1 108:1 109:1 110:1 111:1 112:1 113:2 114:1 115:1 2652:1 6430:1 9699:1 10887:1 11282:1 17949:1 21919:1 28617:1 30226:1 #
0.042710077875567819 2:2 103:2 104:2 105:1 106:1 107:1 108:1 109:1 110:1 111:1 112:1 113:2 114:1 115:1 8150:1 30485:1 #
-0.042710077875567819 2:2 103:1 104:1 105:1 106:1 107:1 108:1 109:1 110:1 111:2 112:1 113:2 114:1 115:1 5023:1 5612:1 10887:1 #
0.042710077875567819 2:2 103:2 104:1 105:1 106:1 107:1 108:1 109:2 110:1 111:1 112:1 113:1 114:1 115:1 10502:1 14864:1 17717:1 23911:1 28295:1 #
0.042710077875567819 2:2 103:2 104:1 105:1 106:2 107:2 108:2 109:2 110:2 111:1 112:1 113:1 114:1 115:1 23735:1 #
-0.042710077875567819 2:2 103:2 104:1 105:1 106:2 107:2 108:2 109:2 110:2 111:1 112:2 113:1 114:1 115:1 1877:1 21948:1 #
-0.042710077875567819 2:2 103:1 104:2 105:2 106:2 107:2 108:2 109:2 110:2 111:1 112:2 113:2 114:1 115:1 19598:1 #
-0.042710077875567819 2:2 103:2 104:1 105:1 106:1 107:2 108:2 109:2 110:1 111:1 112:2 113:2 114:2 115:2 2973:1 5002:1 26494:1 29624:1 #
-0.042710077875567819 2:2 103:1 104:1 105:1 106:1 107:2 108:2 109:2 110:1 111:2 112:1 113:2 114:1 115:1 10887:1 16879:1 20332:1 #
-0.042710077875567819 2:2 103:2 104:1 105:1 106:1 107:2 108:2 109:2 110:1 111:2 112:1 113:1 114:1 115:1 10502:1 10887:1 12634:1 15105:1 20341:1 20836:1 #
-0.042710077875567819 2:1 103:1 104:1 105:1 106:1 107:1 108:1 109:1 110:1 111:1 112:1 113:2 114:1 115:1 6642:1 17547:1 21102:1 #
-0.042710077875567819 2:2 103:1 104:1 105:1 106:1 107:2 108:2 109:2 110:1 111:2 112:1 113:2 114:1 115:1 10887:1 13637:1 16969:1 #
0.042710077875567819 2:2 103:1 104:1 105:1 106:1 107:1 108:1 109:1 110:1 111:1 112:1 113:2 114:1 115:1 2652:1 6430:1 9699:1 10887:1 11282:1 17949:1 21919:1 28938:1 30226:1 #
0.042710077875567819 2:1 103:1 104:1 105:1 106:1 107:1 108:1 109:1 110:1 111:1 112:1 113:2 114:1 115:1 6430:1 9699:1 10468:1 21102:1 21919:1 #
0.042710077875567819 2:1 103:1 104:1 105:2 106:1 107:1 108:1 109:1 110:1 111:1 112:1 113:2 114:1 115:1 6430:1 9699:1 16528:1 16565:1 19585:1 19626:1 22893:1 #
-0.042710077875567819 2:2 103:1 104:1 105:1 106:1 107:1 108:1 109:1 110:1 111:1 112:1 113:2 114:1 115:1 4705:1 5698:1 6430:1 9483:1 17406:1 23200:1 28900:1 #
-0.042710077875567819 2:1 103:1 104:1 105:2 106:1 107:1 108:1 109:1 110:1 111:1 112:1 113:2 114:1 115:1 6430:1 9699:1 16528:1 16565:1 19626:1 22893:1 27278:1 #
-0.042710077875567819 2:2 103:1 104:1 105:2 106:1 107:1 108:1 109:1 110:1 111:1 112:1 113:2 114:1 115:1 8428:1 9699:1 #
0.042710077875567819 2:2 103:2 104:1 105:1 106:1 107:2 108:2 109:2 110:1 111:2 112:1 113:2 114:1 115:1 7592:1 10356:1 10887:1 25789:1 #
0.042710077875567819 2:2 103:2 104:2 105:1 106:1 107:1 108:1 109:1 110:1 111:1 112:1 113:2 114:1 115:1 6430:1 6642:1 20011:1 26263:1 #
0.042710077875567819 2:2 103:2 104:1 105:1 106:1 107:2 108:2 109:2 110:1 111:2 112:1 113:2 114:1 115:1 10887:1 20332:1 25789:1 #
0.042710077875567819 2:2 103:2 104:1 105:1 106:1 107:2 108:2 109:2 110:1 111:2 112:1 113:2 114:1 115:1 8399:1 10887:1 16969:1 26402:1 29592:1 #
0.042710077875567819 2:2 103:2 104:1 105:1 106:1 107:2 108:2 109:2 110:1 111:2 112:1 113:2 114:1 115:1 728:1 9483:1 9948:1 10887:1 14023:1 23331:1 27928:1 #
-0.042710077875567819 2:2 103:1 104:1 105:1 106:1 107:2 108:2 109:2 110:1 111:2 112:1 113:2 114:1 115:1 10887:1 25789:1 28938:1 #
-0.042710077875567819 2:2 103:2 104:1 105:1 106:1 107:2 108:2 109:2 110:1 111:2 112:1 113:2 114:1 115:1 1468:1 6215:1 10887:1 17477:1 21191:1 #
-0.042710077875567819 2:2 103:1 104:1 105:2 106:1 107:1 108:1 109:1 110:1 111:1 112:1 113:2 114:1 115:1 26494:1 30485:1 #
-0.042710077875567819 2:2 103:2 104:1 105:1 106:1 107:2 108:2 109:2 110:1 111:2 112:1 113:2 114:1 115:1 10887:1 13882:1 21255:1 #
0.042710077875567819 2:1 103:1 104:1 105:2 106:1 107:1 108:1 109:1 110:1 111:1 112:1 113:2 114:1 115:1 6430:1 9699:1 16528:1 16565:1 19585:1 19626:1 22893:1 #
0.042710077875567819 2:1 103:1 104:1 105:1 106:1 107:1 108:1 109:1 110:1 111:1 112:1 113:2 114:1 115:1 6430:1 9699:1 12790:1 16528:1 16565:1 19626:1 20404:1 22893:1 #
0.042710077875567819 2:2 103:1 104:1 105:1 106:1 107:1 108:1 109:1 110:1 111:1 112:1 113:2 114:1 115:1 4971:1 6430:1 9699:1 12790:1 14683:1 16511:1 16528:1 16565:1 19626:1 22893:1 #
0.042710077875567819 2:2 103:1 104:1 105:1 106:1 107:1 108:1 109:1 110:1 111:1 112:1 113:2 114:1 115:1 6430:1 9699:1 12790:1 13148:1 16528:1 16565:1 19626:1 20404:1 22893:1 #
0.042710077875567819 2:2 103:2 104:2 105:1 106:1 107:1 108:1 109:1 110:1 111:1 112:1 113:2 114:1 115:1 6430:1 9699:1 16528:1 16565:1 19585:1 19626:1 22893:1 #
-0.034137222615796027 2:2 103:2 104:1 105:1 106:1 107:1 108:1 109:1 110:1 111:1 112:1 113:2 114:1 115:1 5900:1 24980:1 25932:1 #
0.042710077875567819 2:1 103:1 104:1 105:1 106:1 107:2 108:2 109:2 110:1 111:2 112:1 113:2 114:1 115:1 1468:1 2084:1 6215:1 10887:1 21191:1 23057:1 26530:1 #
-0.042710077875567819 2:2 103:1 104:1 105:1 106:1 107:1 108:1 109:1 110:1 111:1 112:1 113:2 114:1 115:1 10887:1 10969:1 19169:1 21948:1 22334:1 #
-0.042546480434362932 2:1 103:1 104:1 105:1 106:1 107:1 108:1 109:1 110:1 111:2 112:1 113:2 114:1 115:1 6430:1 10887:1 20313:1 20488:1 20515:1 23980:1 #
-0.037663019805679543 2:1 103:1 104:1 105:1 106:1 107:1 108:1 109:1 110:1 111:1 112:1 113:2 114:1 115:1 5187:1 6430:1 9699:1 16528:1 16565:1 19626:1 22893:1 27595:1 #
-0.042710077875567819 2:1 103:1 104:1 105:2 106:1 107:1 108:1 109:1 110:1 111:1 112:1 113:2 114:1 115:1 12397:1 21805:1 #
0.042710077875567819 2:2 103:1 104:1 105:1 106:1 107:2 108:2 109:2 110:1 111:1 112:1 113:1 114:1 115:1 5374:1 8957:1 13200:1 16565:1 18905:1 21948:1 22846:1 26859:1 29584:1 #
0.042710077875567819 2:2 103:1 104:1 105:1 106:1 107:2 108:2 109:2 110:1 111:2 112:1 113:2 114:1 115:1 4533:1 10887:1 15083:1 #
0.042710077875567819 2:2 103:1 104:1 105:1 106:1 107:2 108:2 109:2 110:1 111:2 112:1 113:2 114:1 115:1 8253:1 10887:1 17743:1 #
0.042710077875567819 2:2 103:1 104:1 105:1 106:1 107:2 108:2 109:2 110:1 111:2 112:1 113:2 114:1 115:1 10410:1 10887:1 13637:1 #
0.042710077875567819 2:2 103:1 104:1 105:1 106:1 107:2 108:2 109:2 110:1 111:2 112:1 113:2 114:1 115:1 4400:1 10887:1 13201:1 17949:1 #
-0.042710077875567819 2:2 103:1 104:1 105:1 106:1 107:2 108:2 109:2 110:1 111:2 112:1 113:2 114:1 115:1 7329:1 10887:1 21948:1 #
0.042710077875567819 2:2 103:2 104:1 105:2 106:1 107:1 108:1 109:1 110:1 111:1 112:1 113:2 114:1 115:1 6430:1 9699:1 16528:1 16565:1 19585:1 19626:1 22893:1 #
-0.042710077875567819 2:2 103:2 104:2 105:2 106:2 107:2 108:2 109:2 110:2 111:1 112:2 113:2 114:1 115:1 19585:1 #
-0.042710077875567819 2:2 103:1 104:2 105:2 106:2 107:2 108:2 109:2 110:2 111:1 112:2 113:2 114:1 115:1 19585:1 #
0.042710077875567819 2:1 103:1 104:1 105:1 106:1 107:1 108:1 109:1 110:1 111:1 112:1 113:1 114:1 115:1 9699:1 16528:1 19626:1 22893:1 #
0.042710077875567819 2:1 103:1 104:1 105:1 106:1 107:1 108:1 109:1 110:1 111:1 112:1 113:1 114:1 115:1 3373:1 13624:1 16565:1 24995:1 #
0.042710077875567819 2:1 103:1 104:1 105:1 106:1 107:1 108:1 109:1 110:1 111:1 112:1 113:1 114:1 115:1 1872:1 16528:1 19626:1 30532:1 #
0.042710077875567819 2:1 103:1 104:1 105:1 106:1 107:2 108:2 109:2 110:1 111:1 112:1 113:2 114:2 115:2 6430:1 16528:1 16565:1 19626:1 22893:1 #
0.042710077875567819 2:1 103:1 104:1 105:1 106:1 107:1 108:1 109:1 110:1 111:1 112:1 113:1 114:1 115:1 1134:1 8150:1 9699:1 11925:1 26494:1 #
-0.042710077875567819 2:2 103:2 104:1 105:1 106:1 107:1 108:1 109:1 110:1 111:1 112:2 113:2 114:1 115:1 18110:1 24707:1 #
-0.042710077875567819 2:1 103:1 104:2 105:1 106:1 107:1 108:1 109:1 110:1 111:1 112:1 113:2 114:1 115:1 6642:1 19614:1 30023:1 #
-0.042710077875567819 2:2 103:2 104:2 105:1 106:1 107:1 108:1 109:1 110:1 111:1 112:1 113:1 114:1 115:1 212:1 1592:1 10481:1 10502:1 27278:1 #
0.042710077875567819 2:1 103:1 104:1 105:1 106:2 107:1 108:1 109:2 110:2 111:1 112:1 113:2 114:2 115:2 410:1 14948:1 #
0.042710077875567819 2:2 103:1 104:2 105:2 106:1 107:1 108:1 109:1 110:1 111:1 112:1 113:2 114:1 115:1 6199:1 30485:1 #
0.042710077875567819 2:1 103:1 104:1 105:1 106:2 107:1 108:1 109:2 110:2 111:2 112:1 113:2 114:1 115:1 4533:1 10887:1 #
-0.042710077875567819 2:1 103:1 104:2 105:2 106:2 107:2 108:2 109:2 110:2 111:1 112:2 113:2 114:1 115:1 19585:1 #
0.042710077875567819 2:1 103:1 104:1 105:1 106:1 107:1 108:1 109:1 110:1 111:1 112:1 113:1 114:1 115:1 210:1 8957:1 13200:1 18905:1 21948:1 22846:1 26859:1 30239:1 #
0.042710077875567819 2:2 103:2 104:1 105:1 106:1 107:1 108:1 109:1 110:1 111:1 112:1 113:2 114:1 115:1 2431:1 10887:1 13200:1 16565:1 20402:1 21948:1 22846:1 26859:1 #
-0.042710077875567819 2:1 103:1 104:2 105:2 106:2 107:2 108:2 109:2 110:2 111:1 112:2 113:2 114:1 115:1 28909:1 #
-0.042710077875567819 2:1 103:1 104:2 105:2 106:2 107:2 108:2 109:2 110:2 111:1 112:2 113:2 114:1 115:1 19598:1 #
0.042710077875567819 2:2 103:2 104:1 105:1 106:1 107:1 108:1 109:1 110:1 111:1 112:1 113:2 114:1 115:1 10887:1 13200:1 16565:1 21948:1 22846:1 #
0.042710077875567819 2:2 103:2 104:1 105:1 106:1 107:1 108:1 109:1 110:1 111:1 112:1 113:1 114:1 115:1 3070:1 5900:1 9071:1 15651:1 19787:1 21948:1 24447:1 27923:1 #
0.042710077875567819 2:2 103:2 104:1 105:1 106:1 107:1 108:1 109:1 110:1 111:1 112:1 113:1 114:1 115:1 225:1 4605:1 12311:1 14386:1 23911:1 28938:1 #
-0.042710077875567819 2:2 103:2 104:1 105:1 106:1 107:1 108:1 109:1 110:1 111:1 112:1 113:2 114:2 115:2 1287:1 3009:1 8150:1 11105:1 11388:1 23743:1 25688:1 28304:1 29006:1 #
-0.042710077875567819 2:1 103:1 104:1 105:1 106:1 107:1 108:1 109:1 110:1 111:1 112:1 113:2 114:2 115:2 1287:1 3030:1 25688:1 #
-0.042201939946465261 2:1 103:1 104:1 105:1 106:1 107:1 108:1 109:1 110:1 111:1 112:1 113:2 114:1 115:1 4855:1 6430:1 7039:1 10887:1 22893:1 #
-0.02143957659970535 2:2 103:2 104:1 105:1 106:1 107:1 108:1 109:1 110:1 111:1 112:1 113:2 114:1 115:1 10887:1 14864:1 17717:1 29592:1 #
0.042710077875567819 2:2 103:1 104:1 105:1 106:1 107:2 108:2 109:2 110:1 111:1 112:2 113:2 114:1 115:1 2277:1 8005:1 22876:1 #
-0.042710077875567819 2:2 103:2 104:1 105:2 106:1 107:1 108:1 109:1 110:1 111:1 112:1 113:2 114:1 115:1 24743:1 30485:1 #
-0.042710077875567819 2:1 103:1 104:2 105:2 106:2 107:2 108:2 109:2 110:2 111:2 112:2 113:2 114:1 115:1 6642:1 #
0.042710077875567819 2:2 103:2 104:1 105:1 106:1 107:1 108:1 109:1 110:1 111:1 112:1 113:2 114:1 115:1 3890:1 6430:1 8727:1 10887:1 10969:1 #
-0.042710077875567819 2:1 103:1 104:1 105:1 106:1 107:2 108:2 109:2 110:1 111:2 112:1 113:2 114:1 115:1 2084:1 6215:1 10887:1 17477:1 23057:1 26530:1 #
-0.0026723516132207276 2:2 103:2 104:1 105:1 106:1 107:1 108:1 109:1 110:1 111:1 112:1 113:2 114:2 115:2 9699:1 21919:1 #
-0.042710077875567819 2:1 103:1 104:1 105:1 106:1 107:2 108:2 109:2 110:1 111:2 112:1 113:2 114:1 115:1 10468:1 10887:1 21102:1 #
-0.042710077875567819 2:1 103:1 104:1 105:1 106:1 107:2 108:2 109:2 110:1 111:2 112:1 113:2 114:1 115:1 10468:1 10887:1 12001:1 13845:1 #
-0.042710077875567819 2:1 103:1 104:1 105:1 106:1 107:1 108:1 109:1 110:1 111:1 112:1 113:2 114:1 115:1 2084:1 6215:1 10887:1 18886:1 23057:1 26530:1 #
0.042710077875567819 2:2 103:2 104:2 105:1 106:1 107:1 108:1 109:1 110:1 111:1 112:1 113:2 114:1 115:1 340:1 749:1 10502:1 18629:1 25191:1 28295:1 #
0.042710077875567819 2:2 103:2 104:2 105:1 106:1 107:1 108:1 109:1 110:1 111:1 112:2 113:2 114:1 115:1 4837:1 5900:1 12877:1 15469:1 16565:1 28295:1 #
0.042710077875567819 2:2 103:2 104:2 105:1 106:1 107:1 108:1 109:1 110:1 111:1 112:2 113:1 114:1 115:1 6642:1 21149:1 21419:1 22590:1 28564:1 #
-0.027576297455109713 2:1 103:1 104:1 105:1 106:1 107:1 108:1 109:1 110:1 111:1 112:1 113:2 114:1 115:1 2068:1 10215:1 10358:1 12790:1 19344:1 #
0.042710077875567819 2:2 103:2 104:1 105:1 106:1 107:1 108:1 109:1 110:1 111:1 112:2 113:1 114:1 115:1 5299:1 11296:1 17734:1 25593:1 25832:1 28617:1 #
-0.042710077875567819 2:2 103:2 104:2 105:1 106:1 107:1 108:1 109:1 110:1 111:1 112:2 113:1 114:1 115:1 4971:1 10502:1 22583:1 30485:1 #
-0.042710077875567819 2:2 103:2 104:2 105:1 106:1 107:1 108:1 109:1 110:1 111:1 112:2 113:1 114:1 115:1 10358:1 12790:1 13201:1 14683:1 16528:1 16565:1 18629:1 22846:1 #
-0.042710077875567819 2:2 103:2 104:1 105:2 106:1 107:1 108:1 109:1 110:1 111:1 112:2 113:2 114:1 115:1 15817:1 15823:1 18629:1 #
-0.042710077875567819 2:2 103:2 104:2 105:1 106:1 107:1 108:1 109:1 110:1 111:1 112:2 113:1 114:1 115:1 1122:1 1909:1 4379:1 6642:1 8399:1 8412:1 10359:1 10502:1 12064:1 12852:1 17106:1 28483:1 #
0.042710077875567819 2:2 103:1 104:1 105:1 106:1 107:2 108:2 109:2 110:1 111:2 112:1 113:2 114:1 115:1 2084:1 6215:1 7824:1 10887:1 23057:1 26530:1 #
0.042710077875567819 2:1 103:1 104:1 105:1 106:1 107:2 108:2 109:2 110:1 111:2 112:1 113:2 114:1 115:1 2652:1 4728:1 10887:1 20593:1 24202:1 24322:1 #
0.042710077875567819 2:1 103:1 104:1 105:1 106:1 107:2 108:2 109:2 110:1 111:2 112:1 113:2 114:1 115:1 7193:1 10468:1 10887:1 17341:1 #
0.042710077875567819 2:1 103:1 104:1 105:1 106:1 107:2 108:2 109:2 110:1 111:2 112:1 113:2 114:1 115:1 4789:1 4855:1 10887:1 #
0.042710077875567819 2:1 103:1 104:1 105:1 106:1 107:2 108:2 109:2 110:1 111:2 112:1 113:2 114:1 115:1 3750:1 10887:1 16102:1 17276:1 24000:1 #
-0.042710077875567819 2:2 103:2 104:1 105:1 106:1 107:2 108:2 109:2 110:1 111:2 112:1 113:2 114:1 115:1 3750:1 10887:1 16102:1 17276:1 19309:1 #
-0.042710077875567819 2:2 103:2 104:1 105:1 106:1 107:2 108:2 109:2 110:1 111:2 112:1 113:2 114:1 115:1 3750:1 10887:1 16102:1 17276:1 24605:1 #
-0.042710077875567819 2:2 103:1 104:1 105:1 106:1 107:2 108:2 109:2 110:1 111:2 112:1 113:2 114:1 115:1 4855:1 10887:1 12877:1 #
-0.042710077875567819 2:2 103:2 104:1 105:1 106:1 107:2 108:2 109:2 110:1 111:2 112:1 113:2 114:1 115:1 6656:1 10887:1 11827:1 12877:1 #
0.042710077875567819 2:1 103:1 104:1 105:1 106:1 107:1 108:1 109:1 110:1 111:1 112:1 113:1 114:1 115:1 1122:1 1909:1 4379:1 6178:1 8399:1 8412:1 10359:1 10502:1 12064:1 12790:1 12852:1 16565:1 17106:1 20307:1 28483:1 #
0.042710077875567819 2:1 103:1 104:1 105:1 106:1 107:1 108:1 109:1 110:1 111:1 112:1 113:1 114:1 115:1 215:1 1122:1 1909:1 3738:1 4379:1 8399:1 8412:1 10359:1 10502:1 12064:1 12852:1 17106:1 21719:1 23911:1 28483:1 #
0.042710077875567819 2:1 103:1 104:1 105:1 106:1 107:1 108:1 109:1 110:1 111:1 112:1 113:1 114:1 115:1 10502:1 12288:1 16528:1 21682:1 22846:1 23911:1 26477:1 #
0.042710077875567819 2:1 103:1 104:1 105:1 106:1 107:1 108:1 109:1 110:1 111:1 112:2 113:1 114:1 115:1 9699:1 18781:1 27477:1 28846:1 #
0.042710077875567819 2:1 103:1 104:1 105:1 106:1 107:1 108:1 109:1 110:1 111:1 112:2 113:1 114:1 115:1 209:1 5597:1 5698:1 8399:1 14386:1 14701:1 16879:1 23830:1 25950:1 #
-0.0048017886897597471 2:1 103:1 104:1 105:2 106:1 107:1 108:1 109:1 110:1 111:1 112:1 113:2 114:1 115:1 8428:1 10468:1 17477:1 18645:1 21023:1 24980:1 #
-0.042710077875567819 2:1 103:1 104:1 105:1 106:1 107:1 108:1 109:1 110:1 111:1 112:1 113:2 114:1 115:1 216:1 3856:1 6430:1 10887:1 12641:1 15919:1 16681:1 23980:1 24089:1 #
-0.042710077875567819 2:2 103:2 104:1 105:2 106:1 107:1 108:1 109:1 110:1 111:1 112:1 113:2 114:1 115:1 3030:1 30485:1 #
0.042710077875567819 2:2 103:1 104:2 105:2 106:1 107:1 108:1 109:1 110:1 111:1 112:2 113:2 114:1 115:1 8428:1 14194:1 #
0.042710077875567819 2:2 103:2 104:1 105:1 106:1 107:2 108:2 109:2 110:1 111:2 112:1 113:2 114:1 115:1 4059:1 10887:1 16102:1 17276:1 24000:1 #
0.042710077875567819 2:2 103:2 104:1 105:1 106:1 107:2 108:2 109:2 110:1 111:2 112:1 113:2 114:1 115:1 10887:1 19309:1 24605:1 #
0.042710077875567819 2:2 103:2 104:1 105:1 106:1 107:2 108:2 109:2 110:1 111:1 112:1 113:2 114:1 115:1 10468:1 10887:1 26820:1 #
0.042710077875567819 2:2 103:2 104:1 105:1 106:1 107:2 108:2 109:2 110:1 111:2 112:1 113:2 114:1 115:1 10887:1 24605:1 27347:1 #
-0.042710077875567819 2:2 103:2 104:2 105:2 106:2 107:2 108:2 109:2 110:2 111:1 112:1 113:2 114:1 115:1 6199:1 #
-0.042710077875567819 2:2 103:2 104:1 105:1 106:1 107:2 108:2 109:2 110:1 111:2 112:1 113:2 114:1 115:1 9699:1 10887:1 13201:1 25972:1 #
-0.042710077875567819 2:2 103:2 104:1 105:1 106:1 107:2 108:2 109:2 110:1 111:2 112:1 113:2 114:1 115:1 3738:1 10887:1 30711:1 #
-0.042710077875567819 2:2 103:2 104:1 105:1 106:1 107:2 108:2 109:2 110:1 111:2 112:1 113:2 114:1 115:1 4789:1 10887:1 30101:1 #
-0.042710077875567819 2:2 103:2 104:1 105:1 106:1 107:2 108:2 109:2 110:1 111:2 112:1 113:2 114:1 115:1 2550:1 10410:1 10887:1 #
0.042710077875567819 2:1 103:1 104:1 105:1 106:1 107:1 108:1 109:1 110:1 111:1 112:2 113:1 114:1 115:1 9093:1 13562:1 15653:1 20332:1 28295:1 #
0.042710077875567819 2:1 103:1 104:1 105:1 106:1 107:1 108:1 109:1 110:1 111:1 112:2 113:1 114:1 115:1 250:1 8399:1 19673:1 25138:1 25707:1 27980:1 #
0.042710077875567819 2:1 103:1 104:1 105:1 106:1 107:1 108:1 109:1 110:1 111:1 112:2 113:1 114:1 115:1 6559:1 6583:1 8399:1 19019:1 23145:1 28541:1 #
0.042710077875567819 2:1 103:1 104:1 105:1 106:1 107:1 108:1 109:1 110:1 111:1 112:1 113:1 114:1 115:1 6178:1 13562:1 15653:1 16565:1 20307:1 20332:1 28295:1 #
-0.042710077875567819 2:2 103:2 104:1 105:2 106:1 107:1 108:1 109:1 110:1 111:1 112:1 113:2 114:1 115:1 13949:1 30485:1 #
0.042710077875567819 2:2 103:1 104:1 105:2 106:1 107:1 108:2 109:1 110:1 111:1 112:1 113:2 114:1 115:1 6199:1 12397:1 #
-0.0092850240771867529 2:2 103:2 104:1 105:1 106:1 107:1 108:1 109:1 110:1 111:1 112:1 113:2 114:2 115:2 349:1 2951:1 6160:1 20647:1 25436:1 25492:1 28769:1 #
-0.042710077875567819 2:1 103:1 104:2 105:1 106:1 107:1 108:1 109:1 110:1 111:1 112:1 113:2 114:1 115:1 4766:1 6986:1 #
-0.042710077875567819 2:2 103:2 104:1 105:2 106:1 107:1 108:1 109:1 110:1 111:1 112:1 113:2 114:1 115:1 8150:1 30485:1 #
0.042710077875567819 2:2 103:2 104:1 105:1 106:1 107:2 108:2 109:2 110:1 111:1 112:1 113:2 114:1 115:1 4400:1 10887:1 13201:1 17949:1 #
0.042710077875567819 2:2 103:2 104:1 105:1 106:1 107:2 108:2 109:2 110:1 111:2 112:1 113:2 114:1 115:1 10887:1 23165:1 30101:1 #
0.042710077875567819 2:2 103:2 104:1 105:1 106:1 107:2 108:2 109:2 110:1 111:2 112:1 113:2 114:1 115:1 550:1 10887:1 30101:1 #
0.042710077875567819 2:2 103:2 104:1 105:1 106:1 107:2 108:2 109:2 110:1 111:2 112:1 113:2 114:1 115:1 7329:1 10887:1 15166:1 #
-0.042710077875567819 2:2 103:2 104:1 105:1 106:1 107:2 108:2 109:2 110:1 111:2 112:1 113:2 114:1 115:1 10887:1 15037:1 17743:1 27557:1 #
-0.042710077875567819 2:2 103:2 104:1 105:1 106:1 107:2 108:2 109:2 110:1 111:2 112:1 113:2 114:1 115:1 3671:1 10887:1 17942:1 #
-0.042710077875567819 2:2 103:2 104:1 105:1 106:1 107:2 108:2 109:2 110:1 111:2 112:1 113:2 114:1 115:1 4722:1 10887:1 11060:1 #
-0.042710077875567819 2:2 103:2 104:1 105:1 106:1 107:2 108:2 109:2 110:1 111:2 112:1 113:2 114:1 115:1 2560:1 6114:1 10887:1 #
0.042710077875567819 2:2 103:1 104:1 105:1 106:1 107:1 108:1 109:1 110:1 111:1 112:1 113:2 114:2 115:2 6178:1 7287:1 12719:1 12790:1 13562:1 15653:1 16565:1 20307:1 20332:1 23923:1 28295:1 #
0.042710077875567819 2:1 103:1 104:1 105:1 106:1 107:1 108:1 109:1 110:1 111:1 112:1 113:2 114:1 115:1 6178:1 7287:1 12790:1 13562:1 15653:1 16565:1 20307:1 20332:1 23923:1 28295:1 #
0.042710077875567819 2:2 103:1 104:1 105:1 106:1 107:1 108:1 109:1 110:1 111:1 112:1 113:2 114:1 115:1 6178:1 7287:1 12790:1 13562:1 15653:1 16565:1 20307:1 20332:1 23923:1 28295:1 #
0.042710077875567819 2:2 103:2 104:1 105:1 106:1 107:1 108:1 109:1 110:1 111:1 112:1 113:1 114:1 115:1 6178:1 12790:1 13562:1 15653:1 16565:1 20307:1 20332:1 28295:1 #
0.042710077875567819 2:2 103:2 104:1 105:1 106:1 107:1 108:1 109:1 110:1 111:1 112:1 113:1 114:1 115:1 6178:1 13562:1 15653:1 16565:1 20307:1 20332:1 28295:1 #
-0.042710077875567819 2:1 103:1 104:1 105:1 106:1 107:1 108:1 109:1 110:1 111:1 112:1 113:2 114:1 115:1 6178:1 7287:1 11105:1 12719:1 12790:1 13562:1 15653:1 16565:1 20307:1 20332:1 23743:1 23923:1 28295:1 29006:1 #
-0.042710077875567819 2:1 103:1 104:1 105:1 106:1 107:1 108:1 109:1 110:1 111:1 112:1 113:2 114:1 115:1 6178:1 7287:1 8224:1 12719:1 12790:1 13562:1 15653:1 16565:1 20307:1 20332:1 22763:1 23923:1 28020:1 28295:1 #
-0.042710077875567819 2:2 103:1 104:1 105:1 106:1 107:1 108:1 109:1 110:1 111:1 112:1 113:2 114:1 115:1 6178:1 8224:1 12790:1 13562:1 15653:1 16565:1 20307:1 20332:1 22763:1 23923:1 28020:1 28295:1 #
-0.042710077875567819 2:1 103:1 104:2 105:2 106:1 107:1 108:1 109:1 110:1 111:1 112:1 113:2 114:1 115:1 4766:1 25731:1 #
-0.042710077875567819 2:2 103:2 104:1 105:1 106:1 107:1 108:1 109:1 110:1 111:1 112:1 113:2 114:1 115:1 6178:1 11105:1 12790:1 13562:1 15653:1 16565:1 20307:1 20332:1 23743:1 23923:1 28295:1 29006:1 #
0.042710077875567819 2:1 103:1 104:1 105:1 106:1 107:2 108:2 109:2 110:1 111:2 112:1 113:2 114:1 115:1 5698:1 10887:1 15817:1 15823:1 #
0.042710077875567819 2:2 103:1 104:1 105:1 106:1 107:2 108:2 109:2 110:1 111:2 112:1 113:2 114:1 115:1 3373:1 10887:1 15037:1 27557:1 #
0.042710077875567819 2:1 103:1 104:1 105:1 106:1 107:2 108:2 109:2 110:1 111:1 112:2 113:1 114:1 115:1 1918:1 4428:1 5698:1 8001:1 8399:1 9639:1 10481:1 10887:1 27190:1 #
-0.042710077875567819 2:1 103:1 104:1 105:1 106:2 107:2 108:2 109:2 110:2 111:2 112:1 113:2 114:1 115:1 4533:1 10887:1 #
0.042710077875567819 2:2 103:1 104:1 105:1 106:2 107:1 108:1 109:2 110:2 111:2 112:1 113:2 114:1 115:1 10410:1 10887:1 #
-0.042710077875567819 2:2 103:2 104:2 105:1 106:1 107:1 108:1 109:1 110:1 111:1 112:1 113:1 114:1 115:1 1407:1 6642:1 19315:1 #
-0.017832913319058528 2:2 103:2 104:1 105:1 106:1 107:2 108:2 109:2 110:1 111:2 112:2 113:1 114:1 115:1 6430:1 6642:1 8399:1 11040:1 19673:1 25707:1 27980:1 #
-0.042710077875567819 2:1 103:1 104:1 105:1 106:1 107:2 108:2 109:2 110:1 111:1 112:1 113:2 114:1 115:1 6430:1 8669:1 9013:1 10887:1 19598:1 21149:1 22590:1 #
0.042710077875567819 2:2 103:2 104:1 105:1 106:1 107:1 108:1 109:1 110:1 111:1 112:2 113:2 114:1 115:1 6178:1 13562:1 14588:1 15653:1 23923:1 #
0.042710077875567819 2:1 103:1 104:1 105:1 106:1 107:1 108:1 109:1 110:1 111:1 112:2 113:2 114:1 115:1 6178:1 13562:1 14588:1 15653:1 23923:1 26015:1 #
0.042710077875567819 2:1 103:1 104:1 105:1 106:1 107:1 108:1 109:1 110:1 111:1 112:2 113:2 114:1 115:1 2350:1 6178:1 13562:1 15653:1 23923:1 #
-0.042710077875567819 2:2 103:1 104:1 105:1 106:1 107:1 108:1 109:1 110:1 111:1 112:2 113:2 114:1 115:1 1122:1 4379:1 6178:1 6430:1 8306:1 8412:1 12064:1 13256:1 13562:1 14588:1 15653:1 23923:1 26015:1 27347:1 #
-0.042710077875567819 2:2 103:1 104:1 105:2 106:1 107:1 108:1 109:1 110:1 111:1 112:2 113:2 114:1 115:1 28295:1 30485:1 #
-0.042710077875567819 2:1 103:1 104:2 105:2 106:1 107:1 108:1 109:1 110:1 111:1 112:2 113:2 114:1 115:1 19598:1 27278:1 #
-0.010594471091836088 2:2 103:2 104:2 105:1 106:1 107:1 108:1 109:1 110:1 111:1 112:2 113:1 114:1 115:1 7688:1 10308:1 14194:1 14848:1 23911:1 25855:1 #
-0.042710077875567819 2:2 103:2 104:1 105:1 106:1 107:1 108:1 109:1 110:1 111:1 112:2 113:2 114:2 115:2 8457:1 22129:1 #
0.042710077875567819 2:1 103:1 104:1 105:1 106:1 107:2 108:2 109:2 110:1 111:1 112:1 113:1 114:1 115:1 13201:1 16528:1 22846:1 #
0.042710077875567819 2:1 103:1 104:1 105:1 106:2 107:2 108:2 109:2 110:2 111:1 112:1 113:1 114:1 115:1 5177:1 20332:1 24570:1 28225:1 #
0.042710077875567819 2:1 103:1 104:1 105:1 106:2 107:2 108:2 109:2 110:2 111:1 112:1 113:1 114:1 115:1 5900:1 12877:1 28295:1 #
0.042710077875567819 2:1 103:1 104:1 105:1 106:1 107:2 108:2 109:2 110:1 111:1 112:1 113:1 114:1 115:1 221:1 3265:1 10314:1 10502:1 10833:1 13201:1 #
0.042710077875567819 2:1 103:1 104:1 105:1 106:2 107:2 108:2 109:2 110:2 111:1 112:1 113:1 114:1 115:1 10502:1 13200:1 21948:1 26859:1 #
-0.042710077875567819 2:1 103:1 104:1 105:1 106:2 107:2 108:2 109:2 110:2 111:1 112:1 113:1 114:1 115:1 8256:1 12557:1 #
-0.042710077875567819 2:1 103:1 104:1 105:1 106:2 107:2 108:2 109:2 110:2 111:1 112:1 113:1 114:1 115:1 206:1 12258:1 #
-0.042710077875567819 2:2 103:1 104:1 105:1 106:2 107:2 108:2 109:2 110:2 111:1 112:1 113:1 114:1 115:1 1124:1 2702:1 #
-0.042710077875567819 2:2 103:1 104:1 105:1 106:2 107:2 108:2 109:2 110:2 111:1 112:1 113:1 114:1 115:1 7762:1 10468:1 #
-0.042710077875567819 2:1 103:1 104:1 105:1 106:2 107:2 108:2 109:2 110:2 111:1 112:2 113:1 114:1 115:1 6066:1 15445:1 #
0.042710077875567819 2:2 103:2 104:1 105:1 106:1 107:1 108:1 109:1 110:1 111:1 112:1 113:2 114:2 115:2 5806:1 6178:1 6430:1 9750:1 15364:1 15651:1 23923:1 24235:1 24995:1 27283:1 27557:1 28846:1 #
0.038834908387352846 2:2 103:2 104:2 105:1 106:1 107:1 108:1 109:1 110:1 111:1 112:2 113:2 114:1 115:1 1122:1 4379:1 6430:1 6642:1 8306:1 8412:1 12064:1 13256:1 27347:1 #
0.042710077875567819 2:2 103:2 104:1 105:1 106:1 107:1 108:1 109:1 110:1 111:1 112:1 113:2 114:2 115:2 5806:1 6178:1 6430:1 9750:1 23923:1 24235:1 27283:1 27557:1 #
0.037410702408386051 2:2 103:2 104:2 105:1 106:1 107:1 108:1 109:1 110:1 111:1 112:2 113:2 114:1 115:1 2859:1 4948:1 6430:1 6642:1 7329:1 7678:1 8399:1 8957:1 10502:1 13731:1 21102:1 22591:1 23923:1 29335:1 #
-0.042710077875567819 2:2 103:2 104:1 105:1 106:1 107:1 108:1 109:1 110:1 111:1 112:1 113:2 114:1 115:1 2859:1 4948:1 6430:1 7329:1 7678:1 8399:1 8957:1 9699:1 10502:1 13731:1 21102:1 22591:1 23923:1 29335:1 #
-0.042710077875567819 2:2 103:2 104:1 105:1 106:1 107:1 108:1 109:1 110:1 111:1 112:2 113:2 114:1 115:1 6066:1 19003:1 #
-0.042710077875567819 2:2 103:2 104:1 105:1 106:1 107:2 108:2 109:2 110:1 111:1 112:1 113:1 114:1 115:1 5376:1 13603:1 28020:1 28769:1 #
-0.042710077875567819 2:2 103:2 104:1 105:2 106:1 107:1 108:1 109:1 110:1 111:2 112:2 113:2 114:1 115:1 5806:1 6178:1 6430:1 6642:1 9750:1 15364:1 15651:1 23923:1 24235:1 24995:1 27557:1 28846:1 #
0.042710077875567819 2:2 103:2 104:1 105:1 106:1 107:1 108:1 109:2 110:1 111:2 112:1 113:2 114:1 115:1 9456:1 10887:1 25996:1 #
-0.005992226600042852 2:2 103:1 104:1 105:2 106:1 107:1 108:1 109:1 110:1 111:1 112:1 113:2 114:1 115:1 6234:1 30485:1 #
-0.042710077875567819 2:1 103:1 104:1 105:1 106:1 107:1 108:1 109:1 110:1 111:1 112:1 113:2 114:1 115:1 4425:1 5798:1 6642:1 22608:1 30305:1 #
-0.042710077875567819 2:2 103:2 104:1 105:1 106:1 107:1 108:1 109:1 110:1 111:1 112:2 113:2 114:1 115:1 9604:1 17730:1 #
0.042710077875567819 2:1 103:1 104:1 105:1 106:2 107:2 108:2 109:2 110:2 111:1 112:2 113:2 114:2 115:2 1323:1 4400:1 22183:1 #
-0.042710077875567819 2:1 103:1 104:1 105:1 106:2 107:2 108:2 109:2 110:2 111:1 112:2 113:2 114:2 115:2 24116:1 30101:1 #
-0.042710077875567819 2:1 103:1 104:1 105:1 106:1 107:2 108:2 109:2 110:1 111:1 112:2 113:2 114:2 115:2 13201:1 15516:1 30101:1 #
-0.042710077875567819 2:1 103:1 104:1 105:1 106:1 107:2 108:2 109:2 110:1 111:1 112:2 113:2 114:2 115:2 5900:1 10356:1 14533:1 20332:1 22555:1 #
-0.042710077875567819 2:1 103:1 104:1 105:1 106:1 107:2 108:2 109:2 110:1 111:1 112:1 113:2 114:2 115:2 2250:1 18403:1 19775:1 23921:1 #
-0.042710077875567819 2:1 103:1 104:1 105:1 106:1 107:2 108:2 109:2 110:1 111:1 112:2 113:2 114:2 115:2 1323:1 4400:1 13201:1 17949:1 22183:1 #
0.042710077875567819 2:2 103:2 104:1 105:1 106:1 107:1 108:1 109:1 110:1 111:1 112:1 113:1 114:1 115:1 5806:1 6178:1 13591:1 23923:1 28846:1 #
0.042710077875567819 2:2 103:2 104:1 105:1 106:1 107:1 108:1 109:1 110:1 111:1 112:1 113:1 114:1 115:1 5806:1 5900:1 6178:1 9699:1 23923:1 28846:1 #
0.042710077875567819 2:1 103:1 104:1 105:1 106:1 107:1 108:1 109:1 110:1 111:1 112:1 113:1 114:1 115:1 5806:1 6178:1 13591:1 14397:1 15252:1 23923:1 28846:1 #
0.042710077875567819 2:2 103:2 104:1 105:1 106:1 107:1 108:1 109:1 110:1 111:1 112:1 113:2 114:2 115:2 5806:1 6178:1 6430:1 9750:1 15364:1 15651:1 23923:1 24235:1 24995:1 27283:1 27557:1 28846:1 #
0.042710077875567819 2:1 103:1 104:1 105:1 106:1 107:1 108:1 109:1 110:1 111:1 112:1 113:1 114:1 115:1 5806:1 6178:1 13591:1 23923:1 28846:1 #
-0.042710077875567819 2:2 103:2 104:1 105:1 106:1 107:1 108:1 109:1 110:1 111:1 112:1 113:2 114:1 115:1 13201:1 15733:1 21102:1 #
-0.042710077875567819 2:1 103:1 104:1 105:1 106:1 107:1 108:1 109:2 110:1 111:1 112:1 113:2 114:1 115:1 2652:1 6430:1 9699:1 11282:1 17949:1 21919:1 30226:1 #
-0.042710077875567819 2:2 103:2 104:2 105:1 106:1 107:1 108:1 109:1 110:1 111:1 112:1 113:1 114:1 115:1 6642:1 20999:1 27710:1 #
-0.042710077875567819 2:2 103:1 104:2 105:1 106:1 107:1 108:1 109:1 110:1 111:1 112:1 113:1 114:1 115:1 6199:1 6642:1 29968:1 #
0.042710077875567819 2:1 103:1 104:1 105:1 106:1 107:2 108:2 109:2 110:1 111:1 112:2 113:2 114:2 115:2 20253:1 20332:1 24116:1 30101:1 #
0.042710077875567819 2:1 103:1 104:1 105:1 106:1 107:2 108:2 109:2 110:1 111:1 112:2 113:2 114:2 115:2 15516:1 26494:1 30101:1 #
0.042710077875567819 2:1 103:1 104:1 105:1 106:1 107:2 108:2 109:2 110:1 111:1 112:2 113:2 114:2 115:2 4400:1 13201:1 17949:1 #
0.042710077875567819 2:1 103:1 104:1 105:1 106:1 107:2 108:2 109:2 110:1 111:1 112:2 113:2 114:2 115:2 9699:1 13201:1 30101:1 #
-0.042710077875567819 2:1 103:1 104:1 105:1 106:1 107:2 108:2 109:2 110:1 111:1 112:2 113:2 114:2 115:2 9699:1 13201:1 15516:1 30101:1 #
-0.042710077875567819 2:1 103:1 104:1 105:1 106:1 107:2 108:2 109:2 110:1 111:1 112:2 113:2 114:2 115:2 7039:1 9699:1 13201:1 25972:1 #
0.042710077875567819 2:2 103:2 104:1 105:1 106:1 107:1 108:1 109:1 110:1 111:1 112:2 113:1 114:1 115:1 2584:1 12857:1 18132:1 20332:1 23923:1 24687:1 29595:1 #
0.042710077875567819 2:2 103:2 104:1 105:1 106:1 107:1 108:1 109:1 110:1 111:1 112:1 113:1 114:1 115:1 8957:1 10887:1 10982:1 14588:1 15331:1 15364:1 15877:1 17474:1 17942:1 23917:1 26346:1 #
0.042710077875567819 2:2 103:2 104:1 105:2 106:1 107:1 108:1 109:1 110:1 111:1 112:1 113:1 114:1 115:1 9013:1 10887:1 18629:1 #
0.042710077875567819 2:2 103:1 104:1 105:1 106:1 107:1 108:1 109:1 110:1 111:1 112:1 113:1 114:1 115:1 2513:1 5320:1 12380:1 16577:1 17198:1 21102:1 23923:1 29150:1 #
-0.042710077875567819 2:1 103:1 104:1 105:1 106:1 107:1 108:1 109:1 110:1 111:1 112:1 113:2 114:2 115:2 1134:1 2068:1 10215:1 10358:1 10951:1 12790:1 20515:1 25047:1 #
-0.042710077875567819 2:2 103:1 104:1 105:1 106:1 107:1 108:1 109:1 110:1 111:1 112:1 113:2 114:2 115:2 1134:1 2068:1 10215:1 10358:1 10951:1 12790:1 19344:1 20515:1 25047:1 #
-0.042710077875567819 2:2 103:2 104:1 105:1 106:1 107:1 108:1 109:1 110:1 111:1 112:1 113:2 114:1 115:1 2849:1 5798:1 30225:1 #
-0.0048163920222495799 2:2 103:1 104:1 105:2 106:1 107:1 108:1 109:1 110:1 111:1 112:1 113:2 114:1 115:1 3613:1 28600:1 #
-0.042710077875567819 2:2 103:2 104:1 105:1 106:1 107:1 108:1 109:1 110:1 111:1 112:1 113:2 114:1 115:1 7013:1 8777:1 9171:1 11201:1 #
0.042710077875567819 2:1 103:1 104:1 105:1 106:1 107:2 108:2 109:2 110:1 111:1 112:2 113:2 114:1 115:1 1456:1 6178:1 13562:1 14588:1 15653:1 23923:1 26015:1 #
0.042710077875567819 2:2 103:1 104:1 105:2 106:1 107:1 108:1 109:1 110:1 111:2 112:2 113:2 114:1 115:1 6642:1 8457:1 10367:1 12001:1 23923:1 #
0.042710077875567819 2:2 103:1 104:1 105:1 106:1 107:1 108:2 109:1 110:1 111:1 112:2 113:2 114:1 115:1 6178:1 13562:1 14588:1 15653:1 23923:1 #
0.042710077875567819 2:2 103:2 104:1 105:2 106:1 107:1 108:1 109:1 110:1 111:2 112:2 113:2 114:1 115:1 6430:1 6642:1 8399:1 11040:1 19673:1 25707:1 27980:1 #
0.042710077875567819 2:2 103:2 104:1 105:2 106:1 107:1 108:1 109:1 110:1 111:2 112:2 113:2 114:1 115:1 6642:1 9699:1 13201:1 25972:1 #
-0.042710077875567819 2:2 103:2 104:2 105:2 106:2 107:2 108:2 109:2 110:2 111:2 112:2 113:2 114:1 115:1 6642:1 #
-0.0041609115058524881 2:2 103:1 104:1 105:2 106:1 107:1 108:1 109:1 110:1 111:2 112:2 113:2 114:1 115:1 6178:1 6642:1 13562:1 14588:1 15653:1 23923:1 26015:1 #
-0.042710077875567819 2:2 103:2 104:2 105:2 106:2 107:2 108:2 109:2 110:2 111:1 112:2 113:2 114:1 115:1 19585:1 #
0.042710077875567819 2:2 103:1 104:1 105:1 106:1 107:1 108:1 109:2 110:1 111:1 112:1 113:2 114:1 115:1 1134:1 10215:1 10358:1 10951:1 12790:1 20515:1 25047:1 #
0.042710077875567819 2:1 103:1 104:1 105:1 106:1 107:1 108:1 109:1 110:1 111:1 112:1 113:2 114:1 115:1 10215:1 10358:1 10951:1 12790:1 #
-0.042710077875567819 2:2 103:1 104:1 105:1 106:1 107:1 108:1 109:1 110:1 111:1 112:2 113:2 114:1 115:1 1023:1 2317:1 3644:1 10502:1 10773:1 11969:1 19239:1 21102:1 #
-0.042710077875567819 2:2 103:2 104:1 105:1 106:1 107:1 108:1 109:1 110:1 111:1 112:1 113:2 114:1 115:1 221:1 3265:1 9699:1 10314:1 10833:1 13201:1 #
-0.042710077875567819 2:1 103:1 104:1 105:1 106:1 107:1 108:1 109:1 110:1 111:1 112:1 113:2 114:1 115:1 1421:1 2620:1 4855:1 5104:1 6430:1 10502:1 15888:1 16339:1 23923:1 24743:1 #
-0.042710077875567819 2:2 103:2 104:1 105:1 106:1 107:1 108:1 109:1 110:1 111:1 112:2 113:2 114:1 115:1 7304:1 8457:1 10367:1 12001:1 #
-0.042710077875567819 2:2 103:2 104:1 105:1 106:1 107:1 108:1 109:1 110:1 111:1 112:1 113:2 114:1 115:1 2350:1 5177:1 19363:1 20064:1 24570:1 #
-0.042710077875567819 2:2 103:1 104:1 105:2 106:1 107:1 108:1 109:1 110:1 111:1 112:1 113:2 114:1 115:1 5698:1 15817:1 15823:1 18629:1 #
0.042710077875567819 2:2 103:1 104:2 105:1 106:1 107:1 108:1 109:1 110:1 111:1 112:1 113:2 114:1 115:1 6199:1 8634:1 24599:1 #
-0.0020109473111291146 2:2 103:1 104:2 105:1 106:1 107:1 108:1 109:1 110:1 111:1 112:1 113:1 114:1 115:1 3968:1 6642:1 #
-0.042710077875567819 2:1 103:1 104:1 105:2 106:1 107:1 108:1 109:1 110:1 111:1 112:1 113:2 114:1 115:1 10887:1 12001:1 30485:1 #
-0.038008907331207764 2:2 103:2 104:1 105:1 106:1 107:1 108:1 109:1 110:1 111:1 112:1 113:2 114:1 115:1 1456:1 12309:1 14588:1 #
-0.042710077875567819 2:1 103:1 104:1 105:1 106:2 107:2 108:2 109:2 110:2 111:1 112:1 113:2 114:2 115:1 9699:1 #
-0.042710077875567819 2:1 103:1 104:1 105:1 106:1 107:2 108:2 109:2 110:1 111:1 112:1 113:2 114:2 115:2 2647:1 6790:1 29231:1 #
-0.042710077875567819 2:1 103:1 104:2 105:2 106:2 107:2 108:2 109:2 110:2 111:1 112:2 113:2 114:1 115:1 17686:1 #
-0.042710077875567819 2:1 103:1 104:2 105:2 106:2 107:2 108:2 109:2 110:2 111:1 112:2 113:2 114:1 115:1 8428:1 #
0.042710077875567819 2:2 103:2 104:1 105:1 106:1 107:1 108:1 109:1 110:1 111:1 112:1 113:1 114:1 115:1 1287:1 1430:1 11105:1 19061:1 23743:1 28020:1 29006:1 #
0.042710077875567819 2:2 103:2 104:1 105:1 106:1 107:1 108:1 109:1 110:1 111:1 112:1 113:1 114:1 115:1 1287:1 11105:1 11388:1 23743:1 28304:1 29006:1 #
0.042710077875567819 2:2 103:2 104:1 105:1 106:1 107:1 108:1 109:1 110:1 111:1 112:1 113:2 114:1 115:1 5900:1 6477:1 9699:1 10887:1 14864:1 16914:1 17717:1 23911:1 24980:1 26723:1 #
0.042710077875567819 2:2 103:2 104:1 105:1 106:1 107:1 108:1 109:1 110:1 111:2 112:1 113:1 114:1 115:1 2849:1 8399:1 9342:1 12704:1 15105:1 24070:1 30711:1 #
0.042710077875567819 2:2 103:2 104:1 105:1 106:1 107:1 108:1 109:1 110:1 111:1 112:2 113:1 114:1 115:1 1023:1 1197:1 6656:1 7238:1 8224:1 20489:1 28295:1 28640:1 28912:1 #
-0.042710077875567819 2:2 103:2 104:1 105:1 106:1 107:1 108:1 109:1 110:1 111:1 112:1 113:2 114:1 115:1 8150:1 11105:1 12380:1 21948:1 #
-0.042710077875567819 2:2 103:2 104:1 105:1 106:1 107:1 108:1 109:1 110:1 111:1 112:1 113:2 114:2 115:2 4630:1 5002:1 6430:1 8399:1 13731:1 22275:1 24063:1 26477:1 30210:1 #
-0.042710077875567819 2:2 103:2 104:2 105:2 106:1 107:1 108:1 109:1 110:1 111:1 112:2 113:1 114:1 115:1 6642:1 27278:1 #
-0.021933180069765128 2:2 103:1 104:2 105:1 106:1 107:1 108:1 109:1 110:1 111:1 112:1 113:1 114:1 115:1 2108:1 6199:1 8399:1 8957:1 10502:1 13588:1 20127:1 22116:1 24111:1 24995:1 #
0.042710077875567819 2:1 103:1 104:2 105:2 106:1 107:1 108:1 109:1 110:1 111:1 112:2 113:2 114:1 115:1 8428:1 19598:1 #
-0.042710077875567819 2:2 103:2 104:1 105:1 106:1 107:1 108:1 109:1 110:1 111:1 112:2 113:2 114:1 115:1 1197:1 6656:1 7238:1 20489:1 28912:1 #
-0.042710077875567819 2:2 103:1 104:1 105:2 106:1 107:1 108:1 109:1 110:1 111:1 112:1 113:2 114:1 115:1 19404:1 30485:1 #
-0.042710077875567819 2:1 103:1 104:2 105:1 106:1 107:1 108:1 109:1 110:1 111:1 112:1 113:2 114:1 115:1 9945:1 19598:1 #
0.042710077875567819 2:2 103:2 104:2 105:1 106:1 107:1 108:1 109:1 110:1 111:1 112:1 113:2 114:1 115:1 349:1 6642:1 24293:1 #
-0.042710077875567819 2:1 103:1 104:1 105:1 106:1 107:1 108:1 109:1 110:1 111:1 112:2 113:2 114:1 115:1 1134:1 6773:1 8150:1 17730:1 #
0.042710077875567819 2:1 103:1 104:1 105:2 106:1 107:1 108:1 109:1 110:1 111:1 112:1 113:2 114:1 115:1 288:1 4837:1 5002:1 6430:1 7596:1 10887:1 15469:1 15516:1 16565:1 23057:1 24858:1 #
0.042710077875567819 2:1 103:1 104:1 105:2 106:1 107:1 108:1 109:1 110:1 111:1 112:1 113:2 114:1 115:1 19585:1 21102:1 28846:1 #
0.042710077875567819 2:1 103:1 104:2 105:2 106:1 107:1 108:2 109:1 110:1 111:1 112:2 113:2 114:1 115:1 15469:1 17686:1 #
0.042710077875567819 2:1 103:1 104:1 105:2 106:1 107:1 108:1 109:1 110:1 111:1 112:1 113:2 114:1 115:1 9093:1 11690:1 13562:1 15653:1 18629:1 23280:1 #
0.042710077875567819 2:1 103:1 104:1 105:2 106:1 107:1 108:1 109:1 110:1 111:1 112:1 113:2 114:1 115:1 9699:1 19585:1 #
-0.042710077875567819 2:2 103:2 104:2 105:1 106:1 107:1 108:1 109:1 110:1 111:1 112:1 113:1 114:1 115:1 10502:1 10887:1 14405:1 #
-0.036520244779638111 2:2 103:2 104:1 105:2 106:1 107:1 108:1 109:1 110:1 111:2 112:1 113:2 114:1 115:1 6642:1 21919:1 #
-0.042710077875567819 2:2 103:2 104:1 105:1 106:1 107:1 108:1 109:1 110:1 111:2 112:1 113:2 114:1 115:1 9946:1 10887:1 17942:1 #
-0.042710077875567819 2:2 103:2 104:2 105:1 106:1 107:1 108:1 109:1 110:1 111:1 112:1 113:2 114:1 115:1 9071:1 13185:1 19569:1 19585:1 #
0.042710077875567819 2:2 103:2 104:2 105:1 106:1 107:1 108:1 109:1 110:1 111:1 112:1 113:2 114:1 115:1 4455:1 5456:1 6642:1 11231:1 14647:1 15331:1 15654:1 19669:1 23911:1 23917:1 #
0.042710077875567819 2:2 103:2 104:1 105:1 106:1 107:1 108:1 109:1 110:1 111:1 112:1 113:1 114:1 115:1 8957:1 10887:1 13341:1 15331:1 15364:1 15877:1 17942:1 23917:1 26346:1 26458:1 #
-0.042710077875567819 2:2 103:1 104:1 105:2 106:1 107:1 108:1 109:1 110:1 111:1 112:2 113:2 114:1 115:1 14533:1 28295:1 30485:1 #
-0.042710077875567819 2:1 103:1 104:1 105:1 106:1 107:1 108:1 109:1 110:1 111:1 112:1 113:2 114:1 115:1 6405:1 10887:1 10969:1 12621:1 19286:1 21317:1 21512:1 28500:1 29449:1 #
-0.042710077875567819 2:2 103:2 104:2 105:1 106:1 107:1 108:1 109:1 110:1 111:1 112:1 113:1 114:1 115:1 1285:1 6430:1 9071:1 9750:1 10502:1 10613:1 10887:1 22356:1 27278:1 #
-0.0063368945528244902 2:2 103:1 104:2 105:1 106:1 107:1 108:1 109:1 110:1 111:1 112:1 113:1 114:1 115:1 6642:1 8727:1 24088:1 29584:1 30485:1 #
-0.004822849443536191 2:2 103:1 104:1 105:1 106:1 107:1 108:1 109:1 110:1 111:1 112:1 113:2 114:1 115:1 3407:1 4455:1 5456:1 11231:1 14647:1 15331:1 15654:1 19669:1 20836:1 23911:1 23917:1 #
0.042710077875567819 2:2 103:2 104:1 105:1 106:1 107:2 108:2 109:2 110:1 111:1 112:2 113:2 114:1 115:1 3738:1 9699:1 17477:1 23644:1 28034:1 29565:1 #
-0.042710077875567819 2:2 103:2 104:2 105:1 106:1 107:1 108:1 109:1 110:1 111:1 112:1 113:1 114:1 115:1 4389:1 6459:1 6507:1 6642:1 7677:1 8399:1 25978:1 #
0.042710077875567819 2:1 103:1 104:1 105:1 106:1 107:2 108:2 109:2 110:1 111:1 112:2 113:2 114:1 115:1 6430:1 8457:1 10367:1 12001:1 21390:1 22129:1 23923:1 28918:1 #
0.042710077875567819 2:1 103:1 104:1 105:1 106:1 107:2 108:2 109:2 110:1 111:1 112:2 113:1 114:1 115:1 2977:1 3916:1 5463:1 6430:1 9699:1 13273:1 22334:1 28435:1 #
-0.042710077875567819 2:1 103:1 104:1 105:1 106:1 107:2 108:2 109:2 110:1 111:1 112:2 113:2 114:2 115:2 2973:1 5002:1 26494:1 29624:1 #
-0.042710077875567819 2:1 103:1 104:2 105:2 106:2 107:2 108:2 109:2 110:2 111:1 112:2 113:2 114:1 115:1 19585:1 #
-0.02646637244020544 2:2 103:1 104:1 105:1 106:1 107:1 108:1 109:1 110:1 111:1 112:1 113:2 114:1 115:1 242:1 1282:1 6430:1 16577:1 21051:1 22795:1 #
0.042710077875567819 2:2 103:2 104:1 105:1 106:1 107:1 108:1 109:1 110:1 111:1 112:1 113:1 114:1 115:1 1124:1 2702:1 5900:1 6160:1 21102:1 23509:1 24980:1 #
0.042710077875567819 2:2 103:2 104:1 105:1 106:1 107:1 108:1 109:1 110:1 111:1 112:1 113:1 114:1 115:1 4664:1 10356:1 10887:1 14533:1 20332:1 28104:1 #
0.042710077875567819 2:2 103:1 104:1 105:1 106:1 107:1 108:1 109:1 110:1 111:1 112:1 113:1 114:1 115:1 4314:1 6215:1 8154:1 10730:1 21023:1 23911:1 23923:1 24980:1 #
-0.042710077875567819 2:2 103:2 104:1 105:1 106:1 107:2 108:2 109:2 110:1 111:1 112:2 113:2 114:1 115:1 2187:1 23331:1 24598:1 #
-0.042710077875567819 2:2 103:2 104:1 105:1 106:1 107:2 108:2 109:2 110:1 111:1 112:2 113:2 114:1 115:1 10930:1 13204:1 17212:1 #
-0.042710077875567819 2:2 103:2 104:1 105:1 106:1 107:2 108:2 109:2 110:1 111:1 112:2 113:2 114:1 115:1 8308:1 15355:1 23673:1 #
0.042710077875567819 2:1 103:1 104:1 105:1 106:1 107:1 108:1 109:1 110:1 111:1 112:1 113:1 114:1 115:1 4976:1 5798:1 14397:1 15252:1 17469:1 21948:1 23911:1 24550:1 26222:1 28483:1 #
0.042710077875567819 2:1 103:1 104:1 105:2 106:1 107:1 108:1 109:1 110:1 111:1 112:1 113:1 114:1 115:1 8397:1 22056:1 #
0.042710077875567819 2:1 103:1 104:1 105:1 106:1 107:1 108:1 109:1 110:1 111:1 112:1 113:1 114:1 115:1 10468:1 14397:1 18813:1 24995:1 28769:1 #
0.042710077875567819 2:1 103:1 104:1 105:1 106:1 107:1 108:1 109:1 110:1 111:1 112:1 113:1 114:1 115:1 215:1 12258:1 13201:1 18208:1 28912:1 #
0.042710077875567819 2:1 103:1 104:1 105:1 106:1 107:1 108:1 109:1 110:1 111:1 112:1 113:1 114:1 115:1 5798:1 13624:1 15516:1 16484:1 23911:1 30101:1 #
-0.042710077875567819 2:2 103:2 104:1 105:2 106:1 107:1 108:1 109:1 110:1 111:1 112:1 113:2 114:1 115:1 5900:1 18629:1 24980:1 #
-0.042710077875567819 2:2 103:2 104:1 105:2 106:1 107:1 108:1 109:1 110:1 111:1 112:1 113:2 114:1 115:1 15119:1 22822:1 #
-0.042710077875567819 2:2 103:2 104:1 105:1 106:1 107:1 108:1 109:1 110:1 111:1 112:1 113:2 114:1 115:1 8457:1 10887:1 12001:1 #
-0.042710077875567819 2:2 103:2 104:1 105:2 106:1 107:1 108:1 109:1 110:1 111:1 112:1 113:2 114:1 115:1 683:1 27795:1 30485:1 #
0.042710077875567819 2:2 103:2 104:1 105:1 106:1 107:1 108:1 109:1 110:1 111:1 112:1 113:2 114:1 115:1 6642:1 12791:1 21102:1 #
-0.042710077875567819 2:2 103:2 104:1 105:2 106:1 107:1 108:1 109:1 110:1 111:1 112:1 113:2 114:1 115:1 4080:1 6199:1 #
-0.030083784912997208 2:2 103:2 104:1 105:1 106:1 107:1 108:1 109:1 110:1 111:1 112:1 113:2 114:1 115:1 6430:1 8457:1 10468:1 10569:1 13845:1 19435:1 22086:1 #
-0.042710077875567819 2:1 103:1 104:1 105:1 106:2 107:2 108:2 109:2 110:2 111:1 112:2 113:1 114:1 115:1 15516:1 30101:1 #
-0.042710077875567819 2:1 103:1 104:2 105:2 106:2 107:2 108:2 109:2 110:2 111:1 112:2 113:2 114:1 115:1 19598:1 #
0.042710077875567819 2:2 103:2 104:1 105:1 106:1 107:1 108:1 109:1 110:1 111:1 112:1 113:2 114:1 115:1 543:1 2977:1 3916:1 6430:1 13273:1 22334:1 28435:1 #
0.042710077875567819 2:2 103:2 104:1 105:1 106:1 107:1 108:1 109:1 110:1 111:1 112:1 113:2 114:1 115:1 2350:1 6430:1 7903:1 10502:1 14457:1 14683:1 17949:1 18343:1 19782:1 20332:1 24322:1 24486:1 25978:1 29512:1 #
0.042710077875567819 2:2 103:2 104:1 105:1 106:1 107:1 108:1 109:2 110:1 111:1 112:1 113:2 114:1 115:1 2560:1 6430:1 10887:1 11105:1 12719:1 13344:1 13998:1 20836:1 24322:1 #
-0.042710077875567819 2:2 103:2 104:2 105:1 106:1 107:1 108:1 109:1 110:1 111:1 112:2 113:1 114:1 115:1 14706:1 18629:1 #
0.042710077875567819 2:2 103:1 104:1 105:1 106:1 107:1 108:1 109:1 110:1 111:2 112:1 113:2 114:1 115:1 209:1 3000:1 9013:1 10887:1 14386:1 23458:1 29202:1 #
-0.023932608138002711 2:1 103:1 104:1 105:1 106:1 107:1 108:1 109:1 110:1 111:1 112:2 113:2 114:2 115:2 7901:1 13212:1 16326:1 26487:1 #
-0.042710077875567819 2:2 103:2 104:1 105:1 106:1 107:1 108:1 109:1 110:1 111:1 112:1 113:2 114:2 115:2 9937:1 10362:1 10887:1 21102:1 22129:1 29329:1 #
0.042710077875567819 2:2 103:2 104:2 105:2 106:1 107:1 108:1 109:1 110:1 111:1 112:2 113:2 114:1 115:1 8428:1 30485:1 #
-0.042710077875567819 2:1 103:1 104:1 105:1 106:1 107:1 108:1 109:1 110:1 111:1 112:1 113:2 114:1 115:1 493:1 5048:1 10527:1 #
-0.042710077875567819 2:2 103:2 104:1 105:1 106:1 107:1 108:1 109:1 110:1 111:1 112:1 113:2 114:1 115:1 4843:1 7748:1 7824:1 10502:1 10887:1 19936:1 29438:1 #
0.042710077875567819 2:2 103:2 104:2 105:2 106:1 107:1 108:1 109:1 110:1 111:1 112:1 113:2 114:1 115:1 6199:1 8428:1 #
0.042710077875567819 2:2 103:2 104:2 105:2 106:1 107:1 108:1 109:1 110:1 111:1 112:2 113:2 114:1 115:1 7793:1 30485:1 #
-0.042710077875567819 2:1 103:1 104:1 105:1 106:1 107:1 108:1 109:1 110:1 111:1 112:1 113:2 114:1 115:1 6178:1 10887:1 13562:1 14588:1 15653:1 23923:1 29575:1 #
-0.020233276310469117 2:2 103:1 104:1 105:1 106:1 107:1 108:1 109:1 110:1 111:1 112:1 113:2 114:1 115:1 8133:1 16317:1 18089:1 #
-0.042710077875567819 2:2 103:1 104:1 105:1 106:1 107:1 108:1 109:1 110:1 111:1 112:1 113:2 114:1 115:1 16511:1 26075:1 27530:1 29565:1 #
-0.042710077875567819 2:2 103:2 104:2 105:1 106:1 107:1 108:1 109:1 110:1 111:1 112:1 113:2 114:1 115:1 1592:1 2350:1 3613:1 6199:1 7270:1 8154:1 10502:1 11105:1 17477:1 28034:1 #
0.042710077875567819 2:1 103:1 104:1 105:1 106:1 107:1 108:1 109:1 110:1 111:1 112:2 113:1 114:1 115:1 1197:1 6656:1 7238:1 11827:1 #
0.042710077875567819 2:1 103:1 104:1 105:1 106:1 107:1 108:1 109:1 110:1 111:1 112:2 113:1 114:1 115:1 1149:1 6656:1 9484:1 11827:1 #
0.042710077875567819 2:2 103:1 104:1 105:1 106:1 107:1 108:1 109:1 110:1 111:1 112:2 113:1 114:1 115:1 1909:1 2560:1 6278:1 10468:1 10502:1 12258:1 14457:1 #
0.042710077875567819 2:1 103:1 104:1 105:2 106:1 107:1 108:1 109:1 110:1 111:1 112:2 113:1 114:1 115:1 1134:1 8150:1 8428:1 #
0.042710077875567819 2:1 103:1 104:1 105:1 106:1 107:1 108:1 109:1 110:1 111:1 112:2 113:1 114:1 115:1 4728:1 6278:1 23791:1 28116:1 #
-0.042710077875567819 2:1 103:1 104:1 105:1 106:2 107:2 108:2 109:2 110:2 111:1 112:2 113:1 114:1 115:1 6278:1 23791:1 #
-0.042710077875567819 2:2 103:2 104:1 105:2 106:1 107:1 108:1 109:1 110:1 111:1 112:1 113:2 114:1 115:1 8397:1 9699:1 #
0.042710077875567819 2:2 103:2 104:1 105:1 106:1 107:1 108:1 109:1 110:1 111:1 112:1 113:2 114:1 115:1 6430:1 10887:1 14112:1 14588:1 15050:1 15516:1 16339:1 26015:1 30101:1 #
0.042710077875567819 2:2 103:2 104:1 105:1 106:1 107:1 108:1 109:1 110:1 111:1 112:1 113:2 114:1 115:1 1592:1 2350:1 3367:1 3613:1 6276:1 7270:1 8154:1 10502:1 11105:1 17477:1 21954:1 28034:1 #
0.042710077875567819 2:2 103:2 104:1 105:1 106:1 107:2 108:2 109:2 110:1 111:1 112:1 113:2 114:1 115:1 10887:1 14588:1 17730:1 #
0.042710077875567819 2:2 103:2 104:1 105:1 106:1 107:1 108:1 109:1 110:1 111:1 112:1 113:2 114:1 115:1 1592:1 3613:1 8224:1 16511:1 26075:1 26494:1 #
-0.038780182059065152 2:2 103:1 104:1 105:1 106:1 107:1 108:1 109:1 110:1 111:1 112:1 113:2 114:1 115:1 2211:1 3373:1 10887:1 16386:1 #
0.042710077875567819 2:2 103:2 104:1 105:1 106:1 107:1 108:1 109:1 110:1 111:1 112:1 113:2 114:1 115:1 3596:1 16670:1 16969:1 17456:1 17477:1 19414:1 21023:1 21409:1 24980:1 #
-0.042710077875567819 2:2 103:1 104:2 105:2 106:2 107:2 108:2 109:2 110:2 111:1 112:2 113:2 114:1 115:1 8428:1 #
0.042710077875567819 2:2 103:1 104:1 105:2 106:1 107:1 108:1 109:1 110:1 111:1 112:1 113:2 114:1 115:1 972:1 6199:1 6430:1 8178:1 8957:1 10358:1 10602:1 15245:1 16055:1 17574:1 20109:1 23219:1 25107:1 26934:1 29335:1 #
0.042710077875567819 2:2 103:1 104:2 105:1 106:1 107:1 108:1 109:1 110:1 111:1 112:2 113:2 114:1 115:1 6642:1 9673:1 #
0.042710077875567819 2:1 103:1 104:1 105:1 106:1 107:1 108:1 109:1 110:1 111:1 112:2 113:2 114:1 115:1 972:1 6430:1 8178:1 8957:1 10358:1 10602:1 15245:1 16055:1 17574:1 20109:1 20332:1 23219:1 25107:1 26934:1 29335:1 #
-0.042710077875567819 2:1 103:1 104:1 105:1 106:1 107:1 108:1 109:1 110:1 111:1 112:2 113:2 114:2 115:2 972:1 6430:1 8178:1 8957:1 10358:1 10602:1 15245:1 16055:1 17574:1 20109:1 20234:1 23219:1 25107:1 26934:1 29335:1 #
-0.042710077875567819 2:2 103:2 104:1 105:1 106:1 107:1 108:1 109:1 110:1 111:1 112:2 113:2 114:2 115:2 4837:1 10951:1 14533:1 17753:1 22575:1 26544:1 28295:1 #
-0.042710077875567819 2:2 103:2 104:1 105:1 106:1 107:1 108:1 109:1 110:1 111:1 112:2 113:2 114:2 115:2 288:1 5002:1 7596:1 23057:1 #
-0.042710077875567819 2:2 103:2 104:1 105:1 106:1 107:1 108:1 109:1 110:1 111:1 112:1 113:2 114:1 115:1 19003:1 27737:1 #
0.042710077875567819 2:2 103:1 104:2 105:1 106:1 107:1 108:1 109:1 110:1 111:1 112:1 113:2 114:1 115:1 5597:1 5698:1 8428:1 #
0.042710077875567819 2:1 103:1 104:1 105:1 106:1 107:1 108:1 109:1 110:1 111:2 112:1 113:2 114:1 115:1 1599:1 10887:1 16410:1 27660:1 29575:1 #
