SVM-light Version V6.02
0 # kernel type
3 # kernel parameter -d 
1 # kernel parameter -g 
1 # kernel parameter -s 
1 # kernel parameter -r 
empty# kernel parameter -u 
147067 # highest feature index 
153595 # number of training documents 
16855 # number of support vectors plus 1 
8.6229829 # threshold b, each following line is a SV (starting with alpha*y)
0.049993067436813754 2:2 103:2 104:2 105:1 106:1 107:1 108:1 109:1 110:1 111:1 112:1 113:2 133536:1 #
-0.04608399432009181 2:2 103:1 104:1 105:1 106:1 107:2 108:2 109:2 110:1 111:1 112:1 113:1 1387:1 75334:1 98411:1 #
-0.049993067436813754 2:2 103:1 104:2 105:2 106:2 107:2 108:2 109:2 110:2 111:1 112:1 113:2 31906:1 #
0.049993067436813754 2:2 103:2 104:1 105:1 106:1 107:1 108:1 109:1 110:1 111:1 112:1 113:1 10902:1 49512:1 75334:1 76338:1 76977:1 117847:1 119731:1 120721:1 #
0.040518000277773358 2:2 103:2 104:2 105:1 106:1 107:1 108:1 109:1 110:1 111:1 112:1 113:2 14671:1 73715:1 97029:1 #
-0.049993067436813754 2:1 103:1 104:2 105:2 106:1 107:1 108:1 109:1 110:1 111:1 112:1 113:2 14671:1 86668:1 #
-0.049993067436813754 2:2 103:2 104:1 105:1 106:1 107:2 108:2 109:2 110:1 111:2 112:1 113:1 26768:1 58757:1 64798:1 102856:1 #
-0.049993067436813754 2:2 103:2 104:1 105:1 106:1 107:1 108:1 109:1 110:1 111:1 112:1 113:2 3691:1 23286:1 59674:1 86734:1 111815:1 129424:1 130738:1 #
0.049993067436813754 2:1 103:1 104:1 105:2 106:1 107:1 108:1 109:1 110:1 111:1 112:1 113:2 70452:1 112633:1 #
-0.029395801544737588 2:1 103:1 104:1 105:1 106:1 107:1 108:1 109:1 110:1 111:1 112:1 113:2 38047:1 86089:1 #
0.049993067436813754 2:2 103:1 104:2 105:2 106:1 107:1 108:1 109:1 110:1 111:1 112:1 113:2 31906:1 86668:1 #
0.049993067436813754 2:1 103:1 104:2 105:2 106:1 107:1 108:2 109:1 110:1 111:1 112:1 113:2 31906:1 77816:1 #
0.049993067436813754 2:2 103:1 104:2 105:2 106:1 107:1 108:2 109:1 110:1 111:1 112:1 113:2 31906:1 77816:1 #
-0.049993067436813754 2:1 103:1 104:2 105:2 106:2 107:2 108:2 109:2 110:2 111:1 112:1 113:2 31906:1 #
0.049993067436813754 2:2 103:1 104:1 105:1 106:1 107:1 108:1 109:1 110:1 111:1 112:1 113:2 10902:1 40285:1 49512:1 64854:1 75334:1 76977:1 82693:1 110483:1 119731:1 120721:1 143279:1 147036:1 #
0.049993067436813754 2:2 103:1 104:1 105:1 106:1 107:1 108:1 109:1 110:1 111:1 112:1 113:2 10902:1 49512:1 64854:1 75334:1 76977:1 82693:1 110483:1 119731:1 120721:1 124251:1 138882:1 143279:1 147036:1 #
0.049993067436813754 2:2 103:1 104:1 105:2 106:1 107:1 108:1 109:1 110:1 111:1 112:1 113:2 10902:1 49512:1 63236:1 64854:1 75334:1 76977:1 82693:1 119731:1 120721:1 143279:1 147036:1 #
0.049993067436813754 2:2 103:1 104:2 105:1 106:1 107:1 108:1 109:1 110:1 111:1 112:1 113:2 10902:1 49512:1 64854:1 75334:1 76977:1 82693:1 109111:1 119731:1 120721:1 143279:1 147036:1 #
-0.049993067436813754 2:2 103:1 104:2 105:2 106:1 107:1 108:2 109:1 110:1 111:1 112:1 113:2 31906:1 77816:1 #
-0.049993067436813754 2:2 103:2 104:2 105:2 106:1 107:1 108:2 109:1 110:1 111:1 112:1 113:2 31906:1 77816:1 #
0.049993067436813754 2:2 103:1 104:1 105:2 106:1 107:1 108:1 109:1 110:1 111:1 112:1 113:2 10902:1 49512:1 64854:1 75334:1 76977:1 82693:1 109111:1 119731:1 120721:1 143279:1 147036:1 #
-0.024439863931320874 2:2 103:2 104:1 105:1 106:1 107:1 108:1 109:1 110:1 111:1 112:1 113:2 67622:1 94891:1 96920:1 98706:1 133504:1 137926:1 139193:1 147037:1 147038:1 #
-0.049993067436813754 2:2 103:1 104:1 105:1 106:1 107:1 108:1 109:1 110:1 111:1 112:1 113:2 10902:1 47515:1 49512:1 64854:1 75334:1 76977:1 82693:1 119731:1 120721:1 143279:1 147036:1 #
-0.049993067436813754 2:2 103:2 104:1 105:1 106:1 107:1 108:1 109:1 110:1 111:1 112:1 113:2 86734:1 142649:1 #
-0.049993067436813754 2:2 103:2 104:1 105:1 106:1 107:1 108:1 109:1 110:1 111:1 112:1 113:2 10902:1 47515:1 49512:1 64854:1 75334:1 76977:1 82693:1 117653:1 119731:1 120721:1 143279:1 147036:1 #
0.049993067436813754 2:2 103:2 104:1 105:1 106:2 107:2 108:2 109:2 110:2 111:1 112:1 113:1 47515:1 117653:1 #
0.049993067436813754 2:1 103:1 104:1 105:1 106:2 107:2 108:2 109:2 110:2 111:1 112:1 113:1 76338:1 86734:1 142190:1 #
0.049993067436813754 2:1 103:1 104:1 105:1 106:2 107:2 108:2 109:2 110:2 111:1 112:1 113:1 36389:1 76338:1 106413:1 142649:1 #
0.049993067436813754 2:2 103:2 104:1 105:1 106:2 107:2 108:2 109:2 110:2 111:1 112:1 113:1 70452:1 #
-0.049993067436813754 2:1 103:1 104:2 105:2 106:2 107:2 108:2 109:2 110:2 111:1 112:1 113:2 86668:1 #
-0.049993067436813754 2:2 103:1 104:2 105:2 106:2 107:2 108:2 109:2 110:2 111:1 112:1 113:2 109111:1 #
-0.049993067436813754 2:2 103:2 104:2 105:2 106:2 107:2 108:2 109:2 110:2 111:1 112:1 113:2 109111:1 #
-0.049993067436813754 2:2 103:1 104:1 105:1 106:2 107:2 108:2 109:2 110:2 111:1 112:1 113:1 141727:1 142649:1 #
-0.049993067436813754 2:2 103:1 104:2 105:2 106:2 107:2 108:2 109:2 110:2 111:1 112:1 113:2 63236:1 #
0.049993067436813754 2:2 103:1 104:1 105:1 106:1 107:1 108:1 109:1 110:1 111:1 112:1 113:2 993:1 2920:1 6368:1 9513:1 14768:1 28034:1 33356:1 33609:1 35714:1 47515:1 54045:1 59168:1 63473:1 82693:1 102856:1 114083:1 117653:1 126551:1 139322:1 147036:1 #
0.049993067436813754 2:2 103:1 104:1 105:1 106:1 107:1 108:1 109:1 110:1 111:1 112:1 113:1 10902:1 47515:1 76338:1 76977:1 117653:1 117847:1 119731:1 120721:1 #
-0.012267172004269557 2:1 103:1 104:1 105:1 106:1 107:1 108:1 109:1 110:1 111:1 112:1 113:2 993:1 2920:1 6368:1 9513:1 14768:1 28034:1 33356:1 33609:1 35714:1 35962:1 47515:1 54045:1 59168:1 82693:1 114083:1 117653:1 126551:1 139322:1 147036:1 #
-0.049993067436813754 2:2 103:2 104:1 105:1 106:1 107:2 108:2 109:2 110:1 111:2 112:1 113:2 36072:1 74594:1 102856:1 #
0.049993067436813754 2:1 103:1 104:1 105:1 106:1 107:1 108:1 109:1 110:1 111:1 112:1 113:2 123944:1 142649:1 #
-0.049993067436813754 2:2 103:2 104:1 105:1 106:1 107:1 108:1 109:1 110:1 111:1 112:1 113:2 3691:1 35296:1 86734:1 111605:1 111815:1 129424:1 #
-0.049993067436813754 2:2 103:2 104:1 105:1 106:1 107:2 108:2 109:2 110:1 111:2 112:1 113:2 102856:1 141350:1 141547:1 #
-0.049993067436813754 2:1 103:1 104:1 105:1 106:1 107:1 108:1 109:2 110:1 111:2 112:1 113:2 17688:1 102856:1 139984:1 #
-0.049993067436813754 2:1 103:1 104:2 105:2 106:1 107:1 108:1 109:1 110:1 111:1 112:1 113:2 86668:1 112633:1 #
-0.0030110265613575021 2:2 103:1 104:1 105:1 106:1 107:1 108:1 109:1 110:1 111:1 112:1 113:2 59381:1 107931:1 116302:1 #
-0.049993067436813754 2:2 103:2 104:1 105:1 106:1 107:1 108:1 109:1 110:1 111:1 112:1 113:2 58127:1 58448:1 92082:1 #
0.049993067436813754 2:2 103:2 104:2 105:1 106:1 107:1 108:1 109:1 110:1 111:1 112:1 113:2 50244:1 101308:1 #
0.049993067436813754 2:2 103:2 104:2 105:1 106:1 107:1 108:1 109:1 110:1 111:1 112:1 113:2 65315:1 112633:1 125511:1 #
-0.049993067436813754 2:2 103:2 104:1 105:1 106:1 107:1 108:1 109:1 110:1 111:2 112:1 113:2 5995:1 86854:1 102856:1 #
-0.011925680191583203 2:2 103:2 104:2 105:1 106:1 107:1 108:1 109:1 110:1 111:1 112:1 113:1 48638:1 76338:1 87676:1 96246:1 109111:1 #
0.049993067436813754 2:2 103:2 104:2 105:2 106:1 107:1 108:1 109:1 110:1 111:1 112:1 113:2 86668:1 112633:1 #
0.049993067436813754 2:2 103:2 104:2 105:1 106:1 107:1 108:1 109:1 110:1 111:1 112:1 113:1 1387:1 23286:1 30624:1 36072:1 40254:1 47815:1 49807:1 53198:1 75334:1 76338:1 82693:1 95884:1 99285:1 104497:1 133536:1 137437:1 147036:1 #
0.049993067436813754 2:2 103:2 104:1 105:1 106:1 107:1 108:1 109:1 110:1 111:1 112:1 113:1 204:1 82693:1 91253:1 104133:1 104286:1 137113:1 145893:1 147036:1 #
0.042421903909448229 2:2 103:2 104:2 105:1 106:1 107:1 108:1 109:1 110:1 111:1 112:1 113:2 59209:1 64854:1 69695:1 82693:1 101308:1 110716:1 135015:1 147036:1 #
0.049993067436813754 2:2 103:2 104:2 105:1 106:1 107:1 108:1 109:1 110:1 111:1 112:1 113:2 13768:1 35962:1 58448:1 78308:1 82693:1 98557:1 133536:1 147036:1 #
0.049993067436813754 2:2 103:2 104:2 105:1 106:1 107:1 108:1 109:1 110:1 111:1 112:1 113:2 26408:1 35962:1 71346:1 82693:1 84658:1 133536:1 147036:1 #
-0.049993067436813754 2:2 103:2 104:1 105:1 106:1 107:1 108:1 109:1 110:1 111:1 112:1 113:2 1387:1 23286:1 30624:1 36072:1 40254:1 47815:1 49807:1 53198:1 75334:1 76338:1 82693:1 95884:1 99285:1 102856:1 104497:1 127461:1 137437:1 147036:1 #
0.049993067436813754 2:1 103:1 104:1 105:1 106:1 107:2 108:2 109:2 110:1 111:1 112:1 113:2 70452:1 77816:1 112633:1 #
-0.023681034658988742 2:2 103:2 104:2 105:1 106:1 107:1 108:1 109:1 110:1 111:1 112:1 113:1 76338:1 84845:1 95886:1 109111:1 #
-0.049993067436813754 2:2 103:2 104:1 105:1 106:1 107:1 108:1 109:1 110:1 111:1 112:1 113:2 26408:1 35962:1 71346:1 81882:1 82693:1 84658:1 147036:1 #
-0.049993067436813754 2:1 103:1 104:2 105:2 106:1 107:1 108:1 109:1 110:1 111:1 112:1 113:2 63236:1 136766:1 #
-0.039400390888967296 2:2 103:2 104:2 105:1 106:1 107:1 108:1 109:1 110:1 111:1 112:1 113:1 68821:1 101308:1 #
-0.049993067436813754 2:2 103:2 104:2 105:1 106:1 107:1 108:1 109:1 110:1 111:1 112:1 113:2 1387:1 75334:1 77816:1 #
0.049993067436813754 2:1 103:1 104:1 105:1 106:1 107:1 108:1 109:1 110:1 111:2 112:1 113:2 65264:1 94729:1 102856:1 141727:1 142649:1 #
0.049993067436813754 2:1 103:1 104:1 105:1 106:1 107:1 108:1 109:1 110:1 111:2 112:1 113:1 70452:1 102856:1 136930:1 #
0.049993067436813754 2:1 103:1 104:1 105:1 106:1 107:1 108:1 109:1 110:1 111:2 112:1 113:2 36072:1 93582:1 102856:1 #
0.049993067436813754 2:1 103:1 104:1 105:2 106:1 107:1 108:1 109:1 110:1 111:1 112:1 113:2 65315:1 102856:1 112633:1 #
0.049993067436813754 2:1 103:1 104:1 105:1 106:1 107:1 108:1 109:1 110:1 111:2 112:1 113:2 211:1 10902:1 36418:1 102856:1 127461:1 139528:1 #
0.049993067436813754 2:1 103:1 104:1 105:1 106:2 107:2 108:2 109:2 110:2 111:1 112:1 113:2 70452:1 #
-0.049993067436813754 2:2 103:2 104:1 105:1 106:1 107:1 108:1 109:1 110:1 111:1 112:1 113:2 58448:1 131243:1 #
0.049993067436813754 2:1 103:1 104:1 105:1 106:1 107:1 108:2 109:1 110:1 111:1 112:1 113:2 2571:1 19030:1 19724:1 46582:1 51003:1 82693:1 99452:1 107186:1 113157:1 130794:1 133536:1 144488:1 147036:1 #
0.049993067436813754 2:1 103:1 104:1 105:1 106:1 107:1 108:1 109:1 110:1 111:1 112:1 113:2 212:1 2571:1 19030:1 19724:1 46582:1 51003:1 55171:1 82693:1 99452:1 102856:1 107186:1 113157:1 130794:1 133536:1 144488:1 147036:1 147037:1 147038:1 #
0.049993067436813754 2:2 103:2 104:1 105:1 106:1 107:1 108:1 109:1 110:1 111:1 112:1 113:1 2571:1 46582:1 51003:1 99452:1 144488:1 147036:1 #
0.049993067436813754 2:2 103:2 104:1 105:1 106:1 107:1 108:1 109:1 110:1 111:1 112:1 113:1 51003:1 107186:1 113157:1 133536:1 144488:1 #
0.049993067436813754 2:2 103:2 104:1 105:1 106:1 107:1 108:1 109:1 110:1 111:1 112:1 113:2 14330:1 14856:1 33384:1 35296:1 53809:1 64368:1 82693:1 100352:1 104286:1 120721:1 147040:1 #
-0.049993067436813754 2:1 103:1 104:1 105:1 106:1 107:1 108:1 109:1 110:1 111:2 112:1 113:2 102856:1 112633:1 117441:1 133536:1 #
-0.049993067436813754 2:1 103:1 104:1 105:1 106:1 107:1 108:1 109:1 110:1 111:2 112:1 113:2 22965:1 102856:1 112633:1 133536:1 #
-0.049993067436813754 2:1 103:1 104:1 105:1 106:1 107:1 108:1 109:1 110:1 111:2 112:1 113:2 64368:1 86734:1 102856:1 112633:1 #
-0.049993067436813754 2:2 103:1 104:1 105:1 106:1 107:1 108:1 109:1 110:1 111:2 112:1 113:2 64368:1 79303:1 101308:1 102856:1 #
-0.049993067436813754 2:1 103:1 104:2 105:1 106:1 107:1 108:1 109:1 110:1 111:1 112:1 113:2 70452:1 #
0.049993067436813754 2:1 103:1 104:1 105:1 106:1 107:1 108:1 109:1 110:1 111:1 112:1 113:1 1117:1 19724:1 52523:1 54546:1 63537:1 76338:1 81882:1 100352:1 104306:1 137005:1 145467:1 #
0.049993067436813754 2:2 103:2 104:1 105:1 106:1 107:1 108:1 109:1 110:1 111:1 112:1 113:1 6869:1 12372:1 41766:1 58448:1 75334:1 76338:1 121934:1 141727:1 #
0.049993067436813754 2:1 103:1 104:1 105:1 106:1 107:1 108:1 109:1 110:1 111:1 112:1 113:1 1387:1 23286:1 47815:1 49807:1 53198:1 56712:1 68977:1 71964:1 75334:1 76338:1 104497:1 145467:1 #
0.049993067436813754 2:2 103:1 104:1 105:1 106:1 107:1 108:1 109:1 110:1 111:1 112:1 113:1 16486:1 36418:1 103378:1 105401:1 #
0.049993067436813754 2:2 103:1 104:1 105:1 106:1 107:1 108:1 109:1 110:1 111:1 112:1 113:1 42309:1 55971:1 68821:1 100352:1 103378:1 128170:1 143581:1 #
0.049993067436813754 2:2 103:2 104:2 105:1 106:1 107:1 108:1 109:1 110:1 111:1 112:1 113:2 75334:1 86668:1 141727:1 145602:1 #
-0.049993067436813754 2:2 103:1 104:1 105:1 106:1 107:1 108:1 109:1 110:1 111:2 112:1 113:2 32578:1 38427:1 102856:1 132730:1 #
0.049993067436813754 2:2 103:2 104:2 105:2 106:1 107:1 108:1 109:1 110:1 111:1 112:1 113:2 51044:1 70163:1 #
0.049993067436813754 2:2 103:2 104:2 105:2 106:1 107:1 108:1 109:1 110:1 111:1 112:1 113:2 133536:1 144541:1 #
-0.049993067436813754 2:2 103:2 104:1 105:2 106:1 107:1 108:1 109:1 110:1 111:1 112:1 113:2 14671:1 58448:1 #
0.049993067436813754 2:1 103:1 104:1 105:1 106:1 107:1 108:1 109:1 110:1 111:2 112:1 113:2 14361:1 86734:1 93381:1 102856:1 146530:1 #
0.049993067436813754 2:1 103:1 104:1 105:1 106:1 107:1 108:1 109:1 110:1 111:2 112:1 113:2 14361:1 24933:1 38918:1 86734:1 102856:1 108315:1 #
0.049993067436813754 2:1 103:1 104:1 105:1 106:1 107:1 108:1 109:1 110:1 111:2 112:1 113:2 12941:1 14361:1 42176:1 86734:1 102856:1 #
0.049993067436813754 2:1 103:1 104:1 105:1 106:1 107:1 108:1 109:2 110:1 111:2 112:1 113:2 22965:1 102856:1 117441:1 #
-0.049993067436813754 2:1 103:1 104:1 105:1 106:1 107:1 108:1 109:1 110:1 111:1 112:1 113:2 10902:1 14361:1 21968:1 23286:1 59674:1 86734:1 119017:1 137770:1 141727:1 146745:1 #
-0.030477385169214166 2:2 103:2 104:2 105:1 106:1 107:1 108:1 109:1 110:1 111:1 112:1 113:1 993:1 6834:1 35296:1 71060:1 112633:1 #
-0.049993067436813754 2:2 103:2 104:1 105:1 106:1 107:1 108:1 109:1 110:1 111:1 112:1 113:2 78281:1 93582:1 #
-0.049993067436813754 2:2 103:2 104:1 105:1 106:1 107:1 108:1 109:1 110:1 111:1 112:1 113:2 14886:1 62167:1 #
-0.049993067436813754 2:1 103:1 104:1 105:1 106:1 107:1 108:1 109:1 110:1 111:1 112:1 113:2 12941:1 14361:1 42176:1 85697:1 86734:1 116694:1 #
0.049993067436813754 2:1 103:1 104:1 105:1 106:1 107:1 108:1 109:1 110:1 111:1 112:1 113:1 1387:1 20386:1 47815:1 49807:1 56712:1 68977:1 75334:1 76338:1 104497:1 145467:1 #
0.049993067436813754 2:2 103:2 104:1 105:1 106:1 107:1 108:1 109:1 110:1 111:1 112:1 113:2 1387:1 30624:1 40254:1 47815:1 49807:1 75334:1 104497:1 #
-0.049993067436813754 2:1 103:1 104:2 105:1 106:1 107:1 108:1 109:1 110:1 111:1 112:1 113:2 43018:1 #
0.049993067436813754 2:2 103:2 104:1 105:1 106:1 107:1 108:1 109:1 110:1 111:1 112:1 113:1 1387:1 36072:1 47815:1 75334:1 95884:1 99285:1 104497:1 137437:1 #
0.049993067436813754 2:2 103:2 104:2 105:1 106:1 107:1 108:1 109:1 110:1 111:1 112:1 113:2 88084:1 112633:1 #
-0.049993067436813754 2:1 103:1 104:1 105:1 106:1 107:1 108:1 109:1 110:1 111:1 112:1 113:2 1387:1 23286:1 30624:1 36072:1 40254:1 47815:1 49807:1 53198:1 75334:1 76338:1 82693:1 82737:1 95884:1 99285:1 104497:1 137437:1 147036:1 #
-0.049993067436813754 2:1 103:1 104:1 105:1 106:1 107:1 108:1 109:1 110:1 111:1 112:1 113:2 1387:1 23286:1 30624:1 36072:1 40254:1 47815:1 49807:1 53198:1 56621:1 75334:1 76338:1 82693:1 95884:1 99285:1 104497:1 137437:1 147036:1 #
-0.049993067436813754 2:1 103:1 104:1 105:1 106:1 107:1 108:1 109:1 110:1 111:1 112:1 113:2 76338:1 86440:1 110552:1 125640:1 127089:1 #
-0.049993067436813754 2:2 103:1 104:1 105:1 106:1 107:1 108:1 109:1 110:1 111:1 112:1 113:2 1387:1 23286:1 30624:1 36072:1 40254:1 47815:1 49807:1 53198:1 75334:1 76338:1 82693:1 95884:1 99285:1 102856:1 104497:1 137437:1 147036:1 #
0.049993067436813754 2:1 103:1 104:1 105:1 106:1 107:1 108:1 109:1 110:1 111:2 112:1 113:2 12941:1 14361:1 42176:1 86734:1 102856:1 #
0.049993067436813754 2:2 103:1 104:1 105:1 106:1 107:1 108:1 109:1 110:1 111:2 112:1 113:2 14361:1 23286:1 59674:1 76338:1 82693:1 86734:1 102856:1 115179:1 115603:1 130738:1 #
0.049993067436813754 2:1 103:1 104:1 105:2 106:1 107:1 108:1 109:1 110:1 111:1 112:1 113:2 14361:1 42176:1 86734:1 102856:1 109111:1 #
0.049993067436813754 2:1 103:1 104:1 105:1 106:1 107:1 108:1 109:1 110:1 111:1 112:1 113:2 3754:1 14361:1 23286:1 35962:1 57844:1 59674:1 65248:1 76338:1 78308:1 82693:1 86734:1 112782:1 114797:1 121816:1 #
0.049993067436813754 2:1 103:1 104:1 105:2 106:1 107:1 108:1 109:1 110:1 111:1 112:1 113:2 14361:1 38918:1 86668:1 86734:1 102856:1 108315:1 #
0.049993067436813754 2:2 103:2 104:1 105:1 106:1 107:1 108:1 109:1 110:1 111:1 112:1 113:2 12010:1 86089:1 102856:1 #
-0.049993067436813754 2:1 103:1 104:1 105:1 106:1 107:1 108:1 109:2 110:1 111:2 112:1 113:2 50770:1 102856:1 136930:1 #
-0.049993067436813754 2:1 103:1 104:1 105:1 106:1 107:1 108:1 109:1 110:1 111:1 112:1 113:2 3754:1 14361:1 23286:1 35962:1 57844:1 59674:1 65248:1 76338:1 78308:1 82693:1 86734:1 102332:1 112782:1 114797:1 119255:1 121816:1 145819:1 #
-0.0084183830328663639 2:1 103:1 104:1 105:1 106:1 107:1 108:1 109:1 110:1 111:1 112:1 113:2 10241:1 37780:1 38427:1 43464:1 147043:1 #
0.019622394705881896 2:2 103:1 104:1 105:1 106:1 107:2 108:2 109:2 110:1 111:1 112:1 113:2 1387:1 30624:1 40254:1 47815:1 49807:1 75334:1 104497:1 #
0.049993067436813754 2:2 103:1 104:1 105:2 106:1 107:1 108:1 109:1 110:1 111:1 112:1 113:2 30624:1 40254:1 49807:1 112633:1 #
0.049993067436813754 2:2 103:2 104:2 105:1 106:1 107:1 108:1 109:1 110:1 111:1 112:1 113:2 30624:1 40254:1 49807:1 112633:1 #
0.049993067436813754 2:2 103:1 104:1 105:2 106:1 107:1 108:1 109:1 110:1 111:1 112:1 113:2 15479:1 45462:1 47815:1 56918:1 98468:1 104497:1 112633:1 130098:1 #
-0.049993067436813754 2:2 103:2 104:1 105:2 106:1 107:1 108:1 109:1 110:1 111:1 112:1 113:2 109111:1 124251:1 #
-0.049993067436813754 2:2 103:1 104:1 105:2 106:1 107:1 108:1 109:1 110:1 111:1 112:1 113:2 15753:1 26768:1 40919:1 102856:1 109111:1 121716:1 147037:1 147038:1 #
-0.049993067436813754 2:2 103:1 104:1 105:2 106:1 107:1 108:1 109:1 110:1 111:1 112:1 113:2 109111:1 124251:1 #
0.049993067436813754 2:1 103:1 104:1 105:1 106:1 107:1 108:1 109:2 110:1 111:1 112:1 113:2 3754:1 14361:1 23286:1 35962:1 57844:1 59674:1 65248:1 76338:1 78308:1 82693:1 86734:1 112782:1 114797:1 121816:1 #
0.049993067436813754 2:2 103:1 104:1 105:1 106:1 107:1 108:1 109:1 110:1 111:1 112:1 113:2 3754:1 14361:1 23286:1 35962:1 57844:1 59674:1 65248:1 76338:1 82693:1 86734:1 112782:1 114797:1 121816:1 #
0.049993067436813754 2:2 103:2 104:1 105:1 106:1 107:1 108:1 109:2 110:1 111:1 112:1 113:2 3754:1 14361:1 35962:1 57844:1 65248:1 76338:1 82693:1 112782:1 114797:1 121816:1 128169:1 #
0.049993067436813754 2:2 103:1 104:1 105:1 106:1 107:1 108:1 109:1 110:1 111:1 112:1 113:2 14361:1 23286:1 35296:1 35962:1 58499:1 59674:1 76338:1 82693:1 86734:1 104497:1 111605:1 114965:1 142190:1 #
-0.049993067436813754 2:2 103:1 104:1 105:2 106:1 107:1 108:1 109:1 110:1 111:1 112:1 113:2 112633:1 126334:1 #
-0.049993067436813754 2:2 103:1 104:1 105:1 106:1 107:1 108:1 109:1 110:1 111:1 112:1 113:2 14361:1 23286:1 59674:1 76338:1 82693:1 86734:1 115179:1 115603:1 123944:1 130738:1 #
-0.049993067436813754 2:2 103:2 104:1 105:1 106:1 107:1 108:1 109:1 110:1 111:1 112:1 113:2 14361:1 23286:1 59674:1 76338:1 82693:1 86734:1 115179:1 115603:1 123944:1 130738:1 #
0.049993067436813754 2:2 103:2 104:2 105:1 106:1 107:1 108:1 109:1 110:1 111:1 112:1 113:2 112633:1 142649:1 #
-0.049993067436813754 2:2 103:1 104:1 105:1 106:1 107:1 108:1 109:1 110:1 111:1 112:1 113:2 3691:1 14361:1 23286:1 35962:1 58499:1 59674:1 76338:1 82693:1 86734:1 114965:1 142190:1 #
0.049993067436813754 2:2 103:2 104:1 105:1 106:1 107:1 108:1 109:1 110:1 111:1 112:1 113:1 23286:1 36072:1 53198:1 71964:1 95884:1 99285:1 137437:1 #
0.049993067436813754 2:1 103:1 104:1 105:1 106:1 107:1 108:1 109:1 110:1 111:1 112:1 113:1 74830:1 76338:1 102856:1 108188:1 117847:1 128170:1 145467:1 147036:1 #
0.049993067436813754 2:1 103:1 104:1 105:1 106:1 107:1 108:1 109:1 110:1 111:1 112:1 113:1 11838:1 75788:1 82693:1 88206:1 89040:1 103873:1 119017:1 143192:1 145052:1 147036:1 147038:1 #
0.049993067436813754 2:2 103:2 104:1 105:1 106:1 107:1 108:1 109:1 110:1 111:1 112:1 113:1 1387:1 33580:1 75334:1 76338:1 134776:1 143778:1 #
-0.049993067436813754 2:1 103:1 104:1 105:1 106:1 107:1 108:1 109:1 110:1 111:1 112:1 113:2 33626:1 112633:1 133536:1 #
-0.049993067436813754 2:2 103:2 104:2 105:1 106:1 107:1 108:1 109:1 110:1 111:1 112:1 113:1 11838:1 101308:1 112633:1 126429:1 #
0.049993067436813754 2:2 103:2 104:2 105:2 106:1 107:1 108:1 109:1 110:1 111:1 112:1 113:2 109111:1 #
-0.049993067436813754 2:2 103:2 104:1 105:1 106:1 107:1 108:1 109:1 110:1 111:1 112:1 113:2 25847:1 29645:1 31900:1 43913:1 82693:1 142649:1 #
0.049993067436813754 2:2 103:2 104:2 105:1 106:1 107:1 108:1 109:1 110:1 111:1 112:1 113:2 41980:1 133536:1 #
0.049993067436813754 2:2 103:1 104:1 105:2 106:1 107:1 108:1 109:1 110:1 111:1 112:1 113:2 14361:1 23286:1 35962:1 58499:1 59674:1 76338:1 82693:1 86734:1 109111:1 114965:1 142190:1 #
0.049993067436813754 2:2 103:2 104:1 105:1 106:1 107:1 108:1 109:1 110:1 111:1 112:1 113:2 14361:1 23286:1 35962:1 58499:1 59674:1 69046:1 76338:1 82693:1 86734:1 114965:1 142190:1 #
0.049993067436813754 2:2 103:2 104:1 105:1 106:1 107:1 108:1 109:1 110:1 111:1 112:1 113:2 14361:1 16091:1 18009:1 23286:1 33103:1 35962:1 58499:1 59674:1 76338:1 82693:1 86734:1 114965:1 142190:1 #
-0.049993067436813754 2:2 103:2 104:1 105:1 106:1 107:1 108:2 109:1 110:1 111:1 112:1 113:2 10902:1 119731:1 #
-0.049993067436813754 2:2 103:1 104:1 105:1 106:1 107:1 108:1 109:1 110:1 111:2 112:1 113:2 39386:1 78281:1 102856:1 145813:1 #
-0.049993067436813754 2:1 103:1 104:2 105:1 106:1 107:1 108:1 109:1 110:1 111:1 112:1 113:2 99873:1 101308:1 #
-0.049993067436813754 2:2 103:2 104:1 105:1 106:1 107:1 108:1 109:1 110:1 111:1 112:1 113:2 11838:1 35962:1 47152:1 78751:1 105401:1 122785:1 #
-0.049993067436813754 2:2 103:2 104:1 105:1 106:1 107:1 108:1 109:1 110:1 111:1 112:1 113:2 58448:1 82693:1 89040:1 103873:1 143192:1 147037:1 147038:1 #
0.049993067436813754 2:2 103:1 104:2 105:1 106:1 107:1 108:1 109:1 110:1 111:1 112:1 113:2 14361:1 23286:1 59674:1 76338:1 82693:1 86734:1 109111:1 115179:1 115603:1 130738:1 #
0.049993067436813754 2:1 103:1 104:1 105:1 106:1 107:1 108:1 109:1 110:1 111:1 112:1 113:2 15753:1 26768:1 40919:1 102856:1 121716:1 147037:1 147038:1 #
0.049993067436813754 2:1 103:1 104:1 105:1 106:1 107:1 108:1 109:1 110:1 111:1 112:1 113:1 6869:1 23889:1 28034:1 38014:1 56769:1 60521:1 76338:1 81358:1 100294:1 102856:1 113327:1 128170:1 130284:1 133486:1 140764:1 #
0.049993067436813754 2:2 103:1 104:1 105:1 106:1 107:1 108:1 109:1 110:1 111:2 112:1 113:1 47515:1 78586:1 102856:1 117653:1 #
0.049993067436813754 2:1 103:1 104:1 105:1 106:1 107:1 108:1 109:1 110:1 111:1 112:1 113:2 13227:1 14856:1 32590:1 58304:1 82693:1 96858:1 102856:1 123944:1 142649:1 #
0.049993067436813754 2:1 103:1 104:1 105:2 106:1 107:1 108:1 109:1 110:1 111:1 112:1 113:2 14886:1 112633:1 #
0.049993067436813754 2:2 103:1 104:1 105:1 106:1 107:1 108:1 109:1 110:1 111:1 112:1 113:2 3691:1 14110:1 39671:1 141661:1 #
0.049993067436813754 2:1 103:1 104:1 105:1 106:1 107:1 108:1 109:2 110:1 111:2 112:1 113:2 102856:1 120560:1 133486:1 #
0.049993067436813754 2:1 103:1 104:1 105:1 106:1 107:1 108:1 109:1 110:1 111:1 112:1 113:2 27118:1 28222:1 63210:1 81699:1 #
-0.049993067436813754 2:2 103:2 104:1 105:1 106:1 107:1 108:1 109:1 110:1 111:1 112:1 113:2 3218:1 41200:1 98439:1 #
0.049993067436813754 2:2 103:2 104:1 105:2 106:1 107:1 108:1 109:1 110:1 111:1 112:1 113:2 4072:1 48438:1 107186:1 112633:1 113157:1 128938:1 #
0.049993067436813754 2:2 103:2 104:1 105:1 106:1 107:1 108:1 109:1 110:1 111:1 112:1 113:2 3173:1 10902:1 14886:1 37610:1 41422:1 42585:1 47815:1 82693:1 104497:1 109802:1 #
0.049993067436813754 2:2 103:2 104:1 105:1 106:1 107:1 108:1 109:1 110:1 111:1 112:1 113:2 42473:1 47815:1 68216:1 83524:1 104497:1 #
-0.049993067436813754 2:2 103:2 104:1 105:1 106:1 107:1 108:1 109:1 110:1 111:1 112:1 113:2 513:1 19691:1 130098:1 #
-0.049993067436813754 2:1 103:1 104:1 105:1 106:1 107:1 108:1 109:1 110:1 111:1 112:1 113:2 10902:1 14886:1 37610:1 47815:1 82693:1 104497:1 109802:1 132670:1 #
-0.035630330171099234 2:1 103:1 104:1 105:1 106:1 107:1 108:1 109:1 110:1 111:1 112:1 113:2 10902:1 14886:1 15753:1 37610:1 47815:1 82693:1 104497:1 109802:1 121716:1 #
-0.049993067436813754 2:1 103:1 104:1 105:1 106:1 107:1 108:1 109:1 110:1 111:1 112:1 113:2 10902:1 14886:1 21578:1 37610:1 47815:1 70375:1 82693:1 104497:1 109802:1 110659:1 #
0.049993067436813754 2:1 103:1 104:1 105:1 106:1 107:1 108:1 109:1 110:1 111:1 112:1 113:1 9513:1 12372:1 23265:1 23889:1 28034:1 38014:1 60521:1 76338:1 81358:1 100294:1 102856:1 113327:1 128170:1 133486:1 140764:1 #
0.049993067436813754 2:1 103:1 104:1 105:1 106:1 107:1 108:1 109:1 110:1 111:1 112:1 113:1 9513:1 11838:1 15854:1 28034:1 43076:1 60257:1 69167:1 71346:1 76338:1 116753:1 128170:1 140463:1 144437:1 #
0.049993067436813754 2:1 103:1 104:1 105:1 106:1 107:1 108:1 109:1 110:1 111:1 112:1 113:1 9513:1 15854:1 28034:1 43076:1 71346:1 76338:1 128170:1 136089:1 #
0.049993067436813754 2:2 103:2 104:1 105:1 106:1 107:1 108:1 109:1 110:1 111:1 112:1 113:2 8664:1 9604:1 60521:1 69847:1 74830:1 76338:1 108188:1 108664:1 113327:1 128170:1 #
0.049993067436813754 2:1 103:1 104:1 105:1 106:1 107:1 108:1 109:1 110:1 111:1 112:1 113:1 4321:1 11838:1 22952:1 28034:1 31642:1 38427:1 76338:1 86734:1 90820:1 91846:1 102856:1 117847:1 145467:1 #
-0.049993067436813754 2:2 103:2 104:1 105:1 106:1 107:1 108:1 109:1 110:1 111:1 112:1 113:2 32947:1 59325:1 120770:1 142649:1 #
-0.049993067436813754 2:2 103:2 104:1 105:2 106:1 107:1 108:1 109:1 110:1 111:2 112:1 113:2 24119:1 101308:1 128504:1 #
-0.049993067436813754 2:2 103:2 104:1 105:1 106:1 107:1 108:1 109:1 110:1 111:2 112:1 113:2 24702:1 90035:1 102856:1 104807:1 #
-0.049993067436813754 2:2 103:1 104:2 105:1 106:1 107:1 108:1 109:1 110:1 111:1 112:1 113:1 4321:1 76338:1 86734:1 91846:1 102856:1 109111:1 117847:1 145467:1 #
-0.049993067436813754 2:2 103:2 104:2 105:1 106:1 107:1 108:1 109:1 110:1 111:1 112:1 113:1 12010:1 14671:1 141661:1 #
0.049993067436813754 2:1 103:1 104:1 105:1 106:1 107:1 108:1 109:1 110:1 111:1 112:1 113:2 10902:1 14886:1 37610:1 41422:1 42585:1 47815:1 82693:1 104497:1 109802:1 #
0.049993067436813754 2:2 103:1 104:1 105:1 106:1 107:1 108:1 109:1 110:1 111:1 112:1 113:2 10902:1 14886:1 37610:1 41422:1 42585:1 47815:1 82693:1 104497:1 109802:1 #
0.049993067436813754 2:2 103:2 104:1 105:1 106:1 107:1 108:1 109:1 110:1 111:1 112:1 113:2 3173:1 10902:1 14886:1 37610:1 41422:1 42585:1 47815:1 82693:1 104497:1 109802:1 #
0.049993067436813754 2:2 103:1 104:1 105:1 106:1 107:1 108:1 109:1 110:1 111:1 112:1 113:2 3173:1 14886:1 37610:1 41422:1 42585:1 47815:1 59674:1 60744:1 82693:1 104497:1 109802:1 #
-0.049993067436813754 2:1 103:1 104:2 105:1 106:1 107:1 108:1 109:1 110:1 111:1 112:1 113:2 43018:1 #
-0.049993067436813754 2:2 103:2 104:1 105:1 106:1 107:1 108:1 109:1 110:1 111:1 112:1 113:2 3173:1 41422:1 42585:1 111858:1 #
-0.036078683413295599 2:1 103:1 104:1 105:1 106:1 107:1 108:1 109:1 110:1 111:1 112:1 113:2 3173:1 11838:1 41422:1 42585:1 58760:1 90029:1 #
-0.049993067436813754 2:1 103:1 104:1 105:1 106:1 107:1 108:1 109:1 110:1 111:1 112:1 113:2 3173:1 26706:1 41422:1 42585:1 #
0.049993067436813754 2:2 103:2 104:2 105:2 106:1 107:1 108:1 109:1 110:1 111:1 112:1 113:2 14671:1 135698:1 #
0.049993067436813754 2:1 103:1 104:1 105:1 106:1 107:1 108:1 109:1 110:1 111:1 112:1 113:1 3754:1 28034:1 35962:1 76338:1 100665:1 121816:1 126581:1 134413:1 #
0.049993067436813754 2:2 103:2 104:1 105:1 106:1 107:1 108:1 109:1 110:1 111:1 112:1 113:1 58448:1 76338:1 89380:1 112544:1 118868:1 131726:1 137110:1 145467:1 #
0.049993067436813754 2:2 103:1 104:1 105:1 106:1 107:1 108:1 109:1 110:1 111:1 112:1 113:1 11838:1 28034:1 29248:1 63210:1 76338:1 100665:1 104133:1 109225:1 126581:1 134413:1 #
0.049993067436813754 2:2 103:1 104:1 105:1 106:1 107:1 108:1 109:1 110:1 111:1 112:1 113:1 5446:1 35960:1 64368:1 80671:1 91574:1 98154:1 100294:1 106413:1 140764:1 141697:1 145467:1 #
-0.049993067436813754 2:1 103:1 104:2 105:1 106:1 107:1 108:1 109:1 110:1 111:1 112:1 113:2 97201:1 #
-0.049993067436813754 2:2 103:1 104:1 105:1 106:1 107:1 108:1 109:1 110:1 111:1 112:1 113:2 3754:1 14361:1 23286:1 26364:1 35962:1 37305:1 46685:1 57844:1 59674:1 65248:1 76338:1 78308:1 82693:1 86734:1 100665:1 112782:1 114797:1 121816:1 121934:1 126581:1 134413:1 #
-0.049993067436813754 2:1 103:1 104:2 105:1 106:1 107:1 108:1 109:1 110:1 111:1 112:1 113:2 86668:1 101406:1 #
-0.049993067436813754 2:2 103:1 104:2 105:1 106:1 107:1 108:1 109:1 110:1 111:2 112:1 113:2 102856:1 109111:1 117441:1 #
0.049993067436813754 2:1 103:1 104:2 105:1 106:1 107:1 108:1 109:1 110:1 111:1 112:1 113:2 23889:1 38014:1 60521:1 81358:1 109111:1 113327:1 128170:1 146557:1 #
0.049993067436813754 2:1 103:1 104:1 105:1 106:1 107:1 108:1 109:1 110:1 111:2 112:1 113:2 33384:1 53809:1 100352:1 102856:1 104286:1 120721:1 130369:1 #
0.049993067436813754 2:1 103:1 104:1 105:1 106:1 107:1 108:1 109:1 110:1 111:1 112:1 113:1 36072:1 44448:1 70375:1 110659:1 113157:1 #
0.049993067436813754 2:1 103:1 104:2 105:1 106:1 107:1 108:1 109:1 110:1 111:1 112:1 113:2 26911:1 56847:1 57423:1 62536:1 75334:1 81358:1 109111:1 128170:1 141727:1 #
0.049993067436813754 2:1 103:1 104:1 105:2 106:1 107:1 108:1 109:1 110:1 111:1 112:1 113:2 21578:1 70375:1 82693:1 110659:1 133536:1 #
-0.049993067436813754 2:1 103:1 104:2 105:2 106:1 107:1 108:1 109:1 110:1 111:1 112:1 113:2 63236:1 133536:1 #
-0.049993067436813754 2:1 103:1 104:2 105:1 106:1 107:1 108:1 109:1 110:1 111:1 112:1 113:2 98919:1 #
-0.049993067436813754 2:2 103:2 104:1 105:1 106:1 107:1 108:1 109:1 110:1 111:1 112:1 113:2 15242:1 31441:1 46676:1 55142:1 75811:1 91404:1 #
0.049993067436813754 2:2 103:1 104:2 105:2 106:1 107:1 108:1 109:1 110:1 111:1 112:1 113:2 63236:1 109111:1 #
-0.049993067436813754 2:2 103:2 104:1 105:2 106:1 107:1 108:1 109:1 110:1 111:1 112:1 113:2 16174:1 63236:1 #
-0.049993067436813754 2:2 103:2 104:1 105:1 106:1 107:1 108:1 109:1 110:1 111:1 112:1 113:2 58448:1 99674:1 #
0.049993067436813754 2:2 103:1 104:2 105:1 106:1 107:1 108:1 109:1 110:1 111:1 112:1 113:2 14361:1 23286:1 35962:1 57844:1 59674:1 76338:1 86734:1 109111:1 112782:1 #
0.0091195988494830217 2:2 103:1 104:1 105:1 106:1 107:2 108:2 109:2 110:1 111:1 112:1 113:2 3754:1 14361:1 23286:1 35962:1 59674:1 76338:1 82693:1 86734:1 114797:1 121816:1 #
0.049993067436813754 2:2 103:1 104:1 105:1 106:1 107:1 108:1 109:1 110:1 111:1 112:1 113:2 14361:1 23286:1 35962:1 58499:1 59674:1 76338:1 82693:1 86734:1 114965:1 140785:1 142190:1 #
0.049993067436813754 2:2 103:1 104:1 105:2 106:1 107:1 108:1 109:1 110:1 111:1 112:1 113:2 14361:1 23286:1 35962:1 59674:1 72149:1 76338:1 86734:1 109111:1 #
-0.049993067436813754 2:2 103:2 104:1 105:2 106:1 107:1 108:1 109:1 110:1 111:1 112:1 113:2 14361:1 23286:1 35962:1 58499:1 59674:1 76338:1 82693:1 86734:1 114965:1 135698:1 142190:1 #
0.049993067436813754 2:2 103:2 104:2 105:1 106:1 107:1 108:1 109:1 110:1 111:1 112:1 113:2 63236:1 144388:1 #
-0.049993067436813754 2:2 103:2 104:1 105:1 106:1 107:1 108:1 109:1 110:1 111:1 112:1 113:2 14361:1 23286:1 35962:1 58499:1 59674:1 76338:1 82693:1 86734:1 114965:1 115792:1 135698:1 142190:1 #
-0.049993067436813754 2:2 103:2 104:1 105:1 106:1 107:1 108:1 109:1 110:1 111:1 112:1 113:2 7611:1 10902:1 14856:1 23238:1 26768:1 64798:1 107580:1 #
0.049993067436813754 2:1 103:1 104:1 105:2 106:1 107:1 108:1 109:1 110:1 111:1 112:1 113:2 36072:1 44448:1 44605:1 70375:1 110659:1 112633:1 113157:1 136930:1 #
0.049993067436813754 2:1 103:1 104:1 105:1 106:1 107:1 108:1 109:2 110:1 111:1 112:1 113:2 36072:1 44448:1 44605:1 68038:1 70375:1 110659:1 113157:1 136930:1 145467:1 #
0.049993067436813754 2:1 103:1 104:1 105:1 106:1 107:1 108:1 109:1 110:1 111:1 112:1 113:1 36072:1 41738:1 44448:1 65478:1 70375:1 113157:1 #
0.049993067436813754 2:1 103:1 104:1 105:1 106:1 107:1 108:1 109:1 110:1 111:1 112:1 113:1 36072:1 41738:1 44448:1 59927:1 65478:1 70375:1 113157:1 #
0.049993067436813754 2:1 103:1 104:1 105:2 106:1 107:1 108:1 109:1 110:1 111:1 112:1 113:2 36072:1 44448:1 70375:1 110659:1 112633:1 113157:1 136930:1 #
-0.049993067436813754 2:2 103:2 104:1 105:2 106:1 107:1 108:1 109:1 110:1 111:1 112:1 113:2 35962:1 109111:1 #
0.049993067436813754 2:2 103:2 104:1 105:1 106:1 107:1 108:1 109:1 110:1 111:1 112:1 113:2 14361:1 23286:1 35296:1 35962:1 58499:1 59674:1 76338:1 82693:1 86734:1 111605:1 111815:1 114965:1 129424:1 142190:1 #
-0.049993067436813754 2:2 103:1 104:1 105:1 106:1 107:1 108:1 109:1 110:1 111:1 112:1 113:2 3913:1 26648:1 35296:1 47815:1 80993:1 104497:1 130098:1 #
-0.039281918306467434 2:2 103:2 104:2 105:1 106:1 107:1 108:1 109:1 110:1 111:1 112:1 113:1 64623:1 95101:1 101308:1 #
-0.049993067436813754 2:2 103:2 104:1 105:2 106:1 107:1 108:1 109:1 110:1 111:1 112:1 113:2 47515:1 109111:1 117653:1 #
0.049993067436813754 2:2 103:2 104:1 105:1 106:1 107:1 108:1 109:1 110:1 111:2 112:1 113:2 36072:1 82693:1 99873:1 102679:1 102856:1 104509:1 #
0.049993067436813754 2:2 103:1 104:1 105:2 106:1 107:1 108:1 109:1 110:1 111:1 112:1 113:2 14361:1 23286:1 35962:1 58499:1 59674:1 76338:1 82693:1 86734:1 109111:1 114965:1 142190:1 #
0.049993067436813754 2:1 103:1 104:1 105:1 106:1 107:1 108:1 109:1 110:1 111:1 112:1 113:2 10902:1 39160:1 50032:1 59674:1 64569:1 75334:1 82693:1 102856:1 113323:1 113804:1 115550:1 119731:1 135117:1 136338:1 #
0.049993067436813754 2:2 103:2 104:2 105:2 106:1 107:1 108:1 109:1 110:1 111:1 112:1 113:2 112633:1 133536:1 #
-0.025973435475110267 2:1 103:1 104:1 105:1 106:1 107:1 108:1 109:1 110:1 111:1 112:1 113:2 10902:1 39160:1 59674:1 64569:1 75334:1 82693:1 113323:1 113804:1 115550:1 119731:1 135117:1 136338:1 #
-0.049993067436813754 2:2 103:2 104:1 105:2 106:1 107:1 108:1 109:1 110:1 111:1 112:1 113:2 29702:1 52038:1 109111:1 #
-0.049993067436813754 2:1 103:1 104:1 105:1 106:1 107:1 108:1 109:1 110:1 111:1 112:1 113:2 44126:1 66209:1 102856:1 125640:1 #
-0.049993067436813754 2:2 103:2 104:1 105:1 106:1 107:1 108:1 109:2 110:1 111:1 112:1 113:2 6852:1 10902:1 14886:1 67856:1 76338:1 81261:1 103498:1 #
0.049993067436813754 2:2 103:2 104:1 105:1 106:1 107:1 108:1 109:1 110:1 111:1 112:1 113:1 70452:1 102856:1 136930:1 #
0.049993067436813754 2:2 103:2 104:1 105:1 106:1 107:1 108:1 109:1 110:1 111:1 112:1 113:1 15757:1 23286:1 35505:1 52434:1 58448:1 59674:1 80803:1 86734:1 106728:1 120721:1 #
0.049993067436813754 2:2 103:2 104:1 105:1 106:1 107:1 108:1 109:1 110:1 111:1 112:1 113:1 3754:1 76338:1 86734:1 114797:1 121816:1 #
0.049993067436813754 2:2 103:2 104:1 105:1 106:1 107:1 108:1 109:1 110:1 111:2 112:1 113:1 10850:1 11838:1 37610:1 101490:1 102856:1 104133:1 #
0.049993067436813754 2:2 103:2 104:1 105:1 106:1 107:1 108:1 109:1 110:1 111:1 112:1 113:1 275:1 11838:1 36561:1 58448:1 86734:1 109007:1 117203:1 134413:1 #
-0.049993067436813754 2:2 103:1 104:2 105:1 106:1 107:1 108:1 109:1 110:1 111:2 112:1 113:2 77816:1 102856:1 113389:1 #
-0.049993067436813754 2:2 103:2 104:1 105:1 106:1 107:1 108:1 109:1 110:1 111:1 112:1 113:2 10902:1 86734:1 #
-0.020569213887193905 2:2 103:2 104:1 105:1 106:1 107:1 108:1 109:1 110:1 111:1 112:1 113:2 111613:1 113504:1 #
-0.049993067436813754 2:1 103:1 104:2 105:1 106:1 107:1 108:1 109:1 110:1 111:1 112:1 113:2 43018:1 133536:1 #
-0.049993067436813754 2:1 103:1 104:2 105:1 106:1 107:1 108:1 109:1 110:1 111:1 112:1 113:2 70452:1 #
0.049993067436813754 2:2 103:1 104:1 105:1 106:1 107:1 108:1 109:1 110:1 111:1 112:1 113:2 10902:1 14886:1 22294:1 67856:1 76338:1 82693:1 90029:1 102856:1 114633:1 120813:1 124275:1 130658:1 #
0.049993067436813754 2:1 103:1 104:1 105:1 106:1 107:1 108:1 109:1 110:1 111:1 112:1 113:2 10902:1 14886:1 #
-0.049993067436813754 2:1 103:1 104:2 105:1 106:1 107:1 108:1 109:1 110:1 111:1 112:1 113:2 101308:1 134122:1 #
-0.049993067436813754 2:2 103:1 104:1 105:1 106:1 107:1 108:1 109:1 110:1 111:1 112:1 113:2 3691:1 35296:1 86734:1 111605:1 111815:1 129424:1 #
-0.049993067436813754 2:2 103:1 104:1 105:1 106:1 107:1 108:1 109:1 110:1 111:1 112:1 113:2 17688:1 32209:1 59168:1 #
-0.049993067436813754 2:2 103:2 104:1 105:1 106:1 107:1 108:1 109:1 110:1 111:1 112:1 113:2 11838:1 37610:1 102856:1 104133:1 #
-0.049993067436813754 2:2 103:2 104:1 105:1 106:1 107:1 108:1 109:1 110:1 111:1 112:1 113:2 37610:1 58448:1 102856:1 110716:1 #
0.049993067436813754 2:1 103:1 104:1 105:1 106:1 107:1 108:1 109:1 110:1 111:1 112:1 113:2 6869:1 19030:1 75334:1 82693:1 103490:1 128060:1 147036:1 #
0.049993067436813754 2:1 103:1 104:1 105:1 106:1 107:1 108:1 109:1 110:1 111:1 112:1 113:1 10902:1 11838:1 14886:1 119731:1 #
0.049993067436813754 2:1 103:1 104:1 105:1 106:1 107:1 108:1 109:1 110:1 111:1 112:1 113:1 10902:1 92307:1 107827:1 119731:1 147032:1 #
0.049993067436813754 2:1 103:1 104:1 105:1 106:1 107:1 108:1 109:1 110:1 111:1 112:1 113:1 1387:1 75334:1 115499:1 146684:1 #
0.049993067436813754 2:1 103:1 104:1 105:1 106:1 107:1 108:1 109:1 110:1 111:1 112:1 113:1 31441:1 34403:1 55142:1 58523:1 59674:1 91404:1 94041:1 100141:1 100991:1 #
-0.049993067436813754 2:1 103:1 104:1 105:1 106:1 107:1 108:1 109:1 110:1 111:1 112:1 113:2 23131:1 31441:1 34403:1 39671:1 55142:1 58523:1 69847:1 94041:1 142509:1 #
0.049993067436813754 2:1 103:1 104:1 105:1 106:2 107:1 108:1 109:2 110:2 111:2 112:1 113:2 27711:1 102856:1 #
-0.049993067436813754 2:2 103:2 104:1 105:1 106:1 107:1 108:1 109:1 110:1 111:1 112:1 113:2 32947:1 59325:1 120770:1 142649:1 #
0.049993067436813754 2:2 103:2 104:1 105:1 106:1 107:1 108:1 109:1 110:1 111:1 112:1 113:2 6852:1 14886:1 66529:1 67856:1 76338:1 81261:1 102856:1 103498:1 131648:1 #
0.049993067436813754 2:2 103:2 104:1 105:1 106:1 107:1 108:1 109:1 110:1 111:1 112:1 113:2 220:1 9513:1 11838:1 102856:1 131582:1 132702:1 #
0.049993067436813754 2:2 103:2 104:1 105:1 106:1 107:1 108:1 109:1 110:1 111:1 112:1 113:2 856:1 869:1 11838:1 72698:1 113323:1 126510:1 #
0.049993067436813754 2:2 103:2 104:1 105:1 106:1 107:1 108:1 109:1 110:1 111:2 112:1 113:2 350:1 11838:1 100614:1 102856:1 106572:1 131582:1 #
0.049993067436813754 2:2 103:2 104:1 105:1 106:1 107:1 108:1 109:1 110:1 111:1 112:1 113:2 31575:1 59009:1 69380:1 82737:1 100352:1 102856:1 #
-0.049993067436813754 2:2 103:1 104:2 105:1 106:1 107:1 108:1 109:1 110:1 111:1 112:1 113:2 77359:1 77816:1 78455:1 #
-0.049993067436813754 2:2 103:2 104:1 105:1 106:1 107:1 108:1 109:1 110:1 111:1 112:1 113:2 121305:1 128858:1 #
-0.049993067436813754 2:2 103:1 104:2 105:1 106:1 107:1 108:1 109:1 110:1 111:1 112:1 113:2 80671:1 109111:1 #
0.049993067436813754 2:2 103:2 104:2 105:1 106:1 107:1 108:1 109:1 110:1 111:1 112:1 113:2 112633:1 113504:1 #
0.049993067436813754 2:2 103:2 104:2 105:1 106:1 107:1 108:1 109:1 110:1 111:1 112:1 113:2 58448:1 112633:1 #
0.049993067436813754 2:2 103:2 104:1 105:1 106:1 107:1 108:1 109:1 110:1 111:1 112:1 113:2 5848:1 16022:1 21646:1 28821:1 31441:1 55142:1 69859:1 76338:1 78528:1 82693:1 91864:1 96485:1 102856:1 147037:1 147038:1 #
0.049993067436813754 2:2 103:1 104:1 105:1 106:1 107:1 108:1 109:1 110:1 111:1 112:1 113:2 5848:1 16022:1 28821:1 31441:1 55142:1 69859:1 82693:1 91864:1 147037:1 147038:1 #
0.049993067436813754 2:2 103:2 104:1 105:1 106:1 107:1 108:1 109:1 110:1 111:1 112:1 113:2 4502:1 29237:1 31441:1 34403:1 39671:1 55142:1 58523:1 94041:1 122272:1 142509:1 #
0.049993067436813754 2:2 103:1 104:1 105:1 106:1 107:1 108:1 109:1 110:1 111:1 112:1 113:2 5848:1 16022:1 28821:1 31441:1 55142:1 69859:1 82693:1 91864:1 102856:1 147037:1 147038:1 #
0.049993067436813754 2:2 103:1 104:1 105:1 106:1 107:1 108:1 109:1 110:1 111:1 112:1 113:2 5848:1 16022:1 28821:1 31441:1 55142:1 69859:1 75811:1 82693:1 91864:1 102856:1 125007:1 147037:1 147038:1 #
-0.023387395061462174 2:1 103:1 104:1 105:1 106:1 107:1 108:1 109:1 110:1 111:2 112:1 113:2 38918:1 101308:1 104133:1 112851:1 #
0.049993067436813754 2:1 103:1 104:1 105:1 106:1 107:1 108:1 109:1 110:1 111:1 112:1 113:1 11838:1 14886:1 67856:1 76338:1 86734:1 104509:1 122557:1 #
-0.049993067436813754 2:2 103:2 104:1 105:1 106:1 107:1 108:1 109:1 110:1 111:1 112:1 113:2 18542:1 86126:1 #
-0.030373851496291238 2:2 103:2 104:1 105:1 106:1 107:1 108:1 109:1 110:1 111:1 112:1 113:2 114371:1 138107:1 #
-0.049993067436813754 2:2 103:2 104:1 105:1 106:1 107:1 108:1 109:1 110:1 111:1 112:1 113:2 61254:1 98154:1 #
0.049993067436813754 2:1 103:1 104:1 105:1 106:1 107:1 108:1 109:1 110:1 111:1 112:1 113:2 9604:1 74830:1 76338:1 102856:1 108188:1 108664:1 113327:1 128170:1 #
0.049993067436813754 2:1 103:1 104:1 105:1 106:1 107:1 108:1 109:1 110:1 111:1 112:1 113:1 58523:1 76338:1 103410:1 129160:1 147036:1 #
0.049993067436813754 2:1 103:1 104:1 105:1 106:1 107:1 108:1 109:1 110:1 111:1 112:1 113:1 15352:1 17109:1 35296:1 41049:1 57023:1 60863:1 76338:1 85467:1 89380:1 91381:1 147043:1 #
0.049993067436813754 2:1 103:1 104:1 105:1 106:1 107:1 108:1 109:1 110:1 111:1 112:1 113:1 10902:1 14886:1 98848:1 119831:1 #
0.049993067436813754 2:1 103:1 104:1 105:1 106:1 107:1 108:1 109:1 110:1 111:1 112:1 113:1 7744:1 39117:1 48980:1 50365:1 56769:1 68977:1 89380:1 98529:1 102681:1 111237:1 145275:1 #
0.049993067436813754 2:2 103:2 104:2 105:1 106:1 107:1 108:1 109:1 110:1 111:1 112:1 113:2 4440:1 112633:1 #
-0.009486733591721308 2:2 103:2 104:2 105:1 106:1 107:1 108:1 109:1 110:1 111:1 112:1 113:1 86440:1 119340:1 144541:1 #
0.049993067436813754 2:2 103:1 104:2 105:2 106:1 107:1 108:1 109:1 110:1 111:1 112:1 113:2 14671:1 109111:1 #
0.049993067436813754 2:2 103:1 104:1 105:1 106:1 107:1 108:1 109:1 110:1 111:1 112:1 113:2 14110:1 39671:1 123944:1 141661:1 #
-0.049993067436813754 2:1 103:1 104:2 105:2 106:1 107:1 108:1 109:1 110:1 111:1 112:1 113:2 14671:1 31906:1 #
0.049993067436813754 2:2 103:1 104:1 105:1 106:1 107:1 108:1 109:1 110:1 111:1 112:1 113:2 5848:1 16022:1 22952:1 28821:1 31441:1 55142:1 68904:1 69859:1 82693:1 91864:1 102856:1 143778:1 147037:1 147038:1 #
0.049993067436813754 2:2 103:1 104:1 105:1 106:1 107:1 108:1 109:2 110:1 111:2 112:1 113:2 5848:1 16022:1 28821:1 31441:1 55142:1 69859:1 82693:1 91864:1 102856:1 147037:1 147038:1 #
0.049993067436813754 2:2 103:1 104:1 105:1 106:1 107:1 108:1 109:2 110:1 111:2 112:1 113:2 5848:1 16022:1 28821:1 31441:1 55142:1 69859:1 75811:1 82693:1 91864:1 102856:1 125007:1 147037:1 147038:1 #
-0.049993067436813754 2:2 103:1 104:2 105:2 106:1 107:1 108:1 109:1 110:1 111:1 112:1 113:2 31906:1 112633:1 #
-0.049993067436813754 2:2 103:2 104:1 105:1 106:1 107:1 108:1 109:1 110:1 111:1 112:1 113:2 71228:1 102856:1 142649:1 #
0.049993067436813754 2:2 103:2 104:2 105:1 106:1 107:1 108:1 109:1 110:1 111:1 112:1 113:2 101308:1 108213:1 #
-0.049993067436813754 2:2 103:1 104:1 105:1 106:1 107:1 108:1 109:1 110:1 111:2 112:1 113:2 58757:1 101308:1 102760:1 104509:1 137369:1 #
0.049993067436813754 2:2 103:1 104:1 105:1 106:1 107:2 108:2 109:2 110:1 111:1 112:1 113:2 102856:1 137772:1 #
0.049993067436813754 2:1 103:1 104:1 105:1 106:1 107:1 108:1 109:1 110:1 111:1 112:1 113:2 36072:1 42473:1 82693:1 104509:1 111815:1 113344:1 138127:1 #
0.049993067436813754 2:1 103:1 104:1 105:1 106:1 107:1 108:1 109:1 110:1 111:1 112:1 113:1 20876:1 23286:1 26563:1 29384:1 66024:1 67806:1 99597:1 100352:1 104041:1 111815:1 #
0.049993067436813754 2:2 103:2 104:1 105:1 106:1 107:1 108:1 109:1 110:1 111:1 112:1 113:2 3173:1 23286:1 53198:1 59674:1 82654:1 82693:1 86734:1 111605:1 111815:1 115977:1 120770:1 129443:1 #
0.049993067436813754 2:1 103:1 104:1 105:1 106:1 107:1 108:1 109:1 110:1 111:1 112:1 113:2 36072:1 58448:1 59674:1 67373:1 #
0.049993067436813754 2:1 103:1 104:1 105:1 106:1 107:1 108:1 109:1 110:1 111:1 112:1 113:1 206:1 210:1 25806:1 33103:1 36072:1 76861:1 105212:1 145467:1 147032:1 #
-0.027158171061054746 2:1 103:1 104:1 105:1 106:1 107:1 108:1 109:1 110:1 111:1 112:1 113:2 23286:1 35296:1 59674:1 86734:1 102856:1 111605:1 111815:1 126002:1 129424:1 #
-0.049993067436813754 2:2 103:2 104:2 105:1 106:1 107:1 108:1 109:1 110:1 111:1 112:1 113:2 23889:1 38014:1 60521:1 81358:1 113327:1 115792:1 128170:1 146557:1 #
-0.049993067436813754 2:2 103:2 104:1 105:1 106:1 107:1 108:1 109:1 110:1 111:1 112:1 113:2 36812:1 58757:1 102856:1 #
-0.049993067436813754 2:1 103:1 104:1 105:1 106:1 107:1 108:1 109:1 110:1 111:1 112:1 113:2 222:1 23286:1 35296:1 59674:1 86734:1 104497:1 111605:1 131582:1 #
0.049993067436813754 2:2 103:1 104:1 105:1 106:1 107:1 108:1 109:1 110:1 111:1 112:1 113:2 31797:1 64507:1 102856:1 #
0.049993067436813754 2:1 103:1 104:1 105:1 106:1 107:2 108:2 109:2 110:1 111:1 112:1 113:2 5848:1 16022:1 28821:1 31441:1 34403:1 55142:1 58523:1 69859:1 82693:1 91864:1 147037:1 147038:1 #
0.049993067436813754 2:2 103:2 104:1 105:1 106:1 107:1 108:1 109:1 110:1 111:1 112:1 113:2 6920:1 9122:1 16468:1 31441:1 34403:1 55142:1 58523:1 67051:1 76338:1 82693:1 85846:1 91404:1 94041:1 106731:1 109085:1 120770:1 #
0.049993067436813754 2:2 103:2 104:1 105:1 106:1 107:1 108:1 109:1 110:1 111:1 112:1 113:2 23131:1 31441:1 34403:1 55142:1 58523:1 69847:1 94041:1 100141:1 121934:1 #
0.049993067436813754 2:2 103:2 104:1 105:1 106:1 107:1 108:1 109:1 110:1 111:1 112:1 113:2 16953:1 57757:1 60495:1 63501:1 71027:1 82693:1 94591:1 108188:1 119022:1 132187:1 147037:1 147038:1 #
-0.049993067436813754 2:2 103:1 104:1 105:1 106:1 107:1 108:1 109:1 110:1 111:1 112:1 113:2 22952:1 31441:1 34403:1 39671:1 55142:1 58523:1 68904:1 94041:1 142509:1 143778:1 #
-0.049993067436813754 2:2 103:2 104:1 105:1 106:1 107:1 108:1 109:1 110:1 111:1 112:1 113:2 31441:1 34403:1 55142:1 58523:1 59674:1 91404:1 94041:1 98808:1 100141:1 113327:1 #
-0.049993067436813754 2:2 103:2 104:1 105:1 106:1 107:1 108:1 109:1 110:1 111:1 112:1 113:2 49512:1 55171:1 58523:1 59927:1 73647:1 82693:1 117653:1 120721:1 147036:1 #
-0.049993067436813754 2:1 103:1 104:1 105:2 106:1 107:1 108:1 109:1 110:1 111:1 112:1 113:2 513:1 112633:1 130098:1 #
0.049993067436813754 2:1 103:1 104:1 105:1 106:1 107:1 108:1 109:1 110:1 111:1 112:1 113:1 18217:1 58448:1 59674:1 98154:1 #
0.049993067436813754 2:1 103:1 104:1 105:1 106:1 107:1 108:1 109:1 110:1 111:1 112:1 113:1 23286:1 35296:1 44587:1 63149:1 76515:1 114633:1 120766:1 #
0.049993067436813754 2:1 103:1 104:1 105:1 106:1 107:1 108:1 109:1 110:1 111:1 112:1 113:1 35296:1 56712:1 76338:1 86734:1 111605:1 142190:1 #
0.049993067436813754 2:2 103:1 104:1 105:1 106:1 107:1 108:1 109:1 110:1 111:1 112:1 113:1 35296:1 56712:1 76338:1 86734:1 111605:1 142190:1 #
0.049993067436813754 2:1 103:1 104:1 105:1 106:1 107:1 108:1 109:1 110:1 111:1 112:1 113:1 13429:1 44736:1 59674:1 80119:1 106728:1 #
-0.049993067436813754 2:2 103:1 104:2 105:1 106:1 107:1 108:1 109:1 110:1 111:1 112:1 113:2 104423:1 104509:1 115792:1 #
-0.049993067436813754 2:1 103:1 104:2 105:1 106:1 107:1 108:1 109:1 110:1 111:1 112:1 113:2 15753:1 115792:1 #
0.049993067436813754 2:2 103:2 104:2 105:2 106:1 107:1 108:1 109:1 110:1 111:1 112:1 113:2 86668:1 112633:1 #
-0.049993067436813754 2:2 103:2 104:2 105:1 106:1 107:1 108:1 109:1 110:1 111:1 112:1 113:1 112633:1 116140:1 133553:1 138946:1 #
-0.049993067436813754 2:2 103:1 104:2 105:1 106:1 107:1 108:1 109:1 110:1 111:1 112:1 113:2 7058:1 42911:1 77535:1 109111:1 #
0.049993067436813754 2:2 103:2 104:1 105:1 106:1 107:1 108:1 109:1 110:1 111:1 112:1 113:2 23131:1 31441:1 34403:1 55142:1 58523:1 59674:1 91404:1 94041:1 100141:1 113327:1 #
0.049993067436813754 2:2 103:1 104:1 105:1 106:1 107:1 108:1 109:1 110:1 111:1 112:1 113:2 4502:1 31441:1 34403:1 39671:1 55142:1 58523:1 94041:1 142509:1 #
0.049993067436813754 2:2 103:2 104:1 105:1 106:1 107:1 108:1 109:1 110:1 111:1 112:1 113:1 9513:1 11838:1 28034:1 47515:1 59168:1 91217:1 117653:1 #
0.049993067436813754 2:1 103:1 104:1 105:1 106:1 107:1 108:1 109:1 110:1 111:1 112:1 113:1 21646:1 31441:1 34403:1 55142:1 58523:1 59674:1 91404:1 94041:1 96485:1 100141:1 133366:1 #
0.049993067436813754 2:2 103:2 104:1 105:1 106:1 107:1 108:1 109:1 110:1 111:1 112:1 113:2 7611:1 10902:1 31441:1 55142:1 56847:1 64798:1 93381:1 100991:1 121098:1 124251:1 141727:1 #
0.049993067436813754 2:2 103:2 104:1 105:1 106:1 107:1 108:1 109:1 110:1 111:1 112:1 113:2 101308:1 107186:1 113157:1 128938:1 #
-0.0086546086965927499 2:2 103:2 104:1 105:1 106:1 107:1 108:1 109:1 110:1 111:1 112:1 113:2 26218:1 118815:1 119731:1 125640:1 134613:1 #
-0.049993067436813754 2:2 103:2 104:1 105:1 106:1 107:1 108:1 109:1 110:1 111:1 112:1 113:2 45448:1 80671:1 98154:1 106413:1 141697:1 #
0.049993067436813754 2:2 103:1 104:1 105:1 106:1 107:1 108:1 109:1 110:1 111:1 112:1 113:2 22660:1 75430:1 77816:1 135094:1 #
-0.014163352622959792 2:2 103:1 104:1 105:1 106:1 107:1 108:1 109:1 110:1 111:1 112:1 113:2 31441:1 34403:1 55142:1 58523:1 59674:1 91404:1 94041:1 98808:1 100141:1 113327:1 #
0.049993067436813754 2:1 103:1 104:1 105:1 106:1 107:1 108:1 109:1 110:1 111:1 112:1 113:1 17785:1 22293:1 40215:1 48809:1 60526:1 82693:1 147037:1 147038:1 #
0.049993067436813754 2:1 103:1 104:1 105:1 106:1 107:1 108:1 109:1 110:1 111:1 112:1 113:1 35356:1 76338:1 104133:1 123108:1 147037:1 #
0.049993067436813754 2:1 103:1 104:1 105:1 106:1 107:1 108:1 109:1 110:1 111:1 112:1 113:1 31692:1 45507:1 54442:1 76338:1 86734:1 114797:1 131656:1 #
0.049993067436813754 2:1 103:1 104:1 105:1 106:1 107:1 108:1 109:1 110:1 111:1 112:1 113:2 11838:1 16826:1 76338:1 78084:1 82693:1 90029:1 107595:1 114264:1 125640:1 133553:1 138513:1 146109:1 #
0.049993067436813754 2:2 103:2 104:2 105:1 106:1 107:1 108:1 109:1 110:1 111:1 112:1 113:2 52829:1 109111:1 #
-0.049993067436813754 2:2 103:2 104:1 105:1 106:1 107:1 108:1 109:1 110:1 111:1 112:1 113:2 3754:1 94224:1 115012:1 #
0.049993067436813754 2:2 103:2 104:2 105:1 106:1 107:1 108:1 109:1 110:1 111:1 112:1 113:2 104869:1 112633:1 #
-0.019911886459174577 2:2 103:1 104:1 105:1 106:1 107:1 108:1 109:1 110:1 111:1 112:1 113:2 26328:1 67856:1 110716:1 135473:1 #
-0.049993067436813754 2:1 103:1 104:2 105:2 106:1 107:1 108:1 109:1 110:1 111:1 112:1 113:2 63236:1 86668:1 #
0.049993067436813754 2:2 103:1 104:1 105:2 106:1 107:1 108:1 109:1 110:1 111:1 112:1 113:2 31441:1 34403:1 55142:1 58523:1 59674:1 91404:1 94041:1 100141:1 112633:1 113327:1 #
0.049993067436813754 2:2 103:2 104:1 105:1 106:1 107:1 108:1 109:1 110:1 111:1 112:1 113:1 31441:1 34403:1 58523:1 94041:1 #
0.049993067436813754 2:2 103:1 104:1 105:2 106:1 107:1 108:1 109:1 110:1 111:1 112:1 113:2 31441:1 34403:1 39671:1 55142:1 58523:1 94041:1 109111:1 142509:1 #
0.049993067436813754 2:2 103:2 104:1 105:1 106:1 107:1 108:1 109:1 110:1 111:1 112:1 113:1 27118:1 27608:1 59674:1 63210:1 67373:1 116022:1 138511:1 147036:1 #
-0.049993067436813754 2:2 103:2 104:1 105:1 106:1 107:1 108:1 109:1 110:1 111:1 112:1 113:2 64507:1 78794:1 #
0.049993067436813754 2:2 103:1 104:1 105:1 106:1 107:1 108:1 109:2 110:1 111:2 112:1 113:2 560:1 56329:1 102856:1 139249:1 #
-0.049993067436813754 2:2 103:2 104:1 105:2 106:1 107:1 108:1 109:1 110:1 111:1 112:1 113:2 55235:1 63236:1 #
-0.049993067436813754 2:1 103:1 104:1 105:1 106:1 107:1 108:1 109:1 110:1 111:1 112:1 113:2 7611:1 10902:1 23131:1 31441:1 55142:1 64798:1 69847:1 100991:1 121098:1 121934:1 142509:1 #
-0.049993067436813754 2:1 103:1 104:2 105:1 106:1 107:1 108:1 109:1 110:1 111:1 112:1 113:2 58448:1 102856:1 #
0.049993067436813754 2:1 103:1 104:1 105:1 106:1 107:1 108:1 109:1 110:1 111:1 112:1 113:2 11838:1 16826:1 21578:1 50770:1 76338:1 78084:1 80651:1 82693:1 125640:1 133553:1 138513:1 140288:1 146109:1 #
0.049993067436813754 2:2 103:2 104:1 105:1 106:1 107:1 108:1 109:1 110:1 111:1 112:1 113:2 11838:1 16826:1 21578:1 50770:1 76338:1 78084:1 80651:1 82693:1 102856:1 125640:1 133553:1 138513:1 140288:1 146109:1 #
0.049993067436813754 2:2 103:1 104:1 105:1 106:1 107:1 108:1 109:1 110:1 111:2 112:1 113:2 16826:1 76338:1 78084:1 81879:1 82693:1 96367:1 102856:1 125640:1 133553:1 138513:1 142435:1 146109:1 #
-0.049993067436813754 2:2 103:1 104:1 105:2 106:1 107:1 108:1 109:1 110:1 111:1 112:1 113:2 58448:1 112633:1 #
0.049993067436813754 2:2 103:2 104:1 105:1 106:1 107:1 108:1 109:1 110:1 111:1 112:1 113:2 16826:1 22406:1 43764:1 76338:1 78084:1 82693:1 92948:1 102856:1 125640:1 133553:1 138513:1 146109:1 #
-0.049993067436813754 2:2 103:1 104:1 105:1 106:1 107:1 108:1 109:1 110:1 111:1 112:1 113:2 11838:1 16826:1 21578:1 50770:1 76338:1 78084:1 80651:1 82693:1 120265:1 125640:1 133553:1 138513:1 140288:1 146109:1 #
0.049993067436813754 2:2 103:1 104:1 105:2 106:1 107:1 108:1 109:1 110:1 111:1 112:1 113:2 7611:1 10902:1 31441:1 55142:1 64798:1 100991:1 109111:1 121098:1 121934:1 142509:1 #
-0.049993067436813754 2:2 103:1 104:1 105:1 106:1 107:1 108:1 109:1 110:1 111:1 112:1 113:2 17785:1 22293:1 40215:1 48809:1 78528:1 82693:1 99357:1 102856:1 147037:1 147038:1 #
-0.049993067436813754 2:2 103:1 104:1 105:1 106:1 107:1 108:1 109:1 110:1 111:1 112:1 113:2 27118:1 27608:1 35296:1 36047:1 41738:1 58373:1 58448:1 59674:1 63210:1 67373:1 78099:1 82693:1 102856:1 103555:1 116022:1 134413:1 138511:1 147036:1 #
-0.049993067436813754 2:2 103:2 104:1 105:1 106:1 107:1 108:2 109:1 110:1 111:1 112:1 113:2 7652:1 21566:1 28034:1 30337:1 48129:1 76338:1 102856:1 #
-0.0090706103792191489 2:2 103:1 104:1 105:1 106:1 107:1 108:1 109:1 110:1 111:1 112:1 113:2 27118:1 27608:1 35296:1 36047:1 58373:1 58448:1 59674:1 63210:1 67373:1 78099:1 82693:1 98706:1 102856:1 103555:1 116022:1 134413:1 138511:1 147036:1 #
-0.049993067436813754 2:2 103:1 104:1 105:2 106:1 107:1 108:1 109:1 110:1 111:1 112:1 113:2 20293:1 36572:1 102856:1 109111:1 #
0.049993067436813754 2:1 103:1 104:1 105:1 106:1 107:1 108:1 109:1 110:1 111:1 112:1 113:1 10902:1 15854:1 39824:1 44126:1 45690:1 52434:1 53689:1 59927:1 61086:1 63876:1 66209:1 68904:1 113442:1 127767:1 131678:1 135061:1 136575:1 146843:1 #
-0.019778986382106789 2:2 103:1 104:1 105:1 106:1 107:1 108:1 109:1 110:1 111:1 112:1 113:2 12010:1 15753:1 43018:1 82693:1 121700:1 121716:1 135698:1 #
0.049993067436813754 2:1 103:1 104:1 105:1 106:1 107:1 108:1 109:1 110:1 111:1 112:1 113:1 10902:1 11838:1 14886:1 25827:1 35296:1 #
0.049993067436813754 2:1 103:1 104:1 105:1 106:1 107:1 108:1 109:1 110:1 111:1 112:1 113:1 10902:1 39541:1 64798:1 84904:1 121398:1 #
0.049993067436813754 2:1 103:1 104:1 105:1 106:1 107:1 108:1 109:1 110:1 111:1 112:1 113:1 11838:1 26768:1 48700:1 52682:1 54028:1 64798:1 100294:1 121621:1 140764:1 #
-0.049993067436813754 2:1 103:1 104:1 105:1 106:1 107:1 108:1 109:1 110:1 111:1 112:1 113:2 102856:1 117653:1 #
-0.049993067436813754 2:2 103:2 104:1 105:2 106:1 107:1 108:1 109:1 110:1 111:1 112:1 113:2 9095:1 112633:1 #
0.049993067436813754 2:2 103:2 104:2 105:2 106:1 107:1 108:1 109:1 110:1 111:1 112:1 113:2 86668:1 109111:1 #
-0.049993067436813754 2:1 103:1 104:2 105:2 106:1 107:1 108:1 109:1 110:1 111:1 112:1 113:2 63236:1 115792:1 #
-0.049993067436813754 2:2 103:2 104:1 105:1 106:1 107:1 108:1 109:1 110:1 111:1 112:1 113:2 822:1 98154:1 124981:1 #
0.049993067436813754 2:2 103:1 104:1 105:1 106:1 107:1 108:1 109:1 110:1 111:1 112:1 113:2 27118:1 27608:1 35296:1 36047:1 58373:1 58448:1 59674:1 63210:1 67373:1 78099:1 82693:1 102856:1 103555:1 116022:1 134413:1 138511:1 142150:1 147036:1 #
0.049993067436813754 2:2 103:2 104:2 105:1 106:1 107:1 108:1 109:1 110:1 111:1 112:1 113:2 3218:1 52829:1 109111:1 #
0.049993067436813754 2:2 103:2 104:1 105:1 106:1 107:1 108:1 109:1 110:1 111:1 112:1 113:2 7652:1 21566:1 28034:1 30337:1 48129:1 58448:1 76338:1 102856:1 137887:1 #
0.049993067436813754 2:2 103:1 104:1 105:1 106:1 107:1 108:1 109:1 110:1 111:1 112:1 113:2 18724:1 56044:1 64368:1 76673:1 82693:1 83173:1 90029:1 98154:1 102856:1 128170:1 142174:1 #
0.049993067436813754 2:2 103:1 104:1 105:1 106:1 107:1 108:1 109:1 110:1 111:2 112:1 113:2 27917:1 58448:1 59674:1 67373:1 102856:1 #
-0.049993067436813754 2:2 103:2 104:1 105:1 106:1 107:1 108:1 109:1 110:1 111:1 112:1 113:2 8444:1 39541:1 58448:1 59674:1 67373:1 82693:1 84904:1 98174:1 120399:1 121398:1 147036:1 #
-0.049993067436813754 2:2 103:2 104:1 105:2 106:1 107:1 108:1 109:1 110:1 111:1 112:1 113:2 48129:1 58448:1 76338:1 109111:1 137887:1 #
-0.049993067436813754 2:2 103:2 104:1 105:1 106:1 107:1 108:1 109:1 110:1 111:1 112:1 113:2 18217:1 58448:1 98154:1 #
-0.049993067436813754 2:2 103:2 104:1 105:1 106:1 107:1 108:1 109:1 110:1 111:1 112:1 113:2 14330:1 14856:1 35296:1 58448:1 64368:1 82693:1 120721:1 147040:1 #
0.049993067436813754 2:2 103:2 104:1 105:1 106:1 107:1 108:1 109:1 110:1 111:1 112:1 113:1 2757:1 10902:1 15854:1 39824:1 44126:1 45690:1 51195:1 52434:1 53689:1 59927:1 61086:1 63876:1 66209:1 68904:1 100333:1 113442:1 127767:1 131678:1 136575:1 146843:1 #
0.049993067436813754 2:1 103:1 104:1 105:1 106:1 107:1 108:1 109:1 110:1 111:1 112:1 113:1 2757:1 10902:1 51195:1 59440:1 92529:1 100333:1 113442:1 #
0.049993067436813754 2:1 103:1 104:1 105:1 106:1 107:1 108:1 109:1 110:1 111:1 112:1 113:1 38732:1 64006:1 65478:1 67700:1 113157:1 134776:1 #
-0.049993067436813754 2:2 103:2 104:1 105:1 106:1 107:1 108:1 109:1 110:1 111:1 112:1 113:2 98154:1 102856:1 128170:1 #
0.049993067436813754 2:2 103:1 104:1 105:1 106:1 107:1 108:1 109:1 110:1 111:1 112:1 113:2 9357:1 98411:1 101279:1 130282:1 132723:1 #
-0.049993067436813754 2:2 103:2 104:1 105:2 106:1 107:1 108:1 109:1 110:1 111:1 112:1 113:2 14671:1 58448:1 #
0.049993067436813754 2:2 103:2 104:1 105:1 106:1 107:1 108:1 109:1 110:1 111:1 112:1 113:2 1387:1 7058:1 8771:1 41307:1 44356:1 54046:1 75334:1 76338:1 78022:1 86196:1 91268:1 109085:1 120770:1 144140:1 #
0.049993067436813754 2:2 103:1 104:1 105:1 106:1 107:1 108:1 109:1 110:1 111:1 112:1 113:2 3400:1 9003:1 9604:1 24702:1 25628:1 58448:1 59098:1 76338:1 82693:1 90777:1 113327:1 #
0.049993067436813754 2:1 103:1 104:1 105:2 106:1 107:1 108:1 109:1 110:1 111:1 112:1 113:2 13768:1 35962:1 58448:1 78308:1 82693:1 98557:1 133536:1 147036:1 #
0.049993067436813754 2:2 103:1 104:1 105:1 106:1 107:1 108:1 109:1 110:1 111:1 112:1 113:2 10431:1 13227:1 23582:1 43076:1 50984:1 50991:1 51343:1 51523:1 61086:1 63448:1 76338:1 82693:1 102856:1 103580:1 104509:1 108188:1 145467:1 #
0.049993067436813754 2:2 103:1 104:1 105:1 106:1 107:1 108:1 109:1 110:1 111:1 112:1 113:2 3913:1 14856:1 59927:1 82693:1 100352:1 110659:1 131563:1 #
-0.049993067436813754 2:2 103:1 104:1 105:1 106:1 107:1 108:1 109:1 110:1 111:1 112:1 113:2 27887:1 31475:1 31692:1 41239:1 45507:1 54442:1 92876:1 113157:1 119788:1 131656:1 #
-0.0050810984403350107 2:2 103:1 104:1 105:1 106:1 107:1 108:1 109:1 110:1 111:1 112:1 113:2 27887:1 31475:1 31692:1 45507:1 54442:1 92876:1 94224:1 113157:1 131656:1 #
-0.049993067436813754 2:1 103:1 104:2 105:2 106:1 107:1 108:1 109:1 110:1 111:1 112:1 113:2 14671:1 77816:1 #
-0.043768358461796497 2:2 103:1 104:1 105:1 106:1 107:1 108:1 109:1 110:1 111:1 112:1 113:2 4072:1 14856:1 58972:1 59927:1 120770:1 130282:1 142649:1 145467:1 #
0.049993067436813754 2:2 103:2 104:1 105:1 106:1 107:1 108:1 109:1 110:1 111:1 112:1 113:1 1312:1 10902:1 44407:1 79119:1 113442:1 135061:1 147036:1 #
0.049993067436813754 2:1 103:1 104:1 105:1 106:1 107:1 108:1 109:1 110:1 111:1 112:1 113:1 10902:1 17688:1 120453:1 125640:1 130839:1 #
0.049993067436813754 2:2 103:2 104:1 105:1 106:1 107:1 108:1 109:1 110:1 111:1 112:1 113:2 5884:1 10902:1 51195:1 51497:1 82693:1 112607:1 113442:1 140345:1 141727:1 #
0.049993067436813754 2:2 103:2 104:1 105:1 106:1 107:1 108:1 109:1 110:1 111:1 112:1 113:2 5884:1 10902:1 23364:1 81175:1 113442:1 121934:1 126510:1 135061:1 #
0.049993067436813754 2:1 103:1 104:1 105:1 106:1 107:1 108:1 109:1 110:1 111:1 112:1 113:1 10902:1 14511:1 36561:1 125640:1 128793:1 137817:1 142649:1 145467:1 #
-0.036916728827650666 2:2 103:1 104:1 105:1 106:1 107:1 108:1 109:1 110:1 111:1 112:1 113:2 38051:1 52038:1 145676:1 #
-0.049993067436813754 2:2 103:1 104:1 105:1 106:1 107:1 108:1 109:1 110:1 111:2 112:1 113:2 9357:1 102856:1 126002:1 132723:1 #
-0.049993067436813754 2:2 103:1 104:2 105:1 106:1 107:1 108:1 109:1 110:1 111:1 112:1 113:2 40342:1 99981:1 101756:1 104509:1 #
0.049993067436813754 2:2 103:2 104:2 105:2 106:1 107:1 108:1 109:1 110:1 111:1 112:1 113:2 77692:1 86668:1 #
0.049993067436813754 2:2 103:2 104:2 105:1 106:1 107:1 108:1 109:1 110:1 111:1 112:1 113:2 27887:1 31475:1 31692:1 45507:1 54442:1 92876:1 101308:1 113157:1 131656:1 #
0.049993067436813754 2:2 103:1 104:1 105:1 106:1 107:1 108:1 109:1 110:1 111:1 112:1 113:2 9441:1 11838:1 47596:1 54882:1 90029:1 102856:1 #
0.049993067436813754 2:2 103:1 104:1 105:1 106:1 107:1 108:1 109:1 110:1 111:1 112:1 113:2 76338:1 90029:1 102856:1 109994:1 119370:1 120265:1 126551:1 #
0.049993067436813754 2:2 103:1 104:1 105:1 106:1 107:1 108:1 109:1 110:1 111:1 112:1 113:2 222:1 102856:1 126002:1 131582:1 #
0.049993067436813754 2:2 103:1 104:1 105:1 106:1 107:1 108:1 109:1 110:1 111:1 112:1 113:2 23103:1 50813:1 61086:1 102856:1 110716:1 113157:1 142649:1 #
-0.049993067436813754 2:2 103:1 104:2 105:2 106:1 107:1 108:1 109:1 110:1 111:2 112:1 113:2 77816:1 101308:1 #
-0.049993067436813754 2:2 103:2 104:1 105:1 106:1 107:1 108:1 109:1 110:1 111:1 112:1 113:2 37047:1 44038:1 58448:1 #
-0.049993067436813754 2:2 103:2 104:1 105:1 106:1 107:1 108:1 109:1 110:1 111:1 112:1 113:2 61254:1 98154:1 #
-0.030394266437745496 2:2 103:1 104:1 105:2 106:1 107:1 108:1 109:1 110:1 111:1 112:1 113:2 14886:1 18406:1 112633:1 #
-0.049993067436813754 2:2 103:1 104:1 105:1 106:1 107:1 108:1 109:1 110:1 111:1 112:1 113:2 14511:1 17688:1 36561:1 86440:1 101308:1 120453:1 130839:1 #
0.049993067436813754 2:1 103:1 104:1 105:1 106:1 107:1 108:1 109:2 110:1 111:2 112:1 113:2 16826:1 22406:1 43764:1 76338:1 78084:1 82693:1 102856:1 125640:1 133553:1 138513:1 146109:1 #
0.049993067436813754 2:2 103:2 104:1 105:1 106:1 107:1 108:1 109:1 110:1 111:1 112:1 113:2 5884:1 63473:1 76338:1 78084:1 82693:1 102856:1 104509:1 125640:1 133553:1 138513:1 146109:1 #
0.049993067436813754 2:2 103:1 104:1 105:1 106:1 107:1 108:1 109:1 110:1 111:1 112:1 113:1 125640:1 133553:1 138513:1 146109:1 #
-0.049993067436813754 2:2 103:1 104:2 105:1 106:1 107:1 108:1 109:1 110:1 111:1 112:1 113:2 10902:1 52682:1 76338:1 86734:1 131582:1 136766:1 #
-0.038736393586499149 2:2 103:1 104:1 105:1 106:1 107:1 108:1 109:1 110:1 111:2 112:1 113:2 11838:1 48700:1 52682:1 102856:1 121621:1 #
-0.046605172823396407 2:2 103:2 104:1 105:1 106:1 107:1 108:1 109:1 110:1 111:1 112:1 113:2 40544:1 54882:1 #
0.049993067436813754 2:2 103:2 104:2 105:1 106:1 107:1 108:1 109:1 110:1 111:1 112:1 113:2 45505:1 112633:1 112851:1 #
-0.049993067436813754 2:2 103:2 104:1 105:1 106:1 107:1 108:1 109:1 110:1 111:1 112:1 113:2 89489:1 105907:1 128504:1 141214:1 #
0.049993067436813754 2:1 103:1 104:1 105:1 106:1 107:1 108:1 109:1 110:1 111:1 112:1 113:1 2009:1 14511:1 36561:1 86854:1 128793:1 137817:1 142649:1 145467:1 #
0.049993067436813754 2:1 103:1 104:1 105:1 106:1 107:1 108:1 109:1 110:1 111:1 112:1 113:2 17688:1 62772:1 94985:1 120453:1 #
0.049993067436813754 2:1 103:1 104:1 105:1 106:1 107:1 108:1 109:1 110:1 111:1 112:1 113:2 17688:1 120453:1 #
0.049993067436813754 2:1 103:1 104:1 105:1 106:1 107:1 108:1 109:1 110:1 111:1 112:1 113:1 8358:1 14511:1 65950:1 128911:1 #
0.049993067436813754 2:2 103:2 104:2 105:1 106:1 107:1 108:1 109:1 110:1 111:1 112:1 113:2 3691:1 50314:1 #
0.049993067436813754 2:2 103:2 104:2 105:1 106:1 107:1 108:1 109:1 110:1 111:1 112:1 113:2 94040:1 143482:1 #
-0.049993067436813754 2:2 103:2 104:1 105:1 106:1 107:1 108:1 109:1 110:1 111:1 112:1 113:2 58448:1 99674:1 #
-0.049218552097044621 2:1 103:1 104:1 105:1 106:1 107:1 108:1 109:1 110:1 111:1 112:1 113:2 39756:1 76673:1 76968:1 82693:1 108021:1 136317:1 142174:1 145467:1 147036:1 #
0.049993067436813754 2:2 103:1 104:1 105:1 106:1 107:1 108:1 109:1 110:1 111:2 112:1 113:2 96135:1 96354:1 99357:1 102856:1 133486:1 #
0.049993067436813754 2:2 103:1 104:1 105:1 106:1 107:1 108:1 109:1 110:1 111:2 112:1 113:2 42473:1 102856:1 137203:1 #
0.049993067436813754 2:2 103:2 104:1 105:1 106:1 107:1 108:1 109:1 110:1 111:2 112:1 113:2 248:1 14856:1 34028:1 102856:1 137770:1 #
0.049993067436813754 2:2 103:1 104:1 105:1 106:1 107:1 108:1 109:1 110:1 111:2 112:1 113:2 36561:1 70224:1 102856:1 #
0.049993067436813754 2:2 103:2 104:1 105:1 106:1 107:1 108:1 109:1 110:1 111:2 112:1 113:2 49578:1 59381:1 59674:1 86854:1 102856:1 113442:1 128060:1 #
-0.049993067436813754 2:2 103:2 104:1 105:1 106:1 107:1 108:1 109:1 110:1 111:1 112:1 113:2 113327:1 113504:1 #
-0.049993067436813754 2:2 103:2 104:1 105:1 106:1 107:1 108:1 109:1 110:1 111:1 112:1 113:2 15753:1 126510:1 #
-0.049993067436813754 2:1 103:1 104:2 105:2 106:1 107:1 108:1 109:1 110:1 111:1 112:1 113:2 31906:1 135698:1 #
-0.049993067436813754 2:2 103:2 104:1 105:1 106:1 107:1 108:1 109:1 110:1 111:2 112:1 113:2 5884:1 15757:1 69571:1 102856:1 #
-0.049993067436813754 2:2 103:1 104:1 105:1 106:1 107:1 108:1 109:1 110:1 111:1 112:1 113:2 7611:1 59674:1 63149:1 64798:1 121098:1 121934:1 137866:1 #
0.049993067436813754 2:1 103:1 104:1 105:1 106:1 107:1 108:1 109:1 110:1 111:1 112:1 113:2 205:1 11838:1 22952:1 34120:1 35960:1 54233:1 56418:1 76338:1 80671:1 106413:1 131582:1 133486:1 #
0.049993067436813754 2:1 103:1 104:1 105:1 106:1 107:1 108:1 109:1 110:1 111:1 112:1 113:2 10902:1 52682:1 76338:1 86734:1 89850:1 131582:1 #
0.049993067436813754 2:2 103:1 104:1 105:1 106:1 107:1 108:1 109:1 110:1 111:1 112:1 113:2 6925:1 21578:1 70375:1 76338:1 82693:1 110659:1 121673:1 127461:1 #
0.049993067436813754 2:1 103:1 104:1 105:1 106:1 107:1 108:1 109:1 110:1 111:1 112:1 113:2 5321:1 58760:1 82693:1 132670:1 #
0.049993067436813754 2:1 103:1 104:1 105:1 106:1 107:1 108:1 109:1 110:1 111:1 112:1 113:1 23641:1 59018:1 63448:1 69695:1 71595:1 82693:1 82737:1 120265:1 130877:1 145467:1 146419:1 147036:1 #
-0.049993067436813754 2:1 103:1 104:2 105:2 106:1 107:1 108:1 109:1 110:1 111:1 112:1 113:2 63236:1 86668:1 #
0.049993067436813754 2:2 103:2 104:1 105:1 106:1 107:1 108:1 109:1 110:1 111:2 112:1 113:2 2696:1 2757:1 22581:1 32958:1 48809:1 55763:1 82693:1 102856:1 147036:1 #
-0.049993067436813754 2:2 103:1 104:1 105:1 106:1 107:1 108:1 109:1 110:1 111:1 112:1 113:2 18724:1 70535:1 83173:1 89380:1 98154:1 108188:1 137343:1 145467:1 #
-0.049993067436813754 2:2 103:2 104:1 105:1 106:1 107:1 108:1 109:1 110:1 111:1 112:1 113:2 11838:1 36072:1 90029:1 102856:1 107595:1 114264:1 #
0.049993067436813754 2:2 103:2 104:2 105:1 106:1 107:1 108:1 109:1 110:1 111:1 112:1 113:2 11838:1 67880:1 101308:1 120882:1 #
-0.012192016746463308 2:1 103:1 104:1 105:2 106:1 107:1 108:1 109:1 110:1 111:1 112:1 113:2 65478:1 96135:1 112633:1 133486:1 138662:1 #
0.049993067436813754 2:2 103:2 104:2 105:1 106:1 107:1 108:1 109:1 110:1 111:1 112:1 113:2 112633:1 118844:1 #
0.049993067436813754 2:2 103:2 104:1 105:1 106:1 107:1 108:1 109:1 110:1 111:2 112:1 113:2 36072:1 54882:1 102856:1 #
0.049993067436813754 2:2 103:1 104:1 105:1 106:1 107:1 108:1 109:1 110:1 111:1 112:1 113:2 11838:1 21578:1 50770:1 80651:1 102856:1 140288:1 141547:1 #
0.049993067436813754 2:2 103:2 104:1 105:1 106:1 107:1 108:1 109:1 110:1 111:1 112:1 113:1 14768:1 49512:1 55648:1 74509:1 120721:1 #
0.049993067436813754 2:2 103:2 104:1 105:1 106:1 107:1 108:1 109:1 110:1 111:1 112:1 113:1 5096:1 17785:1 36341:1 43913:1 63434:1 113327:1 139752:1 145467:1 #
0.049993067436813754 2:2 103:1 104:1 105:1 106:1 107:1 108:1 109:1 110:1 111:2 112:1 113:1 102856:1 117653:1 121157:1 #
-0.049993067436813754 2:2 103:2 104:1 105:1 106:1 107:1 108:1 109:1 110:1 111:1 112:1 113:2 38427:1 49578:1 81882:1 86854:1 #
-0.049993067436813754 2:2 103:2 104:1 105:1 106:1 107:1 108:1 109:1 110:1 111:1 112:1 113:2 16274:1 35962:1 49578:1 86854:1 96858:1 102856:1 112633:1 112864:1 127390:1 145467:1 #
-0.049993067436813754 2:2 103:2 104:1 105:1 106:1 107:1 108:1 109:1 110:1 111:1 112:1 113:2 15580:1 24119:1 60115:1 78528:1 128504:1 #
-0.049993067436813754 2:1 103:1 104:2 105:1 106:1 107:1 108:1 109:1 110:1 111:1 112:1 113:2 97201:1 115792:1 #
0.049993067436813754 2:1 103:1 104:1 105:1 106:1 107:1 108:1 109:1 110:1 111:1 112:1 113:1 14110:1 39671:1 59018:1 71595:1 82693:1 82737:1 120265:1 130877:1 141661:1 147036:1 #
0.049993067436813754 2:1 103:1 104:1 105:1 106:1 107:1 108:1 109:1 110:1 111:1 112:1 113:1 2571:1 20957:1 37610:1 46582:1 58448:1 76725:1 99452:1 147036:1 #
0.049993067436813754 2:1 103:1 104:1 105:1 106:1 107:1 108:1 109:1 110:1 111:1 112:1 113:2 7652:1 23502:1 33284:1 34268:1 82693:1 84882:1 102856:1 133501:1 141973:1 143778:1 147036:1 #
-0.049993067436813754 2:2 103:2 104:1 105:1 106:1 107:1 108:1 109:1 110:1 111:1 112:1 113:2 276:1 68406:1 98226:1 #
-0.049993067436813754 2:2 103:2 104:2 105:2 106:1 107:1 108:1 109:1 110:1 111:1 112:1 113:1 101308:1 112633:1 #
-0.049993067436813754 2:1 103:1 104:2 105:1 106:1 107:1 108:1 109:1 110:1 111:1 112:1 113:2 84593:1 142906:1 #
-0.049993067436813754 2:2 103:2 104:1 105:1 106:1 107:1 108:1 109:1 110:1 111:1 112:1 113:2 10902:1 113323:1 127581:1 #
0.049993067436813754 2:2 103:2 104:1 105:1 106:1 107:1 108:1 109:1 110:1 111:1 112:1 113:2 54205:1 59927:1 66913:1 71130:1 76338:1 82693:1 102856:1 103378:1 145467:1 #
0.049993067436813754 2:2 103:2 104:1 105:1 106:1 107:1 108:1 109:1 110:1 111:1 112:1 113:2 9604:1 76338:1 102856:1 112864:1 139249:1 #
0.049993067436813754 2:2 103:2 104:1 105:1 106:1 107:1 108:1 109:1 110:1 111:1 112:1 113:2 10902:1 52523:1 76338:1 81269:1 82693:1 84670:1 102856:1 119300:1 137719:1 #
0.049993067436813754 2:2 103:2 104:1 105:1 106:1 107:1 108:1 109:1 110:1 111:1 112:1 113:2 48129:1 58448:1 59927:1 76338:1 117441:1 118530:1 125515:1 145467:1 #
0.049993067436813754 2:2 103:2 104:1 105:1 106:1 107:1 108:1 109:1 110:1 111:1 112:1 113:2 9604:1 76338:1 112864:1 139249:1 #
-0.049993067436813754 2:2 103:2 104:1 105:1 106:1 107:1 108:1 109:1 110:1 111:2 112:1 113:2 36418:1 59927:1 66913:1 71130:1 76338:1 102856:1 103378:1 145467:1 #
-0.049993067436813754 2:2 103:2 104:1 105:1 106:1 107:1 108:1 109:1 110:1 111:1 112:1 113:2 53538:1 134325:1 135929:1 #
-0.049993067436813754 2:2 103:2 104:1 105:1 106:1 107:1 108:1 109:1 110:1 111:1 112:1 113:2 29702:1 38051:1 52038:1 #
-0.049993067436813754 2:1 103:1 104:2 105:1 106:1 107:1 108:1 109:1 110:1 111:1 112:1 113:2 44736:1 77816:1 80119:1 112071:1 #
-0.049993067436813754 2:1 103:1 104:2 105:2 106:1 107:1 108:1 109:1 110:1 111:1 112:1 113:2 133536:1 #
0.049993067436813754 2:1 103:1 104:1 105:1 106:1 107:1 108:2 109:1 110:1 111:1 112:1 113:2 6869:1 19030:1 75334:1 82693:1 103490:1 128060:1 147036:1 #
0.049993067436813754 2:1 103:1 104:1 105:1 106:1 107:1 108:1 109:1 110:1 111:1 112:1 113:2 7652:1 33284:1 38427:1 43464:1 82693:1 #
0.049993067436813754 2:1 103:1 104:1 105:1 106:1 107:1 108:1 109:1 110:1 111:1 112:1 113:2 22368:1 27996:1 35296:1 36072:1 49578:1 71595:1 76968:1 82693:1 84600:1 102856:1 104967:1 115167:1 120770:1 139214:1 147036:1 #
0.049993067436813754 2:1 103:1 104:1 105:1 106:1 107:1 108:1 109:1 110:1 111:1 112:1 113:2 6869:1 59381:1 59674:1 130282:1 136930:1 #
0.049993067436813754 2:2 103:2 104:2 105:1 106:1 107:1 108:1 109:1 110:1 111:1 112:1 113:2 60778:1 68904:1 112633:1 #
-0.049993067436813754 2:2 103:2 104:1 105:2 106:1 107:1 108:1 109:1 110:1 111:1 112:1 113:2 35962:1 135698:1 #
-0.049993067436813754 2:1 103:1 104:2 105:1 106:1 107:1 108:1 109:1 110:1 111:1 112:1 113:2 123944:1 136766:1 #
-0.049993067436813754 2:1 103:1 104:1 105:1 106:1 107:1 108:1 109:1 110:1 111:1 112:1 113:2 66486:1 76968:1 82232:1 102856:1 104967:1 115167:1 120770:1 #
0.049993067436813754 2:1 103:1 104:1 105:1 106:1 107:1 108:1 109:1 110:1 111:1 112:1 113:1 16274:1 35962:1 71346:1 96858:1 112633:1 145467:1 #
0.049993067436813754 2:2 103:2 104:1 105:1 106:1 107:1 108:1 109:1 110:1 111:1 112:1 113:1 34587:1 59927:1 62466:1 74604:1 77816:1 81593:1 85480:1 89725:1 116022:1 123052:1 127423:1 147036:1 147037:1 147038:1 #
0.049993067436813754 2:2 103:2 104:1 105:1 106:1 107:1 108:1 109:1 110:1 111:1 112:1 113:1 16274:1 96858:1 107931:1 110062:1 112633:1 145467:1 #
0.049993067436813754 2:2 103:1 104:1 105:1 106:1 107:1 108:1 109:1 110:1 111:1 112:1 113:1 35296:1 45885:1 58757:1 76338:1 95095:1 103873:1 120265:1 145467:1 146181:1 147038:1 #
-0.049993067436813754 2:2 103:1 104:2 105:1 106:1 107:1 108:1 109:1 110:1 111:1 112:1 113:2 36072:1 77816:1 #
-0.049993067436813754 2:2 103:2 104:1 105:1 106:1 107:1 108:1 109:1 110:1 111:1 112:1 113:2 36418:1 63149:1 102856:1 139249:1 #
-0.049993067436813754 2:1 103:1 104:1 105:1 106:1 107:1 108:2 109:1 110:1 111:2 112:1 113:2 15242:1 18009:1 102856:1 135599:1 #
-0.049993067436813754 2:1 103:1 104:2 105:1 106:1 107:1 108:1 109:1 110:1 111:1 112:1 113:2 #
-0.049993067436813754 2:2 103:2 104:2 105:1 106:1 107:1 108:1 109:1 110:1 111:1 112:1 113:1 76338:1 101308:1 137507:1 #
0.049993067436813754 2:1 103:1 104:1 105:1 106:1 107:1 108:1 109:1 110:1 111:1 112:1 113:2 70011:1 78099:1 102332:1 102856:1 119255:1 145819:1 #
0.049993067436813754 2:1 103:1 104:1 105:1 106:1 107:1 108:1 109:1 110:1 111:1 112:1 113:2 36561:1 76861:1 82093:1 102856:1 120721:1 138662:1 #
0.049993067436813754 2:1 103:1 104:1 105:1 106:1 107:1 108:1 109:1 110:1 111:1 112:1 113:2 18724:1 36072:1 75401:1 77064:1 82693:1 83173:1 102856:1 108188:1 137343:1 #
0.049993067436813754 2:1 103:1 104:1 105:1 106:1 107:1 108:1 109:1 110:1 111:2 112:1 113:2 36561:1 71694:1 82093:1 83802:1 102856:1 138662:1 #
0.049993067436813754 2:1 103:1 104:1 105:1 106:1 107:1 108:1 109:1 110:1 111:2 112:1 113:2 55225:1 82693:1 102856:1 116606:1 118697:1 126002:1 #
-0.049993067436813754 2:1 103:1 104:2 105:2 106:1 107:1 108:1 109:1 110:1 111:1 112:1 113:2 86668:1 144541:1 #
-0.049993067436813754 2:2 103:1 104:1 105:2 106:1 107:1 108:1 109:1 110:1 111:1 112:1 113:2 3691:1 112633:1 #
-0.049993067436813754 2:1 103:1 104:2 105:1 106:1 107:1 108:1 109:1 110:1 111:1 112:1 113:2 1368:1 119509:1 #
-0.049993067436813754 2:2 103:2 104:2 105:1 106:1 107:1 108:1 109:1 110:1 111:1 112:1 113:1 11838:1 63473:1 78022:1 101308:1 #
-0.049993067436813754 2:1 103:1 104:2 105:2 106:1 107:1 108:1 109:1 110:1 111:1 112:1 113:2 63236:1 77816:1 #
0.049993067436813754 2:2 103:2 104:1 105:1 106:1 107:1 108:1 109:1 110:1 111:1 112:1 113:1 11838:1 23286:1 35296:1 44587:1 63149:1 65880:1 67622:1 76515:1 114633:1 120766:1 #
0.049993067436813754 2:2 103:2 104:1 105:1 106:1 107:1 108:1 109:1 110:1 111:1 112:1 113:1 72932:1 76338:1 122785:1 128984:1 134304:1 #
0.049993067436813754 2:2 103:2 104:1 105:1 106:1 107:1 108:1 109:1 110:1 111:1 112:1 113:1 36985:1 59772:1 76338:1 76673:1 91793:1 98154:1 103555:1 #
0.049993067436813754 2:2 103:2 104:1 105:1 106:1 107:1 108:1 109:1 110:1 111:1 112:1 113:1 63473:1 104509:1 133553:1 138513:1 #
-0.049993067436813754 2:2 103:2 104:1 105:1 106:1 107:1 108:1 109:1 110:1 111:1 112:1 113:2 9571:1 19691:1 38427:1 62925:1 99452:1 126981:1 128793:1 #
-0.049993067436813754 2:2 103:2 104:1 105:1 106:1 107:1 108:1 109:1 110:1 111:1 112:1 113:2 53410:1 #
-0.049993067436813754 2:2 103:2 104:1 105:1 106:1 107:1 108:1 109:1 110:1 111:1 112:1 113:2 14361:1 36389:1 76338:1 80671:1 98154:1 106413:1 142649:1 #
-0.023089299170538494 2:2 103:2 104:1 105:1 106:1 107:1 108:1 109:1 110:1 111:1 112:1 113:2 58448:1 73583:1 126271:1 #
0.049993067436813754 2:1 103:1 104:1 105:1 106:1 107:1 108:1 109:1 110:1 111:1 112:1 113:1 9241:1 18724:1 36072:1 70535:1 75401:1 83173:1 89380:1 105996:1 108188:1 117203:1 124123:1 137343:1 145467:1 #
0.049993067436813754 2:1 103:1 104:1 105:1 106:1 107:1 108:1 109:1 110:1 111:2 112:1 113:2 14511:1 36561:1 56270:1 101308:1 #
0.049993067436813754 2:1 103:1 104:1 105:1 106:1 107:1 108:1 109:1 110:1 111:1 112:1 113:2 3691:1 21968:1 123944:1 #
0.049993067436813754 2:1 103:1 104:1 105:1 106:1 107:1 108:1 109:1 110:1 111:2 112:1 113:2 36072:1 54882:1 101308:1 #
0.049993067436813754 2:1 103:1 104:1 105:1 106:1 107:1 108:1 109:1 110:1 111:2 112:1 113:2 18724:1 83173:1 102856:1 108188:1 137343:1 #
-0.010212604802541339 2:2 103:2 104:2 105:1 106:1 107:1 108:1 109:1 110:1 111:1 112:1 113:1 68904:1 93820:1 109111:1 132399:1 #
-0.049993067436813754 2:1 103:1 104:1 105:1 106:1 107:1 108:1 109:1 110:1 111:2 112:1 113:2 37666:1 65478:1 101308:1 102856:1 #
-0.049993067436813754 2:1 103:1 104:2 105:1 106:1 107:1 108:1 109:1 110:1 111:1 112:1 113:2 35356:1 36418:1 102856:1 #
-0.029339239008931983 2:1 103:1 104:1 105:1 106:1 107:1 108:1 109:1 110:1 111:2 112:1 113:2 28086:1 101308:1 136317:1 #
0.049993067436813754 2:1 103:1 104:1 105:1 106:1 107:1 108:1 109:1 110:1 111:1 112:1 113:1 36985:1 59772:1 75334:1 76338:1 76673:1 91793:1 98154:1 116022:1 #
0.049993067436813754 2:2 103:1 104:1 105:1 106:1 107:1 108:1 109:1 110:1 111:1 112:1 113:2 25282:1 27608:1 59772:1 73094:1 75334:1 82693:1 98154:1 102760:1 103555:1 116022:1 141727:1 147036:1 #
0.049993067436813754 2:2 103:1 104:1 105:1 106:1 107:1 108:1 109:1 110:1 111:1 112:1 113:2 27608:1 59772:1 75334:1 82693:1 98154:1 102760:1 103555:1 116022:1 141727:1 147036:1 #
0.049993067436813754 2:2 103:2 104:1 105:1 106:1 107:1 108:1 109:1 110:1 111:1 112:1 113:1 59772:1 75334:1 98154:1 103555:1 116022:1 #
0.049993067436813754 2:2 103:2 104:1 105:1 106:1 107:1 108:1 109:1 110:1 111:1 112:1 113:2 18227:1 27608:1 58523:1 76338:1 82693:1 103555:1 116022:1 147036:1 #
-0.02098048129752492 2:2 103:1 104:1 105:1 106:1 107:1 108:1 109:1 110:1 111:1 112:1 113:2 6869:1 11188:1 19030:1 63473:1 75334:1 82693:1 103490:1 128060:1 147036:1 #
-0.049993067436813754 2:2 103:2 104:1 105:1 106:1 107:1 108:1 109:1 110:1 111:1 112:1 113:2 203:1 142649:1 #
-0.049993067436813754 2:2 103:2 104:1 105:1 106:1 107:1 108:1 109:1 110:1 111:1 112:1 113:2 5302:1 9604:1 27608:1 58523:1 59674:1 67373:1 82693:1 103555:1 116022:1 147036:1 #
-0.049993067436813754 2:2 103:2 104:1 105:1 106:1 107:1 108:1 109:1 110:1 111:1 112:1 113:2 25452:1 58448:1 59098:1 69981:1 70224:1 #
-0.049993067436813754 2:2 103:1 104:1 105:1 106:1 107:1 108:1 109:1 110:1 111:2 112:1 113:2 36561:1 101308:1 137974:1 #
0.049993067436813754 2:2 103:1 104:1 105:1 106:1 107:1 108:1 109:1 110:1 111:1 112:1 113:2 7652:1 35960:1 37610:1 54233:1 65478:1 73475:1 75788:1 80671:1 100352:1 102856:1 106413:1 145467:1 #
0.049993067436813754 2:2 103:2 104:1 105:1 106:1 107:1 108:1 109:1 110:1 111:2 112:1 113:2 29384:1 59927:1 66913:1 71130:1 76338:1 102856:1 103378:1 145467:1 #
0.049993067436813754 2:2 103:2 104:1 105:1 106:1 107:1 108:1 109:1 110:1 111:2 112:1 113:2 35869:1 66486:1 82232:1 94302:1 102856:1 #
0.049993067436813754 2:2 103:1 104:1 105:1 106:1 107:1 108:1 109:1 110:1 111:2 112:1 113:2 67572:1 84882:1 102856:1 103378:1 135578:1 #
0.049993067436813754 2:1 103:1 104:1 105:1 106:1 107:1 108:1 109:1 110:1 111:2 112:1 113:2 72018:1 80671:1 102856:1 #
-0.049993067436813754 2:2 103:2 104:1 105:1 106:1 107:1 108:1 109:1 110:1 111:2 112:1 113:2 19691:1 37610:1 101308:1 102856:1 #
-0.049993067436813754 2:2 103:2 104:1 105:1 106:1 107:1 108:1 109:1 110:1 111:2 112:1 113:2 36072:1 44448:1 70375:1 96367:1 102856:1 110659:1 113157:1 136930:1 #
-0.049993067436813754 2:2 103:2 104:1 105:1 106:1 107:1 108:1 109:1 110:1 111:2 112:1 113:2 37610:1 42451:1 56945:1 102856:1 126480:1 #
-0.049993067436813754 2:2 103:1 104:1 105:1 106:1 107:1 108:1 109:1 110:1 111:2 112:1 113:2 19691:1 37610:1 101308:1 102856:1 #
-0.049993067436813754 2:2 103:1 104:1 105:1 106:1 107:1 108:1 109:1 110:1 111:2 112:1 113:2 36072:1 68038:1 96367:1 102856:1 145467:1 #
0.049993067436813754 2:2 103:1 104:1 105:2 106:1 107:1 108:1 109:1 110:1 111:1 112:1 113:2 27608:1 59772:1 75334:1 82693:1 98154:1 103555:1 109111:1 116022:1 141727:1 147036:1 #
0.049993067436813754 2:2 103:2 104:1 105:1 106:1 107:1 108:1 109:1 110:1 111:1 112:1 113:2 2254:1 27608:1 31853:1 82693:1 97201:1 103555:1 116022:1 147036:1 #
0.049993067436813754 2:2 103:2 104:1 105:1 106:1 107:1 108:1 109:2 110:1 111:1 112:1 113:2 2254:1 11391:1 27608:1 36561:1 82693:1 84721:1 103555:1 115012:1 116022:1 135701:1 138662:1 147036:1 #
-0.049993067436813754 2:2 103:1 104:1 105:1 106:1 107:1 108:1 109:1 110:1 111:1 112:1 113:2 59772:1 76338:1 98222:1 116022:1 137817:1 #
-0.049993067436813754 2:2 103:1 104:1 105:2 106:1 107:1 108:1 109:1 110:1 111:1 112:1 113:2 15753:1 112633:1 #
-0.049993067436813754 2:2 103:2 104:1 105:1 106:1 107:1 108:1 109:1 110:1 111:1 112:1 113:2 26328:1 135473:1 142649:1 #
-0.049993067436813754 2:2 103:2 104:1 105:1 106:1 107:1 108:1 109:1 110:1 111:1 112:1 113:2 10902:1 141697:1 #
0.049993067436813754 2:2 103:2 104:2 105:2 106:1 107:1 108:1 109:1 110:1 111:1 112:1 113:2 135698:1 142906:1 #
0.049993067436813754 2:1 103:1 104:1 105:1 106:1 107:1 108:1 109:1 110:1 111:2 112:1 113:2 36072:1 59674:1 67373:1 102856:1 #
0.049993067436813754 2:2 103:1 104:1 105:1 106:1 107:1 108:1 109:1 110:1 111:2 112:1 113:2 19691:1 36418:1 59674:1 67373:1 102856:1 #
0.049993067436813754 2:1 103:1 104:1 105:1 106:1 107:1 108:1 109:1 110:1 111:2 112:1 113:2 36072:1 58448:1 59674:1 102856:1 #
0.049993067436813754 2:2 103:1 104:1 105:1 106:1 107:1 108:1 109:1 110:1 111:2 112:1 113:2 31178:1 37666:1 58523:1 102856:1 #
0.049993067436813754 2:1 103:1 104:1 105:1 106:1 107:1 108:1 109:1 110:1 111:2 112:1 113:2 36072:1 82737:1 102856:1 #
-0.049993067436813754 2:1 103:1 104:2 105:1 106:1 107:1 108:1 109:1 110:1 111:1 112:1 113:2 123944:1 #
-0.049993067436813754 2:2 103:2 104:2 105:1 106:1 107:1 108:1 109:1 110:1 111:1 112:1 113:1 14671:1 34861:1 141661:1 #
-0.049993067436813754 2:1 103:1 104:1 105:1 106:1 107:1 108:1 109:1 110:1 111:1 112:1 113:2 18521:1 27827:1 96920:1 106185:1 112633:1 133504:1 #
0.049993067436813754 2:2 103:2 104:2 105:1 106:1 107:1 108:1 109:1 110:1 111:1 112:1 113:2 73905:1 112633:1 #
0.049993067436813754 2:2 103:2 104:1 105:1 106:1 107:1 108:1 109:1 110:1 111:1 112:1 113:1 11838:1 27608:1 59927:1 82956:1 86126:1 116022:1 121725:1 147036:1 #
0.049993067436813754 2:2 103:1 104:1 105:1 106:1 107:1 108:1 109:1 110:1 111:1 112:1 113:1 17785:1 22293:1 40215:1 48809:1 78528:1 82693:1 99357:1 147037:1 147038:1 #
0.049993067436813754 2:1 103:1 104:1 105:1 106:1 107:1 108:1 109:1 110:1 111:1 112:1 113:1 12692:1 27114:1 28034:1 59772:1 64297:1 98154:1 103555:1 120770:1 121673:1 #
0.049993067436813754 2:2 103:1 104:1 105:1 106:1 107:1 108:1 109:1 110:1 111:1 112:1 113:1 14856:1 14886:1 35490:1 67856:1 76026:1 76338:1 #
0.049993067436813754 2:1 103:1 104:1 105:1 106:1 107:1 108:1 109:1 110:1 111:1 112:1 113:1 36389:1 76338:1 98154:1 106413:1 141697:1 142649:1 #
-0.049993067436813754 2:2 103:2 104:2 105:1 106:1 107:1 108:1 109:1 110:1 111:2 112:1 113:2 77816:1 102856:1 114633:1 #
-0.049993067436813754 2:2 103:2 104:2 105:1 106:1 107:1 108:1 109:1 110:1 111:1 112:1 113:2 53861:1 77816:1 #
-0.049993067436813754 2:2 103:2 104:1 105:1 106:1 107:1 108:1 109:1 110:1 111:1 112:1 113:2 12571:1 68406:1 70683:1 103090:1 127767:1 147037:1 147038:1 #
0.049993067436813754 2:1 103:1 104:1 105:1 106:1 107:1 108:1 109:1 110:1 111:2 112:1 113:2 27917:1 58448:1 59674:1 67373:1 102856:1 #
0.049993067436813754 2:1 103:1 104:1 105:1 106:1 107:1 108:1 109:1 110:1 111:1 112:1 113:2 5302:1 9604:1 58448:1 59674:1 67373:1 #
0.049993067436813754 2:1 103:1 104:1 105:1 106:1 107:1 108:1 109:1 110:1 111:2 112:1 113:2 14768:1 78095:1 82693:1 102856:1 120453:1 #
0.049993067436813754 2:2 103:2 104:1 105:1 106:1 107:1 108:1 109:1 110:1 111:1 112:1 113:2 19691:1 36418:1 49578:1 59674:1 67373:1 71039:1 82693:1 86440:1 86854:1 102856:1 103378:1 #
0.049993067436813754 2:2 103:2 104:2 105:2 106:1 107:1 108:1 109:1 110:1 111:1 112:1 113:2 14671:1 32784:1 #
-0.038036778075888275 2:1 103:1 104:1 105:2 106:1 107:1 108:1 109:1 110:1 111:1 112:1 113:2 63236:1 113327:1 #
-0.049993067436813754 2:2 103:2 104:2 105:1 106:1 107:1 108:1 109:1 110:1 111:1 112:1 113:2 31441:1 77816:1 91404:1 #
-0.049993067436813754 2:2 103:2 104:2 105:1 106:1 107:1 108:1 109:1 110:1 111:1 112:1 113:1 11838:1 14671:1 59440:1 101308:1 #
0.049993067436813754 2:2 103:2 104:1 105:1 106:1 107:1 108:1 109:1 110:1 111:1 112:1 113:1 4321:1 60521:1 78356:1 86734:1 91846:1 #
0.049993067436813754 2:1 103:1 104:1 105:1 106:1 107:1 108:1 109:1 110:1 111:1 112:1 113:1 35962:1 76338:1 78687:1 86734:1 142190:1 #
0.049993067436813754 2:2 103:1 104:1 105:2 106:1 107:1 108:1 109:1 110:1 111:1 112:1 113:2 14361:1 23286:1 35962:1 58499:1 59674:1 76338:1 82693:1 86734:1 109111:1 114965:1 142190:1 #
0.049993067436813754 2:2 103:1 104:1 105:1 106:1 107:1 108:1 109:1 110:1 111:1 112:1 113:1 22952:1 25827:1 58799:1 84146:1 86734:1 107903:1 #
-0.049993067436813754 2:2 103:2 104:1 105:1 106:1 107:1 108:1 109:1 110:1 111:1 112:1 113:2 3691:1 14361:1 23286:1 35962:1 59674:1 72149:1 76338:1 86734:1 #
0.049993067436813754 2:2 103:2 104:2 105:1 106:1 107:1 108:1 109:1 110:1 111:1 112:1 113:2 101308:1 #
-0.034470564763582567 2:2 103:2 104:1 105:1 106:1 107:1 108:1 109:1 110:1 111:1 112:1 113:2 25827:1 67320:1 90813:1 107903:1 146557:1 #
-0.049993067436813754 2:2 103:2 104:1 105:1 106:1 107:1 108:1 109:1 110:1 111:1 112:1 113:2 3691:1 14361:1 23286:1 35962:1 58499:1 59674:1 76338:1 82693:1 86734:1 114965:1 142190:1 #
0.049993067436813754 2:2 103:1 104:1 105:1 106:1 107:1 108:1 109:1 110:1 111:1 112:1 113:2 11838:1 19034:1 20866:1 35505:1 47705:1 50532:1 54045:1 57379:1 64397:1 69057:1 76338:1 82693:1 86440:1 98919:1 102856:1 108510:1 #
0.049993067436813754 2:2 103:1 104:1 105:1 106:1 107:1 108:1 109:1 110:1 111:1 112:1 113:2 15895:1 82693:1 88970:1 99323:1 102856:1 116593:1 147037:1 147038:1 #
0.049993067436813754 2:1 103:1 104:1 105:1 106:1 107:1 108:1 109:1 110:1 111:1 112:1 113:2 14886:1 67856:1 82693:1 102856:1 124275:1 #
0.049993067436813754 2:1 103:1 104:1 105:1 106:1 107:1 108:1 109:1 110:1 111:1 112:1 113:2 572:1 14886:1 33384:1 67856:1 82693:1 89973:1 102856:1 121156:1 130369:1 #
0.049993067436813754 2:2 103:1 104:1 105:1 106:1 107:1 108:1 109:1 110:1 111:1 112:1 113:2 27917:1 53405:1 58252:1 60115:1 76338:1 82693:1 102856:1 104133:1 110468:1 116022:1 129786:1 147036:1 #
-0.046533977989468303 2:2 103:1 104:1 105:1 106:1 107:1 108:1 109:1 110:1 111:1 112:1 113:2 2009:1 9441:1 11838:1 12693:1 14856:1 14886:1 41090:1 54028:1 82693:1 119300:1 144192:1 #
-0.049993067436813754 2:2 103:2 104:1 105:1 106:1 107:1 108:1 109:1 110:1 111:1 112:1 113:2 2254:1 22952:1 70391:1 86734:1 #
-0.049993067436813754 2:2 103:2 104:2 105:1 106:1 107:1 108:1 109:1 110:1 111:1 112:1 113:1 36072:1 47815:1 75334:1 101308:1 136164:1 #
-0.049993067436813754 2:1 103:1 104:1 105:1 106:1 107:1 108:1 109:1 110:1 111:1 112:1 113:2 11838:1 19034:1 20866:1 35505:1 47705:1 54045:1 57379:1 64397:1 69057:1 76338:1 82693:1 86440:1 98919:1 108510:1 121157:1 #
0.049993067436813754 2:2 103:2 104:2 105:1 106:1 107:1 108:1 109:1 110:1 111:1 112:1 113:2 11838:1 112633:1 132670:1 138179:1 #
0.049993067436813754 2:2 103:2 104:1 105:1 106:1 107:1 108:1 109:1 110:1 111:1 112:1 113:2 23286:1 59674:1 68976:1 86734:1 111815:1 129424:1 130738:1 #
0.049993067436813754 2:2 103:2 104:1 105:1 106:1 107:1 108:1 109:1 110:1 111:1 112:1 113:2 817:1 21852:1 42473:1 75334:1 143868:1 #
0.049993067436813754 2:2 103:2 104:1 105:1 106:1 107:1 108:1 109:1 110:1 111:1 112:1 113:2 1387:1 14361:1 26911:1 35310:1 58448:1 75334:1 76338:1 130507:1 #
0.049993067436813754 2:2 103:2 104:1 105:1 106:1 107:1 108:1 109:1 110:1 111:1 112:1 113:2 817:1 21852:1 42473:1 143868:1 #
-0.049993067436813754 2:2 103:2 104:1 105:1 106:1 107:1 108:1 109:1 110:1 111:1 112:1 113:2 54882:1 #
-0.01453603395935596 2:1 103:1 104:1 105:1 106:1 107:1 108:1 109:1 110:1 111:1 112:1 113:2 96354:1 116042:1 145038:1 146557:1 #
0.049993067436813754 2:2 103:2 104:2 105:1 106:1 107:1 108:1 109:1 110:1 111:1 112:1 113:2 69940:1 112633:1 #
-0.049993067436813754 2:1 103:1 104:2 105:1 106:1 107:1 108:1 109:1 110:1 111:1 112:1 113:2 97201:1 115792:1 #
0.049993067436813754 2:1 103:1 104:1 105:1 106:1 107:1 108:1 109:1 110:1 111:1 112:1 113:1 2254:1 11838:1 14886:1 28192:1 28490:1 67856:1 144238:1 #
0.049993067436813754 2:1 103:1 104:1 105:1 106:1 107:1 108:1 109:1 110:1 111:1 112:1 113:1 55971:1 68821:1 80543:1 82654:1 82693:1 109007:1 128170:1 143581:1 #
0.049993067436813754 2:1 103:1 104:1 105:1 106:1 107:1 108:1 109:1 110:1 111:1 112:1 113:1 3691:1 34714:1 34765:1 54045:1 118353:1 #
0.049993067436813754 2:1 103:1 104:1 105:1 106:1 107:1 108:1 109:1 110:1 111:1 112:1 113:2 36418:1 40553:1 42322:1 82693:1 139556:1 146557:1 #
0.049993067436813754 2:2 103:2 104:2 105:1 106:1 107:1 108:1 109:1 110:1 111:1 112:1 113:2 112633:1 142649:1 #
-0.049993067436813754 2:2 103:2 104:2 105:1 106:1 107:1 108:1 109:1 110:1 111:1 112:1 113:2 58448:1 77816:1 82693:1 86126:1 #
-0.049993067436813754 2:2 103:2 104:1 105:1 106:1 107:1 108:1 109:1 110:1 111:1 112:1 113:2 18724:1 61254:1 64729:1 71158:1 82693:1 83173:1 108188:1 #
-0.049993067436813754 2:2 103:2 104:1 105:1 106:1 107:1 108:1 109:1 110:1 111:1 112:1 113:2 10902:1 106210:1 #
0.049993067436813754 2:1 103:1 104:1 105:1 106:1 107:1 108:1 109:1 110:1 111:1 112:1 113:2 817:1 21852:1 42473:1 75334:1 143868:1 #
0.049993067436813754 2:2 103:2 104:1 105:1 106:1 107:1 108:1 109:1 110:1 111:1 112:1 113:2 205:1 1183:1 13231:1 21152:1 24886:1 28086:1 63473:1 82693:1 114861:1 147036:1 #
0.049993067436813754 2:2 103:2 104:1 105:1 106:1 107:1 108:1 109:1 110:1 111:1 112:1 113:2 6035:1 35940:1 41764:1 47960:1 52829:1 55235:1 66024:1 79303:1 82693:1 92468:1 100209:1 101308:1 128911:1 140477:1 147032:1 147033:1 147036:1 #
0.049993067436813754 2:2 103:2 104:1 105:1 106:1 107:1 108:1 109:1 110:1 111:1 112:1 113:2 76338:1 78972:1 98222:1 102856:1 116022:1 137817:1 #
0.049993067436813754 2:2 103:2 104:2 105:1 106:1 107:1 108:1 109:1 110:1 111:1 112:1 113:2 817:1 21852:1 112633:1 143868:1 #
-0.049993067436813754 2:2 103:1 104:1 105:1 106:1 107:1 108:1 109:1 110:1 111:1 112:1 113:2 5995:1 6035:1 35940:1 41764:1 47960:1 52829:1 55235:1 66024:1 82693:1 92468:1 100209:1 128911:1 140477:1 147032:1 147033:1 147036:1 #
-0.049993067436813754 2:1 103:1 104:1 105:2 106:1 107:1 108:1 109:1 110:1 111:1 112:1 113:2 73905:1 92895:1 102856:1 112633:1 #
-0.046936956358887172 2:1 103:1 104:1 105:1 106:1 107:1 108:1 109:1 110:1 111:1 112:1 113:2 11722:1 14886:1 67856:1 70375:1 86440:1 94678:1 123120:1 #
-0.049993067436813754 2:2 103:2 104:2 105:1 106:1 107:1 108:1 109:1 110:1 111:1 112:1 113:1 24218:1 63236:1 76338:1 80001:1 112633:1 #
-0.049993067436813754 2:1 103:1 104:2 105:2 106:1 107:1 108:1 109:1 110:1 111:1 112:1 113:2 63236:1 77816:1 #
0.049993067436813754 2:2 103:1 104:1 105:1 106:1 107:1 108:1 109:1 110:1 111:1 112:1 113:2 58448:1 66837:1 111815:1 124251:1 129424:1 135015:1 142678:1 #
0.049993067436813754 2:2 103:1 104:1 105:1 106:1 107:1 108:1 109:1 110:1 111:1 112:1 113:2 16091:1 18009:1 33103:1 35296:1 59674:1 86734:1 111605:1 111815:1 129424:1 #
0.049993067436813754 2:1 103:1 104:1 105:1 106:1 107:1 108:1 109:1 110:1 111:1 112:1 113:1 11639:1 36072:1 76338:1 82737:1 132634:1 143225:1 #
0.049993067436813754 2:1 103:1 104:1 105:1 106:1 107:1 108:1 109:1 110:1 111:1 112:1 113:1 2722:1 16410:1 40244:1 80746:1 86126:1 86440:1 133366:1 141050:1 #
-0.049993067436813754 2:2 103:2 104:1 105:2 106:1 107:1 108:1 109:1 110:1 111:1 112:1 113:2 16174:1 63236:1 #
0.049993067436813754 2:2 103:1 104:2 105:1 106:1 107:1 108:1 109:1 110:1 111:1 112:1 113:2 63236:1 123944:1 #
0.049993067436813754 2:2 103:1 104:1 105:2 106:1 107:1 108:1 109:1 110:1 111:1 112:1 113:2 109111:1 142550:1 #
-0.049993067436813754 2:2 103:2 104:1 105:1 106:1 107:1 108:1 109:2 110:1 111:1 112:1 113:2 5848:1 16022:1 28821:1 31441:1 55142:1 69859:1 82693:1 91404:1 91864:1 147037:1 147038:1 #
0.049993067436813754 2:2 103:2 104:1 105:1 106:1 107:1 108:1 109:1 110:1 111:1 112:1 113:2 11639:1 24702:1 27114:1 28086:1 39852:1 66024:1 66120:1 68753:1 75811:1 82693:1 100226:1 104807:1 120766:1 128118:1 128170:1 132723:1 147036:1 #
0.049993067436813754 2:2 103:2 104:1 105:1 106:1 107:1 108:1 109:1 110:1 111:1 112:1 113:2 14886:1 51782:1 59009:1 67856:1 82693:1 102856:1 124275:1 #
0.049993067436813754 2:2 103:1 104:1 105:1 106:1 107:1 108:1 109:1 110:1 111:1 112:1 113:2 11639:1 24702:1 27114:1 28086:1 39852:1 66120:1 68753:1 75811:1 82693:1 100226:1 104807:1 120766:1 128118:1 128170:1 132723:1 147036:1 #
-0.049993067436813754 2:1 103:1 104:2 105:1 106:1 107:1 108:1 109:1 110:1 111:1 112:1 113:2 42493:1 #
-0.049993067436813754 2:2 103:1 104:2 105:1 106:1 107:1 108:1 109:1 110:1 111:1 112:1 113:2 205:1 77816:1 99113:1 #
-0.049993067436813754 2:1 103:1 104:1 105:1 106:1 107:1 108:1 109:2 110:1 111:2 112:1 113:2 45505:1 75141:1 102856:1 112851:1 #
-0.049993067436813754 2:2 103:2 104:1 105:1 106:1 107:2 108:2 109:2 110:1 111:1 112:1 113:1 11838:1 71964:1 79012:1 102856:1 118844:1 #
0.049993067436813754 2:1 103:1 104:1 105:1 106:1 107:1 108:1 109:1 110:1 111:1 112:1 113:1 35490:1 53664:1 76338:1 86734:1 #
0.049993067436813754 2:1 103:1 104:1 105:1 106:1 107:1 108:1 109:1 110:1 111:1 112:1 113:1 35356:1 65315:1 76338:1 120265:1 #
0.049993067436813754 2:1 103:1 104:1 105:1 106:1 107:1 108:1 109:1 110:1 111:1 112:1 113:1 12010:1 15490:1 57936:1 76338:1 79999:1 84465:1 #
0.049993067436813754 2:1 103:1 104:1 105:1 106:1 107:1 108:1 109:1 110:1 111:1 112:1 113:1 28222:1 46685:1 60175:1 63210:1 100294:1 134413:1 140764:1 #
-0.049993067436813754 2:2 103:2 104:1 105:1 106:1 107:2 108:2 109:2 110:1 111:1 112:1 113:1 36418:1 102856:1 103378:1 #
-0.049993067436813754 2:2 103:2 104:1 105:2 106:1 107:1 108:1 109:1 110:1 111:1 112:1 113:2 107580:1 109111:1 #
-0.049993067436813754 2:1 103:1 104:1 105:1 106:1 107:1 108:1 109:1 110:1 111:1 112:1 113:2 36359:1 41764:1 66024:1 76994:1 112851:1 128911:1 147032:1 147033:1 #
-0.049993067436813754 2:2 103:1 104:1 105:1 106:1 107:1 108:1 109:1 110:1 111:1 112:1 113:2 56923:1 62511:1 67856:1 68087:1 132384:1 #
-0.016703445811331746 2:1 103:1 104:1 105:1 106:1 107:1 108:1 109:1 110:1 111:1 112:1 113:2 22406:1 22810:1 31016:1 49971:1 54046:1 54285:1 64149:1 76968:1 116593:1 136317:1 140646:1 142510:1 145467:1 147036:1 #
0.049993067436813754 2:2 103:2 104:1 105:1 106:1 107:1 108:1 109:1 110:1 111:1 112:1 113:1 24702:1 27114:1 39852:1 66120:1 100226:1 104807:1 #
-0.049993067436813754 2:2 103:1 104:1 105:1 106:1 107:1 108:1 109:1 110:1 111:1 112:1 113:2 73775:1 123944:1 #
0.049993067436813754 2:1 103:1 104:1 105:1 106:1 107:1 108:1 109:1 110:1 111:1 112:1 113:2 11639:1 24702:1 27114:1 39852:1 66024:1 75811:1 76338:1 82693:1 100226:1 104509:1 104807:1 120766:1 128118:1 128170:1 132723:1 #
-0.049993067436813754 2:1 103:1 104:2 105:1 106:1 107:1 108:1 109:1 110:1 111:1 112:1 113:2 99873:1 102856:1 #
-0.049993067436813754 2:2 103:1 104:1 105:1 106:1 107:1 108:1 109:1 110:1 111:1 112:1 113:2 9357:1 15318:1 59381:1 74676:1 82693:1 114047:1 132723:1 134333:1 139556:1 #
-0.049993067436813754 2:2 103:2 104:2 105:1 106:1 107:1 108:1 109:1 110:1 111:1 112:1 113:1 17921:1 43913:1 76338:1 92529:1 112633:1 122557:1 #
-0.049993067436813754 2:2 103:2 104:1 105:1 106:1 107:1 108:1 109:1 110:1 111:1 112:1 113:2 5174:1 22393:1 120893:1 #
-0.049993067436813754 2:1 103:1 104:2 105:1 106:1 107:1 108:1 109:1 110:1 111:1 112:1 113:2 24061:1 45280:1 133536:1 #
0.049993067436813754 2:1 103:1 104:1 105:1 106:1 107:1 108:1 109:1 110:1 111:1 112:1 113:1 210:1 11838:1 37610:1 44801:1 54285:1 140646:1 147036:1 #
0.049993067436813754 2:2 103:2 104:1 105:1 106:1 107:1 108:1 109:1 110:1 111:1 112:1 113:1 1000:1 34962:1 87044:1 93990:1 113442:1 147033:1 147036:1 #
0.049993067436813754 2:2 103:1 104:1 105:1 106:1 107:1 108:1 109:1 110:1 111:1 112:1 113:1 8335:1 28034:1 51479:1 68904:1 84374:1 100200:1 108824:1 143747:1 145467:1 #
0.049993067436813754 2:1 103:1 104:1 105:1 106:1 107:1 108:1 109:1 110:1 111:1 112:1 113:1 28086:1 66120:1 88612:1 100226:1 113442:1 #
0.049993067436813754 2:2 103:1 104:1 105:1 106:1 107:1 108:1 109:1 110:1 111:1 112:1 113:1 3913:1 23082:1 30054:1 36072:1 76338:1 94425:1 110755:1 142937:1 147036:1 #
-0.029002446652914571 2:1 103:1 104:1 105:1 106:1 107:1 108:1 109:1 110:1 111:1 112:1 113:2 513:1 35296:1 35962:1 70553:1 76338:1 130098:1 134413:1 143266:1 #
-0.049993067436813754 2:2 103:2 104:1 105:1 106:1 107:1 108:1 109:1 110:1 111:1 112:1 113:2 1000:1 34962:1 65264:1 80699:1 87044:1 93394:1 93990:1 104454:1 113442:1 131711:1 147032:1 147033:1 147036:1 147037:1 147038:1 #
-0.049993067436813754 2:2 103:2 104:2 105:1 106:1 107:1 108:1 109:1 110:1 111:1 112:1 113:1 76338:1 112633:1 133544:1 #
-0.049993067436813754 2:2 103:2 104:1 105:1 106:1 107:1 108:1 109:1 110:1 111:1 112:1 113:2 13526:1 82693:1 91253:1 93830:1 137113:1 142649:1 145893:1 147036:1 #
-0.049993067436813754 2:2 103:1 104:1 105:1 106:1 107:1 108:1 109:1 110:1 111:1 112:1 113:2 19413:1 99262:1 102856:1 142649:1 #
0.049993067436813754 2:2 103:2 104:1 105:1 106:1 107:1 108:1 109:1 110:1 111:1 112:1 113:2 21578:1 29172:1 40244:1 76963:1 80746:1 82693:1 86126:1 102539:1 102856:1 117632:1 141050:1 #
0.049993067436813754 2:2 103:2 104:1 105:1 106:1 107:1 108:1 109:1 110:1 111:1 112:1 113:2 24702:1 76338:1 102856:1 104509:1 104807:1 128170:1 #
0.049993067436813754 2:2 103:1 104:1 105:1 106:1 107:1 108:1 109:1 110:1 111:1 112:1 113:2 14361:1 23286:1 35296:1 35962:1 58499:1 59674:1 76338:1 82693:1 86734:1 111605:1 111815:1 114965:1 129424:1 142190:1 #
0.049993067436813754 2:2 103:1 104:1 105:1 106:1 107:1 108:1 109:1 110:1 111:2 112:1 113:2 24702:1 102856:1 104807:1 128170:1 #
-0.049993067436813754 2:2 103:2 104:1 105:2 106:1 107:1 108:1 109:1 110:1 111:2 112:1 113:2 102856:1 112633:1 142649:1 #
-0.049993067436813754 2:2 103:2 104:1 105:2 106:1 107:1 108:1 109:1 110:1 111:1 112:1 113:2 107105:1 112633:1 143816:1 #
-0.049993067436813754 2:2 103:2 104:1 105:1 106:1 107:1 108:1 109:1 110:1 111:1 112:1 113:2 36072:1 59750:1 #
-0.049993067436813754 2:2 103:1 104:1 105:1 106:1 107:1 108:1 109:1 110:1 111:1 112:1 113:2 222:1 14361:1 23286:1 35962:1 58499:1 59674:1 76338:1 82693:1 86734:1 114965:1 131582:1 142190:1 #
0.049993067436813754 2:2 103:2 104:1 105:1 106:1 107:1 108:1 109:1 110:1 111:1 112:1 113:2 30423:1 51479:1 84374:1 98848:1 100725:1 102856:1 111740:1 114633:1 119831:1 128911:1 147036:1 #
0.049993067436813754 2:1 103:1 104:1 105:1 106:1 107:1 108:1 109:1 110:1 111:1 112:1 113:2 30423:1 48360:1 49272:1 128911:1 147032:1 147033:1 #
0.049993067436813754 2:1 103:1 104:1 105:1 106:1 107:1 108:1 109:1 110:1 111:1 112:1 113:1 20874:1 30423:1 44126:1 53842:1 59381:1 95101:1 100725:1 116139:1 117656:1 128911:1 145467:1 #
-0.024554818499178954 2:1 103:1 104:1 105:1 106:1 107:1 108:1 109:1 110:1 111:2 112:1 113:2 10902:1 101308:1 104133:1 #
-0.049993067436813754 2:1 103:1 104:1 105:1 106:1 107:1 108:1 109:2 110:1 111:2 112:1 113:2 76861:1 102856:1 139984:1 #
-0.049993067436813754 2:2 103:2 104:2 105:1 106:1 107:1 108:1 109:1 110:1 111:1 112:1 113:1 88206:1 89306:1 101308:1 136089:1 #
-0.049993067436813754 2:2 103:2 104:1 105:1 106:1 107:1 108:1 109:1 110:1 111:1 112:1 113:2 11838:1 72282:1 82956:1 86126:1 102856:1 121725:1 #
0.049993067436813754 2:2 103:1 104:2 105:1 106:1 107:1 108:1 109:1 110:1 111:1 112:1 113:2 14361:1 23286:1 35962:1 58499:1 59674:1 76338:1 82693:1 86734:1 109111:1 114965:1 142190:1 #
0.049993067436813754 2:1 103:1 104:1 105:2 106:1 107:1 108:1 109:1 110:1 111:1 112:1 113:2 23286:1 59674:1 86734:1 119017:1 136766:1 141727:1 146745:1 #
0.049993067436813754 2:1 103:1 104:1 105:2 106:1 107:1 108:1 109:1 110:1 111:1 112:1 113:2 23286:1 59674:1 86734:1 109111:1 119017:1 141727:1 146745:1 #
0.049993067436813754 2:1 103:1 104:1 105:1 106:1 107:1 108:1 109:1 110:1 111:1 112:1 113:2 23286:1 59674:1 86734:1 #
-0.049993067436813754 2:2 103:1 104:1 105:1 106:1 107:1 108:1 109:1 110:1 111:1 112:1 113:2 23286:1 59674:1 86734:1 98387:1 119017:1 141727:1 146745:1 #
-0.049993067436813754 2:1 103:1 104:2 105:2 106:1 107:1 108:1 109:1 110:1 111:1 112:1 113:2 31906:1 143482:1 #
-0.049993067436813754 2:2 103:1 104:1 105:2 106:1 107:1 108:1 109:1 110:1 111:1 112:1 113:2 112633:1 131711:1 #
